{"version":2,"format":"fnv1a-char-ngram-logreg-v1","dim":262144,"ngramMin":3,"ngramMax":5,"bias":0.826285580307967,"scale":0.01210306324364932,"weights":[[11,30],[27,-14],[44,-8],[45,60],[56,2],[61,-1],[75,21],[79,1],[81,19],[88,16],[105,-9],[122,-4],[136,-5],[148,-1],[159,-1],[164,-11],[168,-15],[185,-7],[196,-17],[212,-6],[246,-9],[258,-1],[287,-7],[313,16],[319,-12],[330,-6],[398,-8],[426,-7],[427,-21],[429,-6],[436,-2],[446,-10],[456,-10],[459,6],[461,-5],[467,48],[468,-4],[480,-10],[485,-3],[488,-1],[499,-4],[511,-7],[512,-1],[536,-4],[551,-1],[569,-3],[599,-28],[616,-7],[621,-24],[625,-2],[632,-9],[642,-3],[645,2],[646,-1],[680,-15],[683,-6],[728,-1],[738,-1],[744,-10],[777,-5],[783,-12],[792,-12],[794,-7],[801,-59],[812,-94],[844,-1],[852,-1],[893,-1],[915,15],[949,-12],[967,2],[1005,-10],[1007,-9],[1014,-11],[1028,-1],[1038,-1],[1053,-1],[1054,-18],[1063,-6],[1076,-3],[1077,-2],[1079,39],[1087,-3],[1091,-1],[1097,-8],[1122,-6],[1124,-8],[1135,14],[1136,-4],[1156,-12],[1170,-3],[1199,-11],[1204,-4],[1210,-2],[1212,-4],[1214,-1],[1222,-9],[1247,59],[1261,-12],[1282,-3],[1285,-6],[1288,1],[1303,63],[1313,-2],[1317,-4],[1329,-5],[1332,-1],[1334,-8],[1368,-1],[1410,-1],[1413,51],[1442,-8],[1444,-2],[1476,-13],[1486,-2],[1512,-11],[1538,1],[1552,-6],[1581,-10],[1593,-11],[1595,-11],[1607,-13],[1681,20],[1695,-4],[1704,1],[1707,-15],[1710,-10],[1733,-3],[1740,24],[1745,-6],[1762,3],[1766,53],[1788,-7],[1808,14],[1834,-4],[1858,-4],[1872,-2],[1881,-11],[1902,-15],[1910,-11],[1912,-1],[1929,-10],[1945,-14],[1962,-3],[1977,-8],[1989,-11],[1997,-14],[2010,-7],[2015,-15],[2016,26],[2073,-4],[2077,-11],[2080,6],[2087,8],[2089,-2],[2094,1],[2095,-12],[2098,-8],[2110,-6],[2120,-6],[2128,-8],[2139,-9],[2155,24],[2160,-4],[2170,-15],[2198,-16],[2259,-10],[2268,-1],[2279,-9],[2288,-11],[2319,-8],[2325,-16],[2331,-1],[2335,-8],[2346,-4],[2348,-18],[2360,-6],[2371,40],[2382,23],[2384,-6],[2387,2],[2388,-18],[2397,-14],[2407,-11],[2413,-18],[2424,-46],[2490,-13],[2501,5],[2510,-1],[2524,-8],[2536,-10],[2549,-15],[2551,-4],[2565,2],[2587,-1],[2610,10],[2625,1],[2628,-3],[2641,2],[2643,-8],[2660,-10],[2663,-6],[2683,-4],[2692,-10],[2725,-17],[2731,-11],[2735,-3],[2740,-3],[2771,-10],[2782,20],[2807,-9],[2812,-14],[2824,-4],[2826,33],[2841,-5],[2881,-3],[2884,-1],[2898,-10],[2913,44],[2933,-8],[2957,-2],[2989,-13],[3005,1],[3015,-10],[3017,1],[3023,-14],[3026,-10],[3045,-6],[3047,-5],[3057,41],[3059,-18],[3079,-8],[3087,-3],[3107,-1],[3118,-14],[3130,-10],[3153,-10],[3166,-1],[3173,-5],[3193,-3],[3194,-7],[3208,-8],[3222,-3],[3259,-1],[3279,-5],[3287,-26],[3316,-8],[3339,-5],[3351,-10],[3377,-11],[3394,-2],[3395,-8],[3401,3],[3414,-9],[3420,-4],[3447,-2],[3454,-2],[3458,-8],[3494,-4],[3496,-4],[3513,-16],[3527,-4],[3528,-8],[3545,-24],[3567,-11],[3572,5],[3588,-11],[3597,-8],[3607,-8],[3609,-20],[3627,2],[3636,-4],[3646,-10],[3663,-6],[3684,4],[3697,-10],[3706,-2],[3709,-1],[3717,-8],[3726,-17],[3730,-4],[3732,-6],[3735,-9],[3740,-11],[3741,-16],[3745,4],[3750,-7],[3760,-9],[3769,-3],[3771,-22],[3834,-7],[3837,-6],[3840,-13],[3855,-5],[3861,-17],[3868,-7],[3871,-17],[3894,-5],[3942,-9],[3945,2],[3961,-4],[3986,-6],[4003,-6],[4010,-3],[4019,4],[4032,52],[4033,-1],[4041,-2],[4048,-7],[4051,-2],[4072,-24],[4090,1],[4111,-1],[4124,10],[4128,-1],[4148,-30],[4152,-16],[4209,-11],[4226,-8],[4235,-1],[4239,-10],[4244,-1],[4249,-22],[4254,-10],[4267,-11],[4270,3],[4272,-10],[4276,-8],[4285,1],[4294,-1],[4295,-12],[4296,-7],[4325,-5],[4329,-1],[4343,-3],[4387,-12],[4393,-4],[4419,-1],[4435,55],[4444,-10],[4457,-1],[4476,-4],[4485,-11],[4486,-4],[4505,-8],[4509,58],[4512,-1],[4513,-8],[4523,-4],[4529,-4],[4542,-3],[4556,-1],[4581,-11],[4587,-15],[4598,-10],[4604,-11],[4623,3],[4629,-11],[4631,6],[4657,-7],[4670,58],[4673,-15],[4676,-7],[4712,-8],[4732,-6],[4772,-15],[4774,-1],[4777,-1],[4797,-1],[4810,1],[4842,-22],[4867,-1],[4878,-33],[4982,-1],[5010,-8],[5016,-15],[5029,19],[5044,-1],[5046,-6],[5052,-1],[5060,-4],[5093,-12],[5098,-7],[5101,-4],[5112,-6],[5129,3],[5138,-10],[5156,-24],[5166,3],[5179,-14],[5194,-4],[5209,-1],[5213,-1],[5241,22],[5248,-12],[5267,-18],[5274,-2],[5296,-6],[5306,-15],[5331,-3],[5345,-4],[5368,-8],[5370,-24],[5401,-4],[5415,-11],[5442,-8],[5444,-5],[5468,-2],[5474,-14],[5476,39],[5481,-1],[5488,14],[5499,-7],[5524,-1],[5530,-3],[5534,-16],[5549,-12],[5589,-2],[5592,-9],[5601,49],[5603,-28],[5611,-3],[5616,-42],[5629,-10],[5638,-11],[5644,-6],[5651,-7],[5660,29],[5678,-1],[5703,-8],[5710,-10],[5748,-5],[5844,-18],[5852,-1],[5878,-4],[5896,-7],[5907,63],[5953,-24],[5954,-4],[5972,-2],[5976,-35],[5987,-5],[5996,-9],[5998,-9],[6017,-10],[6029,-11],[6031,-2],[6034,-1],[6047,3],[6077,-3],[6088,-12],[6103,-23],[6140,-7],[6163,-2],[6164,-7],[6178,-7],[6180,-10],[6192,8],[6208,-3],[6213,-1],[6223,-30],[6241,8],[6244,-10],[6252,-9],[6279,1],[6288,-5],[6312,-8],[6389,-10],[6399,-2],[6421,-6],[6422,-1],[6425,-16],[6449,-10],[6450,3],[6471,-12],[6496,14],[6502,-10],[6512,-5],[6526,-4],[6529,-1],[6530,-2],[6531,-7],[6535,-1],[6543,-10],[6551,-17],[6566,1],[6588,-12],[6602,-5],[6606,18],[6624,-30],[6630,25],[6641,-10],[6644,-2],[6651,11],[6653,-3],[6674,-3],[6677,-1],[6689,-8],[6691,-60],[6709,-15],[6733,-8],[6758,-9],[6807,-6],[6826,-11],[6839,-15],[6853,31],[6856,-6],[6881,-1],[6889,-1],[6890,-5],[6892,83],[6914,-10],[6957,-14],[6977,21],[6991,2],[7013,-12],[7019,-1],[7027,-6],[7044,-11],[7050,-1],[7057,-1],[7078,-5],[7096,-6],[7108,-14],[7112,-10],[7115,-1],[7130,-6],[7145,-27],[7167,8],[7180,2],[7205,-24],[7207,-1],[7210,35],[7242,19],[7262,-24],[7279,-1],[7326,-4],[7349,-32],[7350,-7],[7371,-2],[7372,-15],[7388,54],[7442,-14],[7447,-5],[7456,-1],[7466,-12],[7473,-6],[7489,-2],[7509,-12],[7510,-15],[7512,63],[7513,-1],[7514,-1],[7526,-1],[7569,1],[7571,-14],[7574,-4],[7582,-7],[7583,25],[7609,-17],[7618,-15],[7629,-11],[7650,-9],[7653,23],[7654,8],[7659,5],[7678,-2],[7685,-3],[7709,-3],[7720,-1],[7744,-9],[7745,54],[7802,-2],[7806,-2],[7821,-6],[7826,-4],[7885,-13],[7904,-4],[7905,-8],[7932,-12],[7946,-3],[7967,-7],[7982,-1],[7996,-3],[8022,-15],[8024,-7],[8028,-4],[8031,-30],[8034,-9],[8037,-10],[8054,-10],[8062,-25],[8069,-23],[8075,-11],[8079,-3],[8081,-5],[8082,-10],[8083,-5],[8085,-1],[8118,-6],[8147,-7],[8157,-30],[8166,-5],[8171,-2],[8186,33],[8204,-8],[8225,-5],[8284,-7],[8288,-13],[8295,-5],[8310,-10],[8349,-11],[8389,-4],[8404,-4],[8413,-1],[8416,23],[8432,-4],[8452,-10],[8465,35],[8478,-1],[8511,-8],[8526,-24],[8536,28],[8554,-6],[8558,-6],[8574,26],[8575,-1],[8582,-4],[8596,-10],[8624,-16],[8638,40],[8643,-24],[8648,-8],[8658,58],[8659,-6],[8682,-24],[8714,-15],[8728,-1],[8736,7],[8742,-5],[8761,-30],[8765,-2],[8777,-3],[8778,-23],[8780,83],[8783,-1],[8792,24],[8860,-8],[8874,-8],[8875,-10],[8887,-6],[8891,-5],[8894,-13],[8895,-9],[8903,-31],[8910,-24],[8930,-2],[8954,-12],[8966,-2],[8979,2],[9007,-11],[9012,18],[9029,-1],[9034,-11],[9049,15],[9051,-1],[9052,-5],[9070,26],[9100,-2],[9113,-10],[9127,-10],[9132,-11],[9133,-6],[9194,-2],[9208,14],[9209,14],[9221,8],[9224,-17],[9225,-5],[9232,-5],[9242,1],[9246,-8],[9255,-9],[9288,-15],[9348,-9],[9359,-6],[9368,-17],[9382,-2],[9439,8],[9450,26],[9451,2],[9453,8],[9455,-9],[9476,-6],[9505,-3],[9516,-1],[9556,27],[9570,-15],[9585,-8],[9598,-2],[9608,20],[9619,-13],[9627,-31],[9629,-7],[9632,-8],[9663,-1],[9668,-4],[9684,-10],[9696,-3],[9719,14],[9738,-13],[9754,-6],[9764,-8],[9769,-6],[9790,-17],[9795,21],[9812,16],[9824,-8],[9826,-5],[9832,-16],[9870,-1],[9880,-10],[9919,-2],[9924,28],[9953,-7],[9955,-9],[9967,62],[9970,12],[9981,-5],[9989,23],[10002,-2],[10009,-14],[10018,-7],[10029,-2],[10052,18],[10053,-1],[10058,-14],[10061,-2],[10064,-23],[10066,-2],[10067,-10],[10072,-12],[10116,-9],[10143,-15],[10145,-3],[10167,20],[10175,48],[10188,2],[10204,-10],[10217,8],[10240,-15],[10295,13],[10298,-8],[10306,-6],[10339,-8],[10353,-5],[10370,-17],[10379,-5],[10388,-8],[10389,21],[10409,-28],[10425,-9],[10439,25],[10474,-6],[10480,43],[10489,63],[10491,-9],[10528,-7],[10529,-9],[10561,-1],[10575,-10],[10601,23],[10619,-7],[10628,-14],[10629,-15],[10649,30],[10753,-3],[10761,-1],[10766,-15],[10773,-36],[10784,-9],[10800,-1],[10803,-8],[10804,-12],[10807,-6],[10825,-30],[10840,-6],[10846,-5],[10859,4],[10883,26],[10893,-22],[10902,-2],[10930,-10],[10964,-14],[11001,-3],[11013,54],[11025,-24],[11032,-9],[11051,85],[11056,1],[11066,-11],[11091,8],[11106,-3],[11107,-2],[11135,5],[11144,-12],[11199,-9],[11202,-13],[11203,17],[11210,24],[11230,35],[11245,-3],[11267,-4],[11286,-36],[11289,44],[11293,-1],[11294,5],[11308,-9],[11319,-5],[11341,-1],[11365,43],[11390,-9],[11411,21],[11438,-2],[11453,43],[11459,1],[11478,-3],[11481,-13],[11510,-1],[11531,-8],[11542,-5],[11549,-6],[11550,24],[11559,-10],[11575,-8],[11585,-2],[11586,18],[11593,-10],[11611,-2],[11619,-8],[11621,-11],[11626,-3],[11641,-6],[11643,-5],[11678,-15],[11688,-3],[11698,20],[11700,-7],[11702,-11],[11708,-10],[11716,10],[11729,1],[11779,-2],[11794,59],[11798,-14],[11812,-8],[11826,-20],[11859,-12],[11892,-14],[11900,-7],[11919,-1],[11956,-1],[11957,-4],[11973,2],[11980,-1],[11992,-6],[12005,1],[12014,-4],[12028,-1],[12043,-8],[12045,-15],[12053,10],[12081,-29],[12086,-10],[12092,20],[12118,-24],[12124,-4],[12147,-2],[12185,-48],[12214,-1],[12226,-1],[12251,-1],[12259,-3],[12292,2],[12298,-3],[12302,-7],[12315,2],[12328,-55],[12336,-12],[12338,-11],[12348,3],[12357,32],[12358,-1],[12379,-5],[12385,-1],[12387,2],[12401,-7],[12408,18],[12409,-2],[12417,-8],[12418,-9],[12426,-11],[12437,-17],[12467,-8],[12468,-15],[12495,5],[12507,-7],[12518,-6],[12524,-6],[12528,-10],[12531,2],[12533,-3],[12549,-13],[12566,-5],[12584,17],[12595,-4],[12620,32],[12661,-5],[12674,-8],[12686,-20],[12714,-1],[12715,39],[12726,-1],[12748,-30],[12769,-1],[12774,2],[12784,-8],[12796,-4],[12833,-17],[12838,-30],[12839,-2],[12849,-2],[12864,-10],[12877,-3],[12878,-2],[12887,-26],[12898,84],[12901,-6],[12909,-8],[12924,-6],[12926,-3],[12970,-8],[12974,3],[12978,-5],[12989,-24],[13004,-14],[13025,-1],[13041,-1],[13053,-1],[13055,-7],[13061,-5],[13074,-1],[13083,-12],[13093,12],[13095,-9],[13112,-14],[13132,-1],[13141,-3],[13142,5],[13161,8],[13166,-6],[13191,-11],[13197,-4],[13199,-5],[13219,17],[13225,25],[13226,-17],[13247,-4],[13250,-5],[13263,-1],[13273,-8],[13285,-1],[13301,38],[13320,-1],[13322,-15],[13325,-1],[13332,-7],[13336,-3],[13381,-9],[13384,-9],[13407,49],[13456,-1],[13462,-7],[13470,-8],[13471,90],[13495,-12],[13552,-5],[13567,-9],[13568,-28],[13569,-5],[13570,-6],[13578,-5],[13589,-3],[13613,-5],[13623,-1],[13624,-15],[13627,-23],[13632,-12],[13639,-3],[13643,2],[13648,-1],[13655,-6],[13693,-15],[13696,-13],[13703,-3],[13704,7],[13710,-2],[13711,-8],[13712,-7],[13717,63],[13719,-5],[13762,1],[13787,26],[13801,18],[13819,-3],[13820,20],[13830,-2],[13831,-5],[13846,-4],[13854,98],[13874,-10],[13883,-10],[13906,-5],[13927,-5],[13931,-20],[13971,-8],[13975,24],[13977,-11],[13988,-12],[13993,-3],[13997,3],[13998,-4],[14006,-12],[14018,-4],[14020,-5],[14029,-7],[14035,-7],[14038,16],[14047,-9],[14101,-1],[14107,-8],[14109,-15],[14126,-5],[14161,-4],[14169,-5],[14176,-7],[14189,-10],[14202,-2],[14267,-1],[14268,-1],[14270,-6],[14274,-5],[14279,-11],[14283,-7],[14292,-2],[14303,-7],[14310,-23],[14330,-7],[14352,-1],[14358,-10],[14359,-8],[14382,45],[14386,-10],[14405,-1],[14419,-8],[14427,17],[14460,-6],[14461,-11],[14467,-2],[14471,-3],[14474,-11],[14489,-3],[14493,-11],[14510,33],[14515,-9],[14527,-51],[14539,-41],[14549,-1],[14593,-8],[14596,-6],[14603,-1],[14609,15],[14619,-5],[14640,-9],[14653,-10],[14679,-9],[14720,-9],[14729,-1],[14734,-8],[14745,-8],[14764,1],[14774,-3],[14775,-5],[14777,-18],[14811,-1],[14815,-14],[14825,-2],[14830,-5],[14839,15],[14857,-7],[14880,-1],[14900,-3],[14913,4],[14935,-2],[14963,-28],[14970,14],[14975,28],[14979,-5],[15049,8],[15056,-5],[15063,-9],[15083,-30],[15096,-15],[15136,-15],[15144,-5],[15159,-1],[15177,9],[15178,-23],[15179,3],[15180,-12],[15240,-9],[15262,-1],[15286,-6],[15315,-1],[15316,12],[15329,29],[15357,8],[15358,-16],[15375,-1],[15388,-2],[15418,-7],[15419,-9],[15420,2],[15424,-58],[15427,2],[15430,24],[15434,-9],[15440,-9],[15454,-1],[15457,-9],[15458,-10],[15461,97],[15462,58],[15473,-17],[15480,-8],[15483,-2],[15486,-7],[15494,-4],[15512,-15],[15517,-7],[15527,-3],[15549,-8],[15557,1],[15562,-9],[15570,1],[15578,-11],[15591,-1],[15610,20],[15615,-3],[15620,-8],[15636,-10],[15640,-8],[15643,1],[15680,-2],[15685,13],[15696,-11],[15700,2],[15719,71],[15724,-1],[15735,-3],[15741,59],[15745,-8],[15746,-24],[15747,10],[15755,-5],[15762,-3],[15763,-10],[15770,-11],[15778,-9],[15808,18],[15825,-1],[15838,-4],[15841,-2],[15857,-12],[15889,-4],[15894,-6],[15902,-3],[15922,-2],[15932,-7],[15964,12],[15974,-3],[15976,-1],[15982,-20],[15986,-1],[16015,-3],[16017,-9],[16048,-1],[16057,-10],[16065,-11],[16067,-5],[16089,58],[16093,45],[16099,-6],[16122,30],[16126,-8],[16133,-2],[16146,-5],[16148,29],[16168,-14],[16182,-2],[16200,-10],[16204,-6],[16223,-15],[16236,24],[16252,16],[16263,-7],[16265,-7],[16271,-2],[16284,-8],[16322,3],[16343,26],[16358,-18],[16394,-6],[16411,-12],[16419,-1],[16429,-8],[16435,-1],[16444,-7],[16449,3],[16465,-10],[16489,-6],[16490,-30],[16500,-3],[16515,-1],[16525,-9],[16527,2],[16535,6],[16541,-7],[16555,-10],[16573,-12],[16592,-13],[16608,-6],[16640,-9],[16643,-11],[16659,-30],[16660,1],[16665,-11],[16674,-10],[16678,28],[16686,-14],[16688,-8],[16697,-9],[16702,-1],[16706,15],[16712,-10],[16729,-3],[16769,-8],[16792,-5],[16818,-41],[16825,14],[16837,-6],[16846,-5],[16848,-2],[16873,-12],[16888,-6],[16909,-9],[16915,-7],[16925,-6],[16928,-6],[16931,-4],[16957,-8],[16964,-9],[16970,-8],[16994,-10],[17001,-30],[17004,-2],[17033,-8],[17034,-1],[17042,2],[17047,-6],[17077,2],[17084,-1],[17093,22],[17122,-30],[17129,-9],[17140,-1],[17144,-2],[17173,14],[17175,-3],[17182,3],[17192,-14],[17195,-17],[17202,-2],[17220,-7],[17239,-16],[17240,-16],[17259,-24],[17273,-5],[17274,-8],[17277,-11],[17284,-7],[17290,-30],[17340,24],[17342,-6],[17345,-15],[17390,-11],[17391,-5],[17433,-1],[17435,56],[17451,-4],[17478,-10],[17480,-6],[17501,-8],[17514,-7],[17525,-7],[17543,-15],[17553,-8],[17560,-4],[17567,-15],[17580,-8],[17582,-8],[17585,1],[17589,-12],[17598,-2],[17616,-3],[17713,28],[17723,-6],[17746,-1],[17747,-5],[17762,-3],[17764,-12],[17765,-3],[17801,-6],[17807,-1],[17814,-8],[17844,-16],[17848,2],[17855,-15],[17866,-10],[17877,-1],[17881,-1],[17883,-4],[17901,-2],[17907,-38],[17919,-4],[17925,-3],[17952,-4],[17963,-10],[17965,-4],[17978,6],[17980,-4],[17991,-2],[17992,-11],[18001,-9],[18040,-4],[18047,-10],[18049,-6],[18082,26],[18084,13],[18108,-3],[18116,-7],[18123,-6],[18136,-4],[18144,-9],[18154,63],[18159,-18],[18180,-7],[18191,-5],[18220,8],[18226,-1],[18234,-5],[18240,-6],[18249,12],[18251,25],[18261,-21],[18294,-6],[18303,-1],[18327,-5],[18360,-1],[18368,12],[18369,-2],[18376,1],[18382,-4],[18404,-2],[18410,-9],[18435,-7],[18475,-1],[18548,51],[18550,-1],[18558,-1],[18559,-1],[18584,-11],[18612,-1],[18637,88],[18651,38],[18678,-7],[18698,1],[18703,-3],[18717,-1],[18726,-7],[18747,-1],[18764,3],[18771,-7],[18773,-7],[18797,-12],[18804,-7],[18805,-8],[18809,6],[18817,-12],[18821,-1],[18882,15],[18888,-1],[18911,5],[18923,-16],[18936,-7],[18958,-4],[18967,-5],[19004,-4],[19019,-3],[19041,-1],[19058,-7],[19060,-1],[19061,-11],[19080,-9],[19088,-2],[19089,-23],[19149,-10],[19164,-3],[19166,-5],[19167,-30],[19174,-2],[19188,-10],[19192,-5],[19213,-3],[19215,2],[19250,-24],[19252,-28],[19256,-1],[19283,-11],[19286,-24],[19290,-11],[19297,-10],[19306,-1],[19351,-11],[19362,-1],[19368,-11],[19377,-19],[19398,-4],[19417,14],[19422,1],[19465,-16],[19466,-1],[19482,-9],[19485,-4],[19491,-7],[19492,-2],[19497,-1],[19507,-6],[19509,-5],[19515,-1],[19516,-8],[19525,-15],[19570,-8],[19577,-4],[19590,-10],[19591,26],[19611,-1],[19620,-15],[19622,-7],[19642,-5],[19645,1],[19654,-7],[19701,-34],[19712,-6],[19735,-10],[19737,-4],[19743,33],[19746,-1],[19750,36],[19818,-9],[19819,1],[19831,-8],[19842,-8],[19857,-1],[19861,21],[19867,-6],[19869,-9],[19888,-13],[19912,24],[19935,20],[19952,-12],[19980,-1],[19998,-5],[20043,-9],[20048,-3],[20050,-1],[20058,-28],[20061,-6],[20077,-4],[20087,18],[20097,11],[20103,-4],[20104,-7],[20119,-6],[20125,-8],[20131,1],[20146,-7],[20159,-2],[20166,-9],[20167,-5],[20169,-41],[20172,-11],[20187,-6],[20190,-8],[20192,-16],[20195,-10],[20206,1],[20207,-10],[20222,-23],[20229,-7],[20234,-12],[20250,-2],[20257,-8],[20267,-3],[20270,-14],[20271,-14],[20276,-5],[20281,44],[20332,63],[20345,-7],[20357,-9],[20376,2],[20383,-21],[20396,5],[20397,-12],[20417,-1],[20419,-2],[20423,1],[20455,28],[20460,-8],[20461,-28],[20477,-8],[20481,7],[20482,-10],[20492,-5],[20495,1],[20502,-9],[20524,1],[20530,9],[20543,-19],[20562,-15],[20591,-26],[20606,7],[20646,8],[20657,-5],[20669,-19],[20673,-8],[20675,-4],[20681,-7],[20682,-21],[20718,-2],[20723,-6],[20739,-2],[20763,-5],[20779,-20],[20786,-6],[20792,-11],[20801,-19],[20829,-13],[20840,-12],[20843,-1],[20863,-7],[20883,-7],[20892,93],[20897,-5],[20917,-5],[20921,-13],[20944,-4],[20955,-2],[20961,30],[20975,-36],[20995,-10],[21004,-10],[21005,-5],[21008,1],[21010,-1],[21032,-12],[21038,-9],[21044,3],[21059,-18],[21083,-7],[21139,-5],[21148,-24],[21163,-15],[21170,-8],[21173,-8],[21182,5],[21190,-12],[21199,-8],[21205,-8],[21225,-21],[21231,-1],[21232,-5],[21238,-7],[21269,-4],[21275,-3],[21290,-1],[21297,-11],[21300,-1],[21306,-11],[21308,6],[21310,-9],[21314,-29],[21317,-10],[21320,-5],[21326,7],[21368,-17],[21387,2],[21393,-1],[21400,49],[21402,-3],[21404,-23],[21405,-1],[21409,-3],[21416,-4],[21419,-5],[21426,8],[21435,8],[21454,10],[21464,-15],[21466,-9],[21471,-4],[21486,-24],[21503,-1],[21536,-11],[21565,-1],[21580,-8],[21585,-1],[21604,-29],[21610,-1],[21626,-3],[21634,-8],[21647,-4],[21652,-1],[21659,-8],[21660,-9],[21664,-11],[21665,-4],[21669,-33],[21677,-4],[21684,-3],[21700,-3],[21709,58],[21745,-10],[21754,-12],[21781,-18],[21783,-6],[21786,-15],[21788,-1],[21793,-6],[21828,-7],[21834,8],[21837,14],[21842,5],[21864,1],[21872,-8],[21889,-11],[21897,-4],[21900,-8],[21907,-3],[21927,-9],[21934,-9],[21936,-3],[21950,-3],[21952,-2],[21953,-3],[21962,-1],[21968,-11],[21976,-3],[21977,-4],[21987,-8],[21988,-18],[21989,-6],[22008,1],[22019,-30],[22022,-10],[22038,-12],[22062,-1],[22077,-12],[22085,-3],[22106,-3],[22149,-1],[22166,-11],[22195,8],[22198,-2],[22204,-1],[22211,-29],[22238,-2],[22250,-4],[22264,-5],[22279,-7],[22285,-14],[22288,5],[22296,-8],[22310,-8],[22323,-9],[22328,-1],[22345,-7],[22346,-2],[22359,-1],[22364,19],[22380,-10],[22383,-8],[22404,24],[22434,-8],[22445,-1],[22459,-4],[22477,-7],[22494,-8],[22496,-3],[22504,-2],[22521,-12],[22524,-15],[22526,-4],[22546,-1],[22580,-6],[22583,-1],[22584,-6],[22607,1],[22612,-1],[22635,-6],[22642,-7],[22659,1],[22684,-1],[22688,21],[22691,-17],[22711,-7],[22723,-30],[22728,-15],[22730,23],[22755,-10],[22757,-7],[22794,-14],[22805,-9],[22827,13],[22828,-8],[22837,-1],[22839,-11],[22841,-3],[22844,-8],[22852,2],[22858,14],[22878,-15],[22883,-4],[22885,52],[22893,-7],[22900,-1],[22901,-11],[22940,-7],[22950,-7],[22970,14],[22980,-5],[22997,-6],[23048,-10],[23063,-9],[23081,-64],[23087,1],[23096,-1],[23130,-10],[23141,-5],[23147,-3],[23150,-10],[23159,-9],[23163,56],[23171,-4],[23191,-3],[23197,-71],[23207,9],[23219,-1],[23247,-4],[23306,-8],[23317,14],[23330,-5],[23368,-1],[23388,-3],[23392,-1],[23394,-7],[23404,-3],[23436,-8],[23467,63],[23482,-6],[23497,10],[23521,-4],[23523,-21],[23546,-5],[23553,1],[23555,-8],[23600,-11],[23622,-2],[23627,-3],[23632,-33],[23659,-4],[23686,-1],[23697,10],[23705,-1],[23722,-10],[23755,-1],[23760,15],[23786,-1],[23787,-9],[23796,-37],[23805,-2],[23810,-36],[23833,-12],[23847,-9],[23868,1],[23885,1],[23891,-10],[23893,3],[23900,-38],[23922,-14],[23939,-7],[23940,-15],[23976,-6],[23997,-5],[24001,-24],[24003,-9],[24029,-10],[24035,-1],[24036,-9],[24039,21],[24057,-6],[24059,-16],[24066,-7],[24088,-5],[24089,8],[24102,36],[24108,-4],[24120,-1],[24141,-6],[24145,-12],[24150,-4],[24174,6],[24189,-13],[24213,27],[24219,14],[24251,-12],[24259,-1],[24282,36],[24290,-2],[24291,-24],[24310,28],[24314,-10],[24324,-5],[24327,-23],[24328,1],[24329,-8],[24339,-8],[24344,-8],[24346,-4],[24364,-4],[24369,-10],[24406,12],[24407,7],[24421,-1],[24439,-1],[24448,-9],[24451,-16],[24484,-4],[24490,-13],[24511,-6],[24514,-23],[24549,-7],[24557,13],[24562,-12],[24574,-6],[24578,-1],[24583,1],[24587,-15],[24591,-2],[24602,-8],[24618,-5],[24621,-3],[24624,-1],[24625,-5],[24626,-2],[24631,-9],[24674,-2],[24682,-7],[24693,-50],[24704,-4],[24714,-7],[24719,-11],[24765,-23],[24785,32],[24792,-10],[24800,-12],[24808,-4],[24809,33],[24816,-2],[24821,-4],[24823,-1],[24828,58],[24841,-53],[24852,-13],[24883,-1],[24888,-7],[24891,-2],[24898,-4],[24901,-6],[24903,-7],[24932,-7],[24944,15],[24956,2],[24993,-2],[24996,-3],[24998,-15],[25004,-9],[25068,13],[25083,15],[25102,-7],[25120,-6],[25126,6],[25128,-9],[25141,-10],[25162,-9],[25176,-4],[25206,-30],[25210,-3],[25212,-12],[25219,-1],[25226,-9],[25232,3],[25236,-7],[25243,-2],[25254,-10],[25257,-15],[25258,-9],[25268,-9],[25288,-3],[25290,-6],[25312,-8],[25313,17],[25323,1],[25325,9],[25349,-16],[25358,-18],[25372,-5],[25389,21],[25395,30],[25399,-2],[25414,-16],[25430,17],[25445,-5],[25469,2],[25477,24],[25497,-64],[25503,-18],[25512,-11],[25526,-4],[25569,1],[25607,-3],[25615,-2],[25622,-14],[25623,-1],[25650,-6],[25652,-4],[25665,-1],[25683,2],[25711,-3],[25712,-2],[25729,2],[25741,35],[25750,-16],[25769,24],[25787,-2],[25806,-15],[25819,30],[25828,-4],[25829,-3],[25847,-4],[25862,-6],[25872,-10],[25902,92],[25928,-10],[25947,-10],[25958,-6],[25961,-3],[25999,-5],[26004,-11],[26022,-9],[26025,14],[26040,-15],[26056,-8],[26061,-1],[26064,1],[26074,-11],[26103,-11],[26134,-12],[26141,-37],[26162,-23],[26176,-10],[26193,-6],[26205,-1],[26207,-10],[26213,-9],[26233,9],[26264,2],[26281,-6],[26288,-9],[26289,-7],[26305,-5],[26323,-1],[26329,-6],[26335,-10],[26349,-7],[26354,-1],[26385,-8],[26400,1],[26412,8],[26421,3],[26428,-18],[26435,-18],[26441,-10],[26476,-3],[26505,-4],[26507,2],[26531,-6],[26538,-7],[26549,-29],[26562,19],[26565,-3],[26640,-5],[26670,1],[26707,-2],[26708,-4],[26719,-7],[26759,16],[26780,-1],[26785,22],[26790,32],[26803,-12],[26815,-1],[26820,-4],[26824,125],[26831,-21],[26849,-11],[26851,49],[26861,43],[26868,1],[26872,-21],[26874,-8],[26900,-19],[26918,-1],[26954,-3],[26979,-24],[27000,-10],[27013,-5],[27029,-1],[27033,-5],[27040,-6],[27046,-5],[27056,2],[27082,22],[27092,10],[27111,56],[27112,2],[27117,25],[27119,-1],[27138,-11],[27148,1],[27156,-1],[27161,-1],[27175,-10],[27190,25],[27227,-29],[27232,-15],[27233,-8],[27244,-16],[27247,2],[27274,-1],[27277,-1],[27304,-36],[27311,-23],[27350,-5],[27362,-12],[27369,-3],[27376,-12],[27387,1],[27400,-4],[27413,-14],[27446,-3],[27449,4],[27451,-3],[27453,-3],[27456,-11],[27467,-23],[27497,63],[27514,-40],[27528,-1],[27540,-4],[27550,-7],[27584,3],[27594,-1],[27614,-5],[27629,16],[27637,-27],[27663,-12],[27676,-1],[27679,40],[27698,-4],[27700,-8],[27716,49],[27784,-17],[27789,-9],[27798,-7],[27813,6],[27825,-3],[27838,-5],[27845,7],[27861,-11],[27872,-2],[27876,2],[27885,-10],[27902,-3],[27908,-2],[27910,-4],[27917,-11],[27928,58],[27930,-27],[27935,-12],[27941,-7],[27954,-7],[27967,-2],[28006,-12],[28015,-1],[28019,-14],[28033,27],[28040,9],[28056,-8],[28108,-2],[28109,-9],[28153,-6],[28168,-2],[28173,-7],[28209,9],[28217,-1],[28258,-9],[28286,6],[28307,-15],[28357,-3],[28358,-8],[28360,-14],[28365,-24],[28419,-5],[28443,-14],[28483,-1],[28491,-8],[28502,9],[28514,-8],[28520,74],[28546,-17],[28552,-8],[28556,-8],[28558,15],[28559,-2],[28578,-10],[28588,16],[28603,-1],[28615,-2],[28633,13],[28652,-8],[28657,-11],[28658,-2],[28670,-1],[28684,-3],[28727,-1],[28736,-1],[28759,-2],[28768,-11],[28792,-7],[28806,-1],[28818,-14],[28821,-29],[28829,-6],[28838,-7],[28839,-14],[28846,-25],[28853,-8],[28871,-2],[28911,-5],[28915,-1],[28930,15],[28934,-46],[28941,-5],[28946,-5],[28969,21],[28976,-8],[28981,-1],[29024,-3],[29046,-2],[29047,-14],[29053,-13],[29087,-8],[29112,1],[29134,-5],[29137,-30],[29144,-11],[29157,-11],[29159,8],[29185,-6],[29186,11],[29189,-1],[29208,2],[29242,-14],[29249,-12],[29253,-8],[29259,-1],[29263,23],[29274,-7],[29300,-10],[29365,-11],[29379,-1],[29392,-9],[29437,-14],[29464,-1],[29475,-1],[29489,-24],[29493,-4],[29527,-11],[29554,-14],[29566,18],[29571,-5],[29575,-8],[29587,-1],[29589,16],[29617,-5],[29618,-6],[29628,-9],[29634,8],[29650,-5],[29652,-8],[29657,-5],[29672,-1],[29700,1],[29708,-5],[29709,-7],[29722,25],[29735,-4],[29746,-4],[29763,-2],[29768,-1],[29770,-7],[29785,10],[29805,-1],[29806,1],[29818,-3],[29827,-7],[29861,-1],[29884,-8],[29896,-6],[29902,-12],[29925,19],[29926,-2],[29927,-27],[29955,-15],[29986,-8],[29996,-19],[29997,-4],[29998,-8],[30000,7],[30002,-24],[30013,-9],[30014,-17],[30044,24],[30055,-30],[30066,-2],[30094,-12],[30108,8],[30166,-1],[30168,-8],[30175,-8],[30176,22],[30185,22],[30186,2],[30193,-10],[30210,17],[30224,-1],[30237,-15],[30243,-5],[30274,-7],[30283,46],[30288,7],[30301,-10],[30307,-4],[30309,-14],[30331,-5],[30332,-4],[30336,1],[30349,-16],[30353,-14],[30355,-6],[30393,-30],[30439,-1],[30450,-7],[30458,-10],[30460,-8],[30465,-12],[30470,-3],[30489,2],[30498,5],[30506,-9],[30516,-1],[30532,-1],[30533,2],[30541,-9],[30569,-5],[30581,-7],[30606,-19],[30608,-15],[30633,-3],[30635,-12],[30639,21],[30647,2],[30664,22],[30675,-1],[30683,-11],[30688,-2],[30699,-6],[30700,-9],[30701,-2],[30722,-3],[30749,-5],[30752,-1],[30756,-13],[30777,17],[30789,-9],[30800,-1],[30811,-12],[30818,-4],[30851,-14],[30861,-2],[30905,-8],[30912,3],[30920,-3],[30928,1],[30938,-16],[30953,-11],[30960,-3],[30970,-4],[30979,-18],[30993,58],[30998,-10],[31001,-6],[31020,44],[31028,-1],[31029,8],[31050,-1],[31053,-8],[31055,-8],[31067,-6],[31086,-1],[31087,58],[31092,14],[31093,-2],[31094,-1],[31116,-11],[31128,-5],[31132,-1],[31147,-5],[31170,-4],[31191,-2],[31194,-18],[31203,-8],[31204,-16],[31209,-10],[31217,-2],[31253,-3],[31268,-5],[31295,59],[31327,-15],[31334,-19],[31347,-17],[31356,-6],[31362,-15],[31373,-9],[31397,2],[31404,-2],[31426,34],[31440,2],[31476,-1],[31481,-1],[31486,-4],[31489,-1],[31493,-4],[31498,-4],[31502,-2],[31504,63],[31509,-17],[31537,-5],[31548,-6],[31550,-7],[31609,-11],[31635,-21],[31676,-8],[31686,-18],[31703,-11],[31779,-4],[31797,-11],[31813,-10],[31837,-2],[31839,-40],[31842,-37],[31896,-6],[31898,-10],[31902,-4],[31910,-6],[31925,-4],[31948,-8],[31963,-11],[31992,-5],[31993,-3],[31997,-10],[32002,-1],[32027,-15],[32089,-10],[32107,17],[32113,6],[32126,16],[32134,22],[32138,-3],[32162,-1],[32169,-8],[32171,-5],[32188,-9],[32191,24],[32193,-4],[32200,-7],[32206,-11],[32207,-3],[32287,-7],[32296,-1],[32305,13],[32317,-8],[32322,-9],[32343,16],[32345,8],[32355,-4],[32380,-11],[32385,-2],[32407,-10],[32423,-7],[32448,-10],[32452,-10],[32457,-10],[32483,-17],[32489,-25],[32493,-1],[32500,-15],[32501,44],[32562,-9],[32567,-12],[32584,-6],[32588,2],[32597,-15],[32604,-1],[32616,-11],[32640,1],[32652,-1],[32655,-5],[32679,-11],[32681,29],[32686,-1],[32690,-15],[32695,-12],[32749,-7],[32755,-11],[32771,-17],[32776,33],[32788,-9],[32792,-6],[32801,-11],[32808,-6],[32823,3],[32825,-3],[32840,17],[32845,-5],[32849,-10],[32865,-4],[32873,-4],[32884,-12],[32903,21],[32905,-4],[32907,-1],[32931,-8],[32975,23],[32976,-4],[32987,-4],[32994,-6],[33009,24],[33011,-1],[33032,-9],[33045,-7],[33058,-9],[33061,1],[33074,-8],[33093,-25],[33111,-7],[33128,-11],[33140,-41],[33149,-8],[33166,29],[33183,-10],[33187,23],[33189,-8],[33191,19],[33216,-2],[33222,-7],[33232,-2],[33244,83],[33265,-2],[33285,-5],[33340,-4],[33343,2],[33370,30],[33382,-9],[33407,-4],[33481,-28],[33491,-4],[33499,-4],[33512,-12],[33525,-1],[33564,-9],[33567,21],[33572,2],[33577,-4],[33580,-24],[33591,-6],[33594,-11],[33598,-5],[33647,-15],[33648,-10],[33659,-13],[33663,-16],[33666,1],[33697,21],[33712,-7],[33719,-9],[33728,-7],[33760,-20],[33787,-6],[33849,-1],[33853,-1],[33881,-1],[33904,-8],[33906,-9],[33920,-12],[33922,-18],[33943,21],[33946,-1],[33947,3],[33986,-3],[34003,-2],[34014,-5],[34037,-15],[34044,2],[34051,-5],[34117,5],[34146,-2],[34160,-2],[34196,-4],[34206,5],[34208,-11],[34225,-7],[34255,-4],[34265,2],[34266,-6],[34272,-5],[34283,-3],[34300,-3],[34310,20],[34316,-7],[34349,4],[34358,-1],[34384,-11],[34402,5],[34418,-8],[34434,14],[34470,-30],[34476,58],[34489,-2],[34495,-3],[34526,14],[34534,-7],[34538,-2],[34548,-8],[34563,-4],[34578,-4],[34580,-6],[34586,-6],[34589,-1],[34596,-2],[34623,-12],[34640,-8],[34641,1],[34654,-10],[34684,-3],[34704,-1],[34774,-8],[34787,-15],[34792,-1],[34801,-4],[34814,-5],[34819,1],[34823,58],[34828,-23],[34832,-28],[34853,8],[34863,2],[34887,-3],[34903,-1],[34933,-3],[34972,16],[34979,-3],[35000,-5],[35022,-29],[35040,21],[35060,-4],[35069,23],[35119,-1],[35141,-1],[35148,-8],[35184,-5],[35192,-29],[35225,1],[35231,-14],[35261,-4],[35276,-14],[35285,-11],[35300,-15],[35302,-40],[35334,-7],[35391,-1],[35394,-35],[35402,-3],[35418,-11],[35431,-2],[35481,-5],[35488,39],[35490,2],[35507,-8],[35592,-12],[35593,-4],[35621,16],[35622,-11],[35633,-9],[35675,-11],[35678,-30],[35699,-8],[35716,-1],[35743,-8],[35791,-1],[35822,1],[35849,-4],[35863,-10],[35864,-1],[35909,3],[35912,-5],[35921,-13],[35940,-4],[35956,-6],[36017,-5],[36028,-7],[36029,1],[36035,-9],[36037,-24],[36051,12],[36055,-7],[36082,-5],[36126,-9],[36153,-7],[36158,-7],[36163,-6],[36166,-18],[36169,-2],[36171,-5],[36178,-30],[36192,-4],[36219,6],[36236,-4],[36248,-1],[36259,-7],[36273,18],[36283,-5],[36317,-14],[36319,-9],[36325,-14],[36327,-5],[36373,4],[36376,-8],[36377,-7],[36389,-11],[36413,-2],[36429,-1],[36430,-7],[36440,-10],[36452,-31],[36453,-1],[36460,33],[36467,-6],[36468,-1],[36471,-1],[36482,25],[36487,-3],[36488,-9],[36507,-7],[36534,-9],[36543,-11],[36548,-25],[36559,-24],[36572,-15],[36578,-1],[36588,-12],[36593,-2],[36597,-7],[36628,-16],[36639,-11],[36649,-3],[36667,1],[36712,-3],[36731,-10],[36744,-3],[36749,-4],[36768,-11],[36788,-3],[36816,-1],[36819,-5],[36824,-12],[36849,-16],[36850,-8],[36853,-8],[36855,-3],[36861,-15],[36883,-3],[36888,-10],[36923,-1],[36960,58],[36997,-7],[37007,-8],[37043,-5],[37065,-1],[37118,3],[37121,-5],[37143,-13],[37145,-8],[37147,-1],[37173,-1],[37175,-18],[37187,-4],[37190,11],[37235,13],[37240,-6],[37241,-6],[37249,-4],[37256,-2],[37270,-6],[37303,-10],[37330,-10],[37388,-4],[37394,-9],[37417,-9],[37434,-3],[37494,-2],[37497,-5],[37554,9],[37558,-7],[37582,-27],[37595,44],[37602,-4],[37608,-6],[37667,-18],[37681,-7],[37695,-1],[37755,1],[37770,-4],[37782,-6],[37804,-4],[37821,-7],[37845,1],[37852,-24],[37862,2],[37871,-18],[37881,-4],[37897,-6],[37916,27],[37932,-29],[37945,-1],[37952,1],[37957,1],[37970,21],[37972,-2],[37989,-15],[37994,-5],[38003,19],[38028,-10],[38054,-24],[38060,-2],[38071,-12],[38091,2],[38093,-19],[38094,-8],[38177,-8],[38180,-12],[38184,24],[38185,-4],[38190,6],[38215,-4],[38217,-6],[38250,-14],[38269,-1],[38272,-8],[38299,-7],[38302,-8],[38317,-4],[38344,-24],[38345,-18],[38350,-1],[38368,-14],[38385,1],[38413,-11],[38416,6],[38420,-8],[38436,-3],[38449,-24],[38455,-42],[38456,1],[38463,-4],[38469,-10],[38470,-1],[38484,-1],[38491,-12],[38513,-3],[38518,-8],[38521,-2],[38535,-11],[38536,-1],[38540,-1],[38563,-2],[38572,-4],[38586,-1],[38592,-1],[38606,-1],[38628,-10],[38640,-12],[38641,-11],[38643,-11],[38652,-8],[38655,-3],[38670,-2],[38698,-4],[38703,-5],[38706,-7],[38711,-13],[38713,-1],[38716,-8],[38726,-1],[38731,-1],[38743,-8],[38746,-15],[38761,-6],[38781,-12],[38805,-17],[38807,-7],[38828,-4],[38836,-4],[38838,-11],[38840,-3],[38858,-1],[38872,-10],[38880,-8],[38891,-9],[38900,-7],[38911,4],[38914,11],[38922,-15],[38936,-2],[38967,-11],[39006,-7],[39017,-15],[39041,-2],[39043,-1],[39049,8],[39053,-5],[39054,-4],[39069,-7],[39083,-7],[39096,-10],[39102,14],[39115,-3],[39154,-41],[39155,-16],[39170,-19],[39187,-16],[39193,-20],[39194,-10],[39212,3],[39241,89],[39265,-8],[39273,-7],[39294,-17],[39306,-1],[39353,-1],[39356,26],[39359,-7],[39363,5],[39369,-14],[39376,-15],[39384,-6],[39435,10],[39443,-11],[39444,-2],[39450,-11],[39467,-10],[39493,-1],[39500,11],[39502,-8],[39506,-5],[39511,-7],[39532,1],[39537,-1],[39538,-4],[39555,-6],[39569,11],[39578,-18],[39597,-55],[39607,-8],[39612,-1],[39613,-23],[39633,-8],[39664,-13],[39709,-4],[39729,-7],[39757,34],[39766,-5],[39796,-12],[39809,-24],[39810,-26],[39821,-6],[39828,-6],[39836,27],[39840,-2],[39850,-37],[39871,-5],[39878,-6],[39885,-9],[39908,-5],[39920,-1],[39950,-7],[39973,-1],[39978,-11],[39983,-3],[39999,-5],[40006,-11],[40007,-2],[40052,-3],[40053,-8],[40057,-9],[40067,-1],[40080,-21],[40081,24],[40089,-17],[40105,1],[40110,-8],[40113,10],[40126,-2],[40130,13],[40134,8],[40183,-11],[40189,-12],[40195,-1],[40220,-3],[40234,-6],[40238,-10],[40246,-10],[40247,-1],[40253,-8],[40259,-5],[40270,20],[40279,-1],[40283,-11],[40314,-10],[40316,-5],[40338,-2],[40361,-8],[40378,-2],[40406,-5],[40412,-5],[40426,1],[40449,-2],[40467,-11],[40478,-7],[40480,-5],[40499,-4],[40506,-10],[40514,-4],[40539,-8],[40542,2],[40563,-7],[40580,-10],[40582,-10],[40646,3],[40652,51],[40666,-8],[40682,-8],[40685,-6],[40691,-14],[40697,39],[40725,-1],[40736,-1],[40741,-3],[40758,58],[40771,-30],[40797,-6],[40800,-11],[40809,49],[40818,-7],[40835,-9],[40845,-6],[40851,-1],[40859,37],[40873,21],[40876,27],[40877,-7],[40879,3],[40899,-5],[40906,-3],[40918,-8],[40926,-5],[40957,3],[40976,-9],[40985,-4],[40987,17],[40996,-6],[41003,6],[41042,-18],[41049,14],[41050,-6],[41065,-8],[41073,-16],[41105,-1],[41111,13],[41128,-1],[41137,-16],[41153,-10],[41172,-6],[41202,-12],[41225,-3],[41292,-1],[41335,-8],[41338,89],[41339,-8],[41348,-2],[41354,-24],[41375,-61],[41377,-14],[41392,-7],[41407,-7],[41421,-16],[41474,-11],[41505,-11],[41526,-11],[41527,-1],[41554,-5],[41593,-6],[41615,-11],[41623,-6],[41646,-2],[41754,-10],[41801,-9],[41860,-1],[41876,-6],[41877,-2],[41878,-7],[41906,6],[41917,-1],[41925,-4],[41934,-13],[41957,-2],[41975,-1],[41987,-9],[42008,-6],[42021,-10],[42039,-6],[42054,-4],[42067,23],[42070,-10],[42093,-5],[42098,-16],[42103,-1],[42111,-9],[42112,-7],[42113,9],[42123,-4],[42126,-3],[42129,-4],[42152,-2],[42158,-8],[42159,-8],[42165,-3],[42182,-5],[42191,-5],[42197,-4],[42204,-7],[42210,17],[42213,-8],[42220,16],[42221,-7],[42229,-5],[42252,8],[42270,-10],[42281,-8],[42287,-15],[42289,-3],[42308,-1],[42321,-7],[42374,-9],[42401,-2],[42415,48],[42439,3],[42483,-5],[42507,14],[42510,-7],[42520,1],[42530,-4],[42546,-14],[42547,1],[42565,-13],[42578,-8],[42586,17],[42615,-7],[42622,-3],[42624,-8],[42635,-7],[42649,-1],[42658,-3],[42677,-2],[42688,-17],[42701,-3],[42711,-23],[42725,-1],[42733,-3],[42737,14],[42801,-1],[42814,73],[42816,27],[42835,-3],[42862,9],[42872,-24],[42875,51],[42878,14],[42887,-10],[42918,-5],[42928,-2],[42942,-8],[42975,-6],[42981,-8],[42984,-1],[42995,-10],[43010,-9],[43015,3],[43018,-9],[43054,2],[43068,-12],[43074,-4],[43094,-5],[43116,3],[43132,2],[43137,-11],[43155,-8],[43156,-11],[43171,-1],[43177,-21],[43178,-9],[43182,-1],[43212,-13],[43217,-6],[43224,4],[43230,-13],[43248,-4],[43254,10],[43281,2],[43285,4],[43320,-14],[43326,8],[43335,-1],[43345,-8],[43362,-8],[43363,-1],[43399,-1],[43427,15],[43430,-10],[43484,-12],[43516,-11],[43520,-3],[43534,-15],[43541,-3],[43550,-27],[43554,-12],[43582,-3],[43596,-7],[43599,1],[43602,-11],[43614,-5],[43635,-2],[43641,-30],[43645,24],[43669,-1],[43680,-11],[43683,5],[43686,-8],[43693,-7],[43694,-22],[43710,-2],[43728,15],[43730,-4],[43793,-2],[43794,-2],[43810,-4],[43811,-7],[43829,-8],[43861,66],[43877,-4],[43897,-5],[43902,-9],[43929,-1],[43933,-4],[43936,-6],[43967,-5],[43969,-5],[43978,-2],[43986,5],[44004,-3],[44019,-18],[44028,24],[44038,-1],[44061,104],[44068,1],[44072,-24],[44080,-1],[44091,16],[44092,-15],[44097,-1],[44153,-1],[44160,-25],[44166,12],[44180,-20],[44190,6],[44196,-9],[44202,-1],[44217,20],[44223,-7],[44230,60],[44244,14],[44310,2],[44323,-8],[44326,-4],[44329,-5],[44333,13],[44335,-8],[44351,-3],[44373,-15],[44409,-8],[44443,-24],[44447,-4],[44468,-15],[44481,21],[44483,-3],[44495,-7],[44512,-1],[44513,25],[44517,-7],[44525,-7],[44529,-6],[44537,-5],[44539,58],[44547,-7],[44576,-3],[44585,-1],[44623,-7],[44662,-4],[44687,-5],[44699,-4],[44700,-4],[44710,-7],[44727,-2],[44734,-3],[44744,-10],[44751,-3],[44755,-11],[44786,9],[44801,-12],[44811,-5],[44824,-8],[44838,-12],[44847,-4],[44852,-8],[44854,3],[44864,-15],[44865,8],[44890,-2],[44891,6],[44903,-12],[44958,-7],[44979,6],[44990,-19],[44996,-8],[45010,-26],[45019,-6],[45029,-24],[45034,8],[45035,-4],[45058,-9],[45064,-2],[45073,-1],[45099,-4],[45106,-10],[45137,8],[45217,63],[45221,-2],[45232,-3],[45239,-9],[45251,6],[45267,10],[45271,-4],[45280,-9],[45285,-1],[45302,-9],[45306,-6],[45316,-2],[45341,2],[45342,-2],[45347,-10],[45362,-10],[45364,-5],[45366,58],[45367,-1],[45378,32],[45382,-10],[45395,-2],[45426,-9],[45428,-1],[45439,-6],[45476,-11],[45477,-1],[45482,-3],[45486,-12],[45501,-17],[45506,-9],[45508,-1],[45512,-16],[45539,19],[45548,-9],[45570,-11],[45581,-5],[45609,-1],[45619,-8],[45671,-8],[45709,-2],[45710,-9],[45712,-18],[45721,-8],[45728,-1],[45732,5],[45750,-10],[45754,8],[45756,-15],[45757,17],[45768,-14],[45779,24],[45801,-1],[45802,27],[45829,-36],[45847,-7],[45868,-9],[45904,-1],[45931,-10],[45966,-3],[45982,-8],[45992,-14],[46010,2],[46013,-3],[46019,-9],[46048,-14],[46064,-8],[46066,-15],[46084,-12],[46090,-8],[46091,10],[46097,-9],[46145,-5],[46146,-4],[46152,-1],[46153,-1],[46184,-25],[46194,8],[46205,-6],[46210,-7],[46223,-24],[46235,-1],[46264,-12],[46274,-4],[46291,-36],[46308,-1],[46313,-4],[46324,-4],[46329,-7],[46376,-9],[46394,-2],[46401,-6],[46417,-11],[46434,-5],[46443,-3],[46451,99],[46468,-8],[46470,-12],[46474,22],[46478,-2],[46492,-12],[46502,-2],[46532,-9],[46541,-12],[46548,-23],[46549,-12],[46557,-8],[46561,-7],[46565,21],[46586,-2],[46630,-15],[46653,-12],[46671,-2],[46674,3],[46676,-15],[46681,-12],[46688,-8],[46694,-12],[46701,-9],[46745,-11],[46752,-15],[46762,-14],[46784,28],[46790,-6],[46793,-1],[46823,-3],[46828,-2],[46848,-8],[46852,-1],[46853,-9],[46901,-8],[46910,-18],[46911,-8],[46919,-4],[46987,-4],[46988,-8],[46990,-16],[47001,-1],[47003,-15],[47004,8],[47012,-8],[47029,-5],[47033,-22],[47041,-1],[47051,-2],[47058,-1],[47070,-8],[47093,-8],[47103,-7],[47110,16],[47112,-1],[47118,-10],[47129,-4],[47139,6],[47161,-7],[47175,4],[47188,-17],[47195,-7],[47221,-6],[47226,1],[47246,2],[47269,-5],[47276,-1],[47282,-16],[47284,8],[47332,2],[47358,-10],[47382,-3],[47390,-3],[47393,-23],[47406,-1],[47436,-2],[47437,-7],[47438,-10],[47447,-16],[47448,1],[47463,14],[47514,-1],[47519,-11],[47529,-8],[47532,-6],[47538,-1],[47572,-6],[47586,-2],[47599,-1],[47602,-7],[47616,-5],[47650,-12],[47659,-19],[47679,-20],[47692,-9],[47699,-18],[47702,-10],[47719,-11],[47736,-9],[47760,-8],[47794,-31],[47839,-14],[47848,-5],[47850,-1],[47851,-9],[47870,8],[47899,-1],[47913,-2],[47951,-11],[47955,-2],[47959,-11],[47974,-1],[48017,-1],[48024,-7],[48032,11],[48038,-1],[48040,-14],[48053,-28],[48056,-3],[48076,-5],[48077,-7],[48078,-1],[48081,-11],[48088,-9],[48096,-7],[48108,-10],[48112,5],[48128,-1],[48167,-10],[48192,-3],[48197,90],[48205,-10],[48236,-2],[48248,-4],[48288,-9],[48311,51],[48313,-5],[48322,-5],[48327,-13],[48331,8],[48338,-4],[48356,-3],[48366,1],[48367,-10],[48368,34],[48393,-17],[48395,1],[48409,3],[48465,20],[48466,-8],[48518,6],[48547,25],[48556,-9],[48569,-1],[48629,-9],[48633,7],[48641,-24],[48653,20],[48693,14],[48728,-4],[48732,1],[48743,-3],[48779,58],[48785,-10],[48788,1],[48801,-4],[48812,2],[48814,-7],[48830,-3],[48831,-8],[48869,-4],[48880,18],[48886,2],[48893,89],[48952,-5],[48973,-7],[48977,-3],[48989,-6],[49001,-9],[49016,-24],[49036,-4],[49097,-9],[49104,-8],[49133,-11],[49144,-1],[49146,1],[49154,19],[49165,-10],[49173,-3],[49176,-17],[49188,-4],[49202,15],[49248,-45],[49261,-11],[49280,-7],[49284,39],[49286,8],[49319,-18],[49328,24],[49331,-4],[49341,-12],[49348,-11],[49361,-2],[49362,-2],[49365,24],[49376,-4],[49434,1],[49476,-8],[49479,1],[49489,-6],[49500,-1],[49514,-3],[49517,-9],[49548,-1],[49550,-4],[49575,-17],[49579,-12],[49580,-7],[49581,-9],[49608,-1],[49616,-7],[49632,-11],[49639,-5],[49644,-8],[49651,-14],[49667,-3],[49680,-4],[49742,-12],[49745,-7],[49758,-15],[49794,1],[49809,-3],[49810,-1],[49811,-3],[49820,-3],[49823,-7],[49846,-1],[49848,-7],[49872,-1],[49873,-1],[49874,-7],[49887,-20],[49889,-7],[49898,-32],[49910,-12],[49937,-5],[49939,-30],[49960,-11],[49972,16],[49979,-6],[49993,-3],[50006,-5],[50024,-4],[50030,-6],[50033,39],[50050,-9],[50080,-3],[50089,-23],[50094,-47],[50101,-21],[50106,-4],[50119,-2],[50128,52],[50130,-1],[50142,-6],[50146,-4],[50158,-20],[50208,23],[50230,-8],[50233,8],[50266,26],[50282,24],[50301,-31],[50306,-10],[50317,-4],[50340,-6],[50342,-2],[50347,10],[50353,-7],[50368,-2],[50373,-17],[50423,-4],[50450,-1],[50474,-2],[50480,-14],[50499,-1],[50509,-19],[50510,-7],[50513,12],[50524,-4],[50527,-6],[50545,-15],[50560,-3],[50566,10],[50611,-24],[50624,2],[50633,-10],[50655,-82],[50689,63],[50704,3],[50705,-11],[50713,-1],[50725,-5],[50759,-11],[50762,76],[50764,-8],[50788,-4],[50797,13],[50809,-14],[50813,-6],[50819,-8],[50827,-21],[50837,-9],[50840,2],[50841,-9],[50851,-10],[50860,-45],[50866,-1],[50883,-11],[50886,-11],[50893,-1],[50896,-10],[50934,-10],[50953,-8],[50956,-7],[50965,-10],[50972,-1],[50977,2],[50983,-1],[50997,24],[51002,-6],[51039,-2],[51041,-6],[51047,1],[51051,4],[51070,-9],[51079,-2],[51093,-10],[51107,-1],[51110,-9],[51122,-6],[51123,-8],[51203,60],[51259,-11],[51277,-2],[51287,-2],[51290,21],[51296,-7],[51300,-27],[51348,-15],[51367,-8],[51415,-7],[51421,-10],[51440,-28],[51442,9],[51458,-8],[51468,-15],[51473,-3],[51486,-9],[51491,-6],[51495,-1],[51505,-15],[51531,-31],[51539,11],[51546,-16],[51551,-21],[51569,-9],[51575,-2],[51588,-39],[51595,-10],[51609,-4],[51619,1],[51621,-4],[51627,-9],[51629,-1],[51631,-2],[51645,-14],[51648,-5],[51658,-1],[51662,-6],[51670,-26],[51672,-8],[51684,-7],[51690,-8],[51691,-4],[51700,-3],[51713,63],[51719,-12],[51722,-6],[51751,-14],[51788,-3],[51792,-8],[51812,-1],[51831,1],[51857,-12],[51865,-30],[51874,-24],[51899,-4],[51908,-1],[51920,-1],[51922,-1],[51931,-1],[51933,-6],[51941,2],[51959,19],[52004,-12],[52023,-1],[52085,-2],[52093,-4],[52104,1],[52106,-12],[52113,-8],[52123,3],[52126,-5],[52160,-11],[52174,-17],[52201,10],[52203,-3],[52219,-1],[52226,-1],[52243,-19],[52255,3],[52257,-10],[52282,-4],[52305,-10],[52319,45],[52355,-6],[52369,20],[52378,-21],[52413,-11],[52420,31],[52442,5],[52451,-2],[52468,-2],[52469,-11],[52471,8],[52514,-2],[52528,-23],[52535,-1],[52566,8],[52589,3],[52621,-2],[52627,-2],[52628,24],[52642,-1],[52661,-4],[52662,-17],[52668,-45],[52675,-4],[52707,-8],[52726,-10],[52729,-5],[52754,58],[52756,-8],[52757,-11],[52768,-7],[52770,36],[52781,-3],[52786,-7],[52805,-6],[52810,-1],[52812,-11],[52830,-4],[52871,-7],[52898,-1],[52901,-12],[52904,-6],[52912,-3],[52940,-1],[52947,-2],[52953,7],[52966,-3],[52968,-8],[52987,-10],[52995,8],[53003,1],[53006,-11],[53020,26],[53059,-7],[53073,-23],[53078,-4],[53110,-8],[53142,-6],[53151,-4],[53153,-9],[53174,-13],[53186,-1],[53204,-14],[53207,-7],[53215,-11],[53230,-8],[53239,-11],[53250,3],[53280,-9],[53288,-5],[53301,-41],[53311,-10],[53325,-24],[53340,-12],[53341,14],[53349,2],[53358,-2],[53360,-10],[53369,10],[53381,25],[53408,-9],[53417,-3],[53436,-11],[53440,-9],[53445,-8],[53453,-20],[53470,6],[53495,1],[53497,-18],[53520,-1],[53525,58],[53528,-7],[53540,-6],[53542,-10],[53560,1],[53575,-3],[53582,-3],[53588,-15],[53592,-6],[53606,-7],[53607,-14],[53619,2],[53639,-8],[53649,-7],[53664,-6],[53666,-4],[53684,-6],[53702,40],[53713,-1],[53715,83],[53718,-10],[53720,1],[53726,-14],[53751,10],[53754,-9],[53768,-1],[53792,-12],[53799,17],[53806,-8],[53811,-7],[53827,-1],[53856,-8],[53872,28],[53876,-7],[53884,-15],[53891,13],[53898,14],[53905,-84],[53909,-10],[53911,-9],[53923,-15],[53928,-3],[53941,-9],[53950,1],[53951,-7],[53955,-1],[54003,-11],[54011,-5],[54022,-2],[54027,-8],[54031,-14],[54037,-3],[54047,-6],[54054,-9],[54059,-7],[54077,-7],[54081,-10],[54084,-12],[54095,-2],[54109,-8],[54125,-1],[54126,-3],[54140,-5],[54154,5],[54168,11],[54184,2],[54197,-30],[54201,-20],[54203,-4],[54206,-7],[54208,-1],[54225,-14],[54227,-15],[54243,-11],[54245,1],[54253,-12],[54255,-12],[54261,-4],[54263,-47],[54270,-12],[54273,-6],[54274,21],[54296,-3],[54317,-15],[54328,26],[54333,-25],[54351,-3],[54352,-5],[54353,-10],[54354,-1],[54384,-5],[54387,-31],[54392,6],[54404,59],[54415,-4],[54454,2],[54463,-7],[54476,-6],[54520,26],[54525,13],[54544,-13],[54558,-3],[54572,-7],[54576,-7],[54585,-4],[54603,-11],[54610,1],[54619,-9],[54631,-9],[54645,-2],[54656,-6],[54666,-5],[54706,-7],[54732,-7],[54743,-7],[54747,-16],[54765,-10],[54772,-2],[54782,1],[54794,-9],[54855,-4],[54862,-3],[54870,-7],[54885,-9],[54890,-4],[54911,-2],[54918,-1],[54923,1],[54960,-10],[54978,-7],[54994,-8],[54995,-3],[55005,-4],[55014,-24],[55017,-1],[55025,-13],[55051,-4],[55084,-7],[55095,-7],[55098,23],[55116,-2],[55131,27],[55136,-3],[55137,24],[55138,-4],[55144,-46],[55154,-11],[55160,-12],[55166,-10],[55173,-5],[55175,-7],[55189,-2],[55199,21],[55213,-3],[55215,-11],[55217,1],[55219,-9],[55226,-14],[55233,1],[55251,32],[55252,-3],[55263,-2],[55307,-19],[55310,-1],[55314,-30],[55326,-3],[55370,-2],[55391,-15],[55395,-1],[55397,-8],[55413,-1],[55427,-15],[55428,-1],[55433,10],[55434,-7],[55445,-2],[55451,-8],[55463,-5],[55482,-3],[55496,-13],[55497,-4],[55512,-8],[55527,6],[55539,-8],[55558,-4],[55565,-5],[55579,40],[55584,18],[55592,-27],[55601,-3],[55629,6],[55631,-7],[55650,-10],[55684,-27],[55704,29],[55724,-4],[55728,-33],[55735,-10],[55744,-1],[55767,-7],[55779,-1],[55782,-29],[55794,-2],[55802,-11],[55823,-4],[55854,-13],[55863,-2],[55894,-10],[55898,-24],[55907,8],[55938,21],[55950,-9],[55961,-55],[55965,-21],[55970,-12],[55972,-10],[55974,-16],[55987,-10],[56010,2],[56016,-8],[56038,-13],[56041,2],[56045,-9],[56076,-12],[56090,-7],[56101,-1],[56119,-1],[56125,-3],[56136,43],[56137,-1],[56149,-1],[56161,-17],[56181,-9],[56209,1],[56241,-14],[56265,-5],[56270,-10],[56274,45],[56310,-40],[56338,-3],[56342,13],[56375,-4],[56387,-8],[56391,-6],[56398,-10],[56410,-2],[56413,-11],[56414,83],[56428,-8],[56430,1],[56449,-22],[56473,-8],[56490,-8],[56500,-2],[56505,-11],[56520,-1],[56522,52],[56523,-13],[56528,-9],[56535,10],[56536,-5],[56547,-2],[56563,-4],[56568,-4],[56589,-17],[56595,-8],[56612,-11],[56660,-14],[56688,3],[56713,-10],[56721,-7],[56727,3],[56737,-7],[56749,-7],[56750,-6],[56754,-3],[56803,-10],[56833,-24],[56835,-37],[56838,-7],[56842,-12],[56858,-1],[56872,-16],[56875,-8],[56880,2],[56891,-10],[56897,-1],[56931,-12],[56933,-31],[56938,-1],[56939,-11],[56945,-9],[56955,-10],[56957,-5],[56982,-12],[57008,-24],[57017,-6],[57063,-25],[57072,-8],[57108,-4],[57126,-3],[57148,1],[57183,2],[57202,-10],[57229,-16],[57255,-3],[57279,-30],[57287,-14],[57291,-8],[57296,33],[57329,57],[57336,-10],[57337,-7],[57350,-31],[57357,-4],[57358,-30],[57370,-7],[57374,-2],[57379,-9],[57387,-31],[57409,-2],[57414,-8],[57427,2],[57436,-7],[57440,-6],[57441,1],[57457,-7],[57463,8],[57466,-20],[57472,23],[57486,-8],[57491,-1],[57496,-6],[57505,-1],[57511,-14],[57521,-64],[57527,-1],[57531,-10],[57532,22],[57589,-10],[57638,-6],[57653,-8],[57661,-4],[57672,-1],[57673,-1],[57680,-2],[57682,-7],[57690,-15],[57732,-30],[57735,-6],[57738,-10],[57746,-1],[57753,-17],[57755,-10],[57761,3],[57773,-10],[57777,15],[57782,-40],[57796,25],[57803,-3],[57831,-6],[57869,-26],[57874,-2],[57878,-11],[57881,58],[57895,-21],[57911,-2],[57929,-23],[57938,-1],[57945,-1],[57949,-1],[57965,-9],[58028,-7],[58032,-9],[58034,-16],[58036,-41],[58037,-24],[58050,3],[58071,-3],[58085,-4],[58093,-1],[58105,66],[58114,-2],[58129,-7],[58135,-11],[58139,13],[58142,-34],[58151,-37],[58154,-12],[58171,-2],[58193,-22],[58198,-8],[58200,5],[58214,-1],[58219,-9],[58226,-5],[58246,-10],[58297,-8],[58310,-14],[58317,5],[58328,-7],[58330,-2],[58341,-18],[58343,-1],[58351,-2],[58379,-11],[58384,-8],[58386,-1],[58399,-2],[58411,8],[58420,-15],[58425,-23],[58428,-1],[58444,-9],[58460,-1],[58467,-6],[58473,-9],[58517,-12],[58522,-3],[58524,47],[58525,-10],[58538,-3],[58548,-5],[58556,-9],[58569,-6],[58583,-4],[58608,-1],[58611,10],[58618,-14],[58626,-15],[58647,-20],[58671,2],[58682,-16],[58685,-12],[58717,-1],[58743,-7],[58753,-1],[58790,2],[58806,-7],[58824,-3],[58852,4],[58874,-7],[58891,90],[58913,-10],[58941,-3],[58945,-5],[58946,-8],[58948,-8],[58949,19],[58950,-9],[58956,-17],[58958,-9],[58963,-23],[58980,-2],[58991,-7],[59007,-10],[59020,-15],[59023,10],[59027,-5],[59056,33],[59060,-4],[59065,-4],[59066,-6],[59092,-6],[59095,-4],[59098,-3],[59111,-9],[59116,-11],[59126,13],[59138,-2],[59139,-1],[59148,7],[59149,-7],[59158,-2],[59199,-5],[59204,-2],[59211,-4],[59224,8],[59231,-14],[59234,-11],[59241,3],[59242,-6],[59258,-11],[59270,-11],[59273,-23],[59278,-11],[59288,-8],[59319,-6],[59328,23],[59337,-7],[59346,-10],[59349,-1],[59352,-8],[59355,-9],[59357,-1],[59367,-7],[59375,-9],[59385,-1],[59389,-1],[59410,-10],[59435,-10],[59459,-6],[59490,-8],[59511,3],[59512,-10],[59521,-8],[59529,1],[59547,-1],[59549,-8],[59562,-6],[59564,-49],[59573,-11],[59582,-8],[59616,1],[59628,-2],[59648,-4],[59651,-1],[59672,16],[59676,-12],[59691,-2],[59742,-3],[59747,-47],[59751,-8],[59754,-13],[59768,-1],[59782,21],[59790,-1],[59794,5],[59795,-4],[59797,-3],[59805,16],[59831,-9],[59867,-3],[59875,-4],[59905,5],[59926,58],[59933,-5],[59936,-10],[59938,-7],[59976,-4],[60011,-23],[60016,-12],[60079,1],[60114,-3],[60117,-2],[60121,-8],[60129,-1],[60136,-28],[60150,-44],[60155,-15],[60158,-7],[60162,1],[60164,-7],[60218,-8],[60227,-10],[60248,25],[60261,-1],[60274,-6],[60307,-1],[60359,-4],[60370,-2],[60378,-1],[60411,3],[60417,-9],[60442,-1],[60444,-3],[60453,-17],[60495,-24],[60508,54],[60510,-1],[60539,-28],[60553,-6],[60562,2],[60569,5],[60580,-7],[60581,-5],[60585,-10],[60593,8],[60637,-9],[60644,-2],[60652,63],[60664,53],[60690,-24],[60703,-2],[60713,-6],[60715,-7],[60720,2],[60724,-7],[60725,3],[60728,-2],[60743,13],[60747,7],[60752,-12],[60766,-15],[60769,-4],[60786,-5],[60806,-4],[60819,-8],[60825,52],[60829,3],[60836,-22],[60839,-8],[60853,-9],[60861,-5],[60869,-4],[60876,-1],[60881,-10],[60902,-1],[60903,-11],[60928,-10],[60934,8],[60961,-10],[60962,-8],[60969,-2],[60984,-8],[61001,-14],[61002,-32],[61014,-1],[61017,-9],[61036,-4],[61046,-28],[61047,55],[61061,-16],[61086,15],[61088,-7],[61095,-3],[61102,-8],[61107,-15],[61117,-5],[61123,10],[61163,17],[61201,-9],[61210,20],[61221,-10],[61255,-1],[61260,11],[61303,-9],[61315,-5],[61323,49],[61345,-28],[61348,2],[61352,-8],[61354,-4],[61367,-9],[61369,5],[61370,-17],[61394,-5],[61406,-17],[61415,-1],[61416,-7],[61420,-2],[61433,-6],[61470,-8],[61480,-2],[61484,-29],[61486,-1],[61496,-7],[61514,-4],[61520,-9],[61521,12],[61523,-8],[61537,-5],[61573,-11],[61587,102],[61590,29],[61593,-8],[61600,-9],[61618,-2],[61628,-6],[61629,-11],[61643,-10],[61647,-10],[61669,-10],[61671,28],[61679,-27],[61682,-13],[61697,-5],[61701,-9],[61707,-10],[61708,1],[61727,-13],[61728,-9],[61739,-1],[61752,-2],[61767,-8],[61769,-8],[61785,-9],[61788,-6],[61799,-8],[61822,-11],[61829,14],[61833,-6],[61852,-8],[61869,2],[61907,-30],[61914,-6],[61917,-8],[61926,49],[61937,-6],[61945,-7],[61951,-1],[61969,-2],[61987,-12],[61996,-16],[62010,-8],[62025,-8],[62032,-3],[62039,-7],[62069,-3],[62081,-3],[62101,-10],[62121,-1],[62126,-4],[62159,-4],[62170,-3],[62177,-6],[62230,-4],[62234,-4],[62250,24],[62270,-4],[62277,7],[62286,-8],[62327,-7],[62356,-7],[62379,39],[62387,-8],[62394,-3],[62419,21],[62434,-5],[62456,71],[62465,-7],[62469,-4],[62486,15],[62491,-8],[62498,-1],[62508,14],[62515,-2],[62518,-5],[62537,-7],[62541,-5],[62542,-7],[62547,-9],[62568,-14],[62576,83],[62578,-6],[62580,-12],[62614,-1],[62619,14],[62631,10],[62656,-6],[62657,-30],[62681,-8],[62731,89],[62732,-1],[62736,55],[62747,-10],[62752,5],[62766,-4],[62775,-11],[62795,-3],[62815,-9],[62827,-5],[62828,-7],[62829,-6],[62894,-4],[62900,-24],[62917,31],[62918,13],[62923,2],[62961,-10],[62971,-8],[62984,-3],[63027,13],[63045,-5],[63075,-3],[63097,-12],[63131,2],[63132,20],[63145,-8],[63155,23],[63182,-13],[63209,-4],[63222,-4],[63269,14],[63278,3],[63282,-1],[63315,-35],[63318,-8],[63339,-2],[63340,-7],[63343,-8],[63350,-12],[63364,-4],[63366,-7],[63374,-9],[63388,-29],[63409,-1],[63411,-7],[63419,-11],[63427,-9],[63430,-4],[63432,-29],[63456,-12],[63512,-10],[63545,-19],[63549,-4],[63563,-11],[63565,-1],[63575,-8],[63581,-3],[63608,-12],[63617,-1],[63625,-1],[63636,-5],[63651,1],[63678,-13],[63748,-4],[63762,-9],[63777,11],[63806,-8],[63822,-1],[63826,-14],[63840,-3],[63856,-3],[63867,-2],[63883,-5],[63895,-5],[63946,-2],[63974,-1],[63975,-9],[63977,-4],[63986,-15],[64052,-10],[64094,-18],[64096,-21],[64097,-7],[64106,-5],[64116,1],[64125,-14],[64130,-5],[64148,-6],[64180,-11],[64187,-9],[64190,-18],[64220,-5],[64225,-1],[64238,-11],[64251,32],[64295,-1],[64320,-7],[64342,-2],[64351,-4],[64357,-9],[64358,-11],[64372,45],[64377,-6],[64387,8],[64403,-7],[64418,-7],[64434,-4],[64442,-1],[64478,-5],[64484,-11],[64493,-1],[64498,20],[64543,-4],[64558,-6],[64590,-7],[64603,-2],[64604,-5],[64614,12],[64619,-7],[64628,-23],[64632,-10],[64639,-11],[64642,-3],[64647,-3],[64664,-12],[64694,-3],[64704,-2],[64706,-1],[64715,-11],[64723,33],[64767,58],[64783,-6],[64792,-1],[64822,-5],[64859,24],[64883,-17],[64906,-11],[64924,-2],[64937,9],[64964,-8],[64976,5],[64981,-3],[64986,-22],[65000,-4],[65004,10],[65037,-7],[65042,-8],[65054,-4],[65057,-8],[65106,-30],[65120,10],[65132,-8],[65138,-8],[65156,-4],[65202,-8],[65220,-1],[65221,-14],[65227,-4],[65257,29],[65266,-1],[65276,-1],[65282,1],[65311,-6],[65315,-4],[65324,-2],[65349,-1],[65362,6],[65389,-12],[65422,-2],[65435,-3],[65448,-1],[65463,-7],[65471,-5],[65472,98],[65476,-8],[65479,2],[65490,-1],[65502,-4],[65509,-4],[65516,-1],[65579,-2],[65586,-23],[65589,-1],[65633,-4],[65659,3],[65665,1],[65702,2],[65720,-8],[65736,1],[65767,-1],[65769,-6],[65774,-15],[65779,-10],[65785,-1],[65788,-4],[65798,32],[65802,-3],[65808,-2],[65813,-16],[65826,-8],[65833,-10],[65851,3],[65853,-6],[65856,-17],[65869,-8],[65879,-2],[65885,-9],[65912,-29],[65918,-6],[65921,-4],[65923,-10],[65940,-6],[65949,-5],[65950,-25],[65951,-4],[65958,-6],[65999,-30],[66016,-1],[66033,-1],[66067,14],[66077,76],[66078,49],[66110,-12],[66121,-9],[66137,-1],[66142,-12],[66168,-9],[66185,2],[66209,-24],[66211,9],[66254,-6],[66264,-3],[66269,-4],[66274,-3],[66291,-7],[66367,-2],[66370,-6],[66433,58],[66441,-8],[66469,-12],[66476,-2],[66479,-1],[66480,34],[66484,-14],[66494,-9],[66509,-6],[66526,-24],[66540,-6],[66568,-18],[66587,-12],[66589,-8],[66591,-48],[66598,-11],[66607,-30],[66612,-1],[66708,6],[66709,1],[66718,-3],[66736,-11],[66770,-2],[66775,-10],[66777,-15],[66780,-11],[66797,20],[66802,-23],[66809,13],[66888,1],[66889,-8],[66904,-9],[66921,35],[66989,-1],[66994,-15],[67007,-10],[67019,-13],[67056,-3],[67061,-9],[67063,-16],[67098,-1],[67112,-4],[67117,-2],[67146,-7],[67174,-5],[67176,5],[67220,-12],[67224,-15],[67234,-9],[67245,-1],[67252,-19],[67262,-4],[67276,-29],[67281,-5],[67301,-1],[67309,-5],[67314,-6],[67360,-3],[67395,-7],[67399,-23],[67420,-18],[67426,-1],[67431,-15],[67495,-1],[67498,-17],[67503,-10],[67524,-14],[67551,-13],[67558,-9],[67572,-8],[67596,-1],[67599,-5],[67604,-1],[67606,24],[67624,-5],[67633,-12],[67634,-1],[67644,-2],[67645,15],[67679,26],[67680,-95],[67690,-8],[67703,-6],[67727,-12],[67779,-2],[67786,-9],[67812,-11],[67824,-10],[67851,1],[67852,-9],[67865,-1],[67867,-3],[67888,-12],[67936,-10],[67974,-2],[67989,-10],[67999,-1],[68007,-1],[68009,-6],[68017,-7],[68021,13],[68026,-4],[68035,-5],[68063,-10],[68073,6],[68094,13],[68108,-7],[68114,-5],[68116,-8],[68118,-3],[68123,-1],[68141,-7],[68163,-9],[68174,-6],[68177,-3],[68178,-14],[68203,-1],[68226,15],[68276,-4],[68278,-16],[68289,-4],[68293,-16],[68322,-17],[68334,-2],[68372,-1],[68384,-4],[68385,-6],[68409,-12],[68427,-1],[68445,-14],[68493,-5],[68494,-12],[68502,-7],[68508,-1],[68541,-2],[68553,7],[68554,-8],[68575,-9],[68585,-7],[68631,-10],[68677,-5],[68709,-2],[68711,4],[68713,62],[68724,8],[68725,2],[68733,23],[68762,40],[68764,-11],[68786,-1],[68804,-2],[68812,2],[68820,-2],[68833,6],[68845,-10],[68848,-2],[68875,4],[68881,-10],[68885,-1],[68889,-26],[68891,-6],[68892,-3],[68916,-15],[68922,-3],[68933,-14],[68940,-10],[68963,-25],[68986,-17],[69009,-7],[69042,-18],[69052,-9],[69054,1],[69066,-19],[69068,-10],[69084,-33],[69087,19],[69098,-1],[69106,-2],[69137,24],[69138,31],[69150,-8],[69191,-12],[69223,-8],[69226,4],[69240,-4],[69255,-6],[69258,-4],[69301,29],[69307,26],[69308,-3],[69315,5],[69316,2],[69321,-11],[69323,-9],[69325,-24],[69335,-4],[69348,-18],[69353,-2],[69362,-1],[69364,-7],[69365,-11],[69378,-16],[69381,-29],[69382,8],[69412,-10],[69435,1],[69440,-4],[69464,22],[69475,40],[69497,-10],[69498,-9],[69508,35],[69520,-5],[69521,1],[69547,-2],[69563,-8],[69566,-12],[69581,82],[69582,-6],[69594,-2],[69610,-17],[69647,-6],[69652,83],[69653,-15],[69660,-1],[69728,-25],[69770,-15],[69777,-8],[69785,-1],[69800,-7],[69825,-4],[69827,-11],[69835,-9],[69854,-11],[69856,-5],[69863,-6],[69883,-2],[69906,3],[69933,-13],[69947,1],[69951,-7],[69952,-7],[69956,-7],[69962,-2],[69967,-8],[69984,-1],[69997,-13],[70011,-2],[70017,-9],[70021,-7],[70047,-8],[70050,-2],[70056,-4],[70061,-9],[70076,21],[70078,-12],[70098,-8],[70112,-3],[70129,-6],[70131,-9],[70161,-7],[70162,6],[70163,-3],[70187,63],[70224,-4],[70233,-4],[70246,-14],[70309,14],[70341,-6],[70344,-10],[70363,-8],[70370,-7],[70373,3],[70395,-30],[70402,-39],[70432,-9],[70443,-9],[70445,-9],[70466,15],[70476,-7],[70501,-8],[70503,-1],[70520,12],[70528,-3],[70533,-9],[70541,-3],[70577,-7],[70584,-10],[70589,-8],[70593,-2],[70594,20],[70621,-3],[70635,-4],[70650,-15],[70654,-7],[70674,-30],[70678,-9],[70716,-10],[70728,-8],[70743,-4],[70753,-2],[70755,-11],[70766,-3],[70769,-18],[70797,-1],[70801,-7],[70818,-4],[70836,-10],[70837,-3],[70838,16],[70840,35],[70857,14],[70862,-15],[70870,-10],[70895,-8],[70931,-8],[70989,-9],[71012,-8],[71015,-2],[71027,-15],[71049,-2],[71073,-4],[71077,-14],[71092,-4],[71099,-1],[71103,-10],[71108,-24],[71111,-10],[71140,-7],[71147,-9],[71148,3],[71152,-24],[71153,-11],[71199,-9],[71200,6],[71257,12],[71266,-2],[71275,29],[71279,-9],[71306,83],[71317,1],[71318,-3],[71364,-8],[71376,-7],[71381,-1],[71395,-15],[71409,-8],[71411,-3],[71416,15],[71478,-2],[71500,-25],[71533,-24],[71544,-1],[71576,-1],[71595,-6],[71611,7],[71617,-29],[71624,-7],[71629,-9],[71633,-6],[71643,-8],[71654,-14],[71668,-3],[71681,-1],[71686,6],[71693,-4],[71696,56],[71703,-5],[71710,-6],[71713,-2],[71716,-11],[71718,-5],[71739,-2],[71766,16],[71775,-8],[71796,-11],[71804,19],[71807,-3],[71810,-12],[71825,-3],[71837,-4],[71838,-5],[71840,-7],[71895,-30],[71915,-5],[71934,-15],[71939,-6],[71942,-24],[71952,-5],[71963,-3],[71970,24],[72005,40],[72050,-11],[72076,-6],[72140,-6],[72146,49],[72176,-5],[72209,-9],[72216,-3],[72294,-8],[72308,-13],[72312,2],[72326,-12],[72330,-9],[72360,-17],[72361,8],[72394,-36],[72416,-1],[72422,-2],[72424,-30],[72438,-4],[72455,19],[72460,-7],[72471,-4],[72477,-8],[72488,-1],[72509,-11],[72515,-7],[72540,-1],[72553,-4],[72590,-7],[72598,-14],[72603,51],[72604,-8],[72613,19],[72639,-1],[72643,-5],[72666,6],[72667,-5],[72670,-13],[72688,-11],[72714,-5],[72716,2],[72722,-11],[72727,-4],[72734,-11],[72738,-15],[72766,-15],[72770,-3],[72782,-7],[72783,-3],[72805,-8],[72806,-1],[72881,29],[72933,-3],[72952,-9],[72980,1],[72988,-10],[72991,-7],[73019,-10],[73023,-16],[73032,1],[73079,-1],[73096,3],[73099,-16],[73113,-4],[73130,-6],[73154,-4],[73165,-11],[73177,-6],[73218,-10],[73219,-9],[73222,-14],[73238,-18],[73258,-3],[73265,-7],[73269,9],[73271,-4],[73288,-4],[73294,-13],[73297,-4],[73302,-5],[73322,2],[73340,16],[73342,-16],[73349,-8],[73350,-24],[73370,-3],[73382,-6],[73385,2],[73398,-8],[73411,-1],[73412,17],[73423,-24],[73430,-2],[73432,8],[73445,-1],[73449,58],[73464,-2],[73473,-3],[73482,-8],[73506,1],[73540,-16],[73555,-60],[73567,-5],[73569,-2],[73573,-3],[73593,-5],[73613,-16],[73618,-8],[73640,-4],[73685,1],[73696,-7],[73697,33],[73705,-5],[73717,-3],[73719,-7],[73729,-8],[73753,15],[73783,-16],[73793,-1],[73828,-5],[73845,-2],[73857,-16],[73879,-5],[73891,-16],[73898,-11],[73899,25],[73901,-10],[73924,-8],[73938,-1],[73946,-4],[73958,-21],[73973,-8],[73974,-5],[74006,5],[74026,-2],[74034,-10],[74051,-41],[74078,24],[74080,-6],[74092,-1],[74112,-5],[74114,-15],[74127,-8],[74134,-15],[74140,-8],[74171,-8],[74177,-10],[74205,-11],[74217,7],[74231,-1],[74239,-4],[74253,-22],[74265,-6],[74271,8],[74273,31],[74277,-20],[74279,-2],[74300,-12],[74314,-10],[74348,-1],[74375,-1],[74391,6],[74392,-12],[74398,-5],[74408,-1],[74424,-10],[74432,-7],[74442,-5],[74448,-2],[74464,-6],[74470,-3],[74496,-2],[74502,-6],[74522,-3],[74524,-9],[74532,-1],[74535,-4],[74543,8],[74558,-4],[74559,21],[74577,10],[74587,-5],[74594,-8],[74600,-8],[74614,27],[74635,32],[74643,-10],[74647,-13],[74654,-23],[74702,-10],[74704,-4],[74711,-5],[74730,-13],[74736,-10],[74748,-11],[74835,-68],[74842,-1],[74844,-10],[74853,-2],[74855,3],[74856,63],[74862,14],[74866,-5],[74900,-1],[74902,-1],[74919,-4],[74923,-4],[74927,-9],[74930,-11],[74944,-19],[75007,-8],[75029,-2],[75036,24],[75051,-6],[75064,24],[75073,-10],[75079,-11],[75083,-4],[75086,-9],[75088,-4],[75090,-4],[75107,-10],[75130,-3],[75152,-5],[75154,-5],[75168,1],[75172,-29],[75195,-12],[75206,1],[75212,-9],[75231,-1],[75237,-3],[75238,-26],[75247,-5],[75290,-2],[75297,-6],[75314,21],[75318,-12],[75321,17],[75325,-8],[75349,-8],[75351,-12],[75352,17],[75360,20],[75361,-2],[75375,-11],[75402,-8],[75419,-3],[75439,-11],[75440,-2],[75443,-3],[75445,-5],[75485,-2],[75509,-21],[75514,-6],[75559,-13],[75561,-5],[75608,-8],[75647,-6],[75663,-37],[75680,-4],[75701,1],[75705,-7],[75710,-6],[75717,-8],[75735,-4],[75744,-8],[75764,-1],[75802,-6],[75813,-2],[75829,-3],[75864,-13],[75885,-7],[75889,-2],[75937,-7],[75946,-21],[75974,-12],[75992,-30],[76005,-11],[76021,-2],[76041,25],[76044,-23],[76057,-4],[76064,-10],[76076,-3],[76085,-3],[76102,-5],[76110,18],[76116,-5],[76118,26],[76147,-1],[76173,-30],[76206,-1],[76210,5],[76215,-5],[76237,-11],[76293,-4],[76296,-8],[76298,-9],[76318,2],[76324,-11],[76325,-1],[76366,6],[76376,-2],[76399,-7],[76404,-5],[76419,-1],[76427,83],[76431,-11],[76438,-5],[76457,-1],[76458,6],[76470,-1],[76485,-4],[76510,-2],[76511,-7],[76540,39],[76547,-8],[76551,-6],[76568,-9],[76572,-9],[76577,-5],[76583,1],[76585,20],[76595,-8],[76609,-6],[76617,80],[76628,-2],[76657,-1],[76662,3],[76681,-2],[76693,-8],[76695,-30],[76720,-40],[76721,6],[76723,13],[76727,-7],[76739,-7],[76743,-11],[76779,-23],[76788,-12],[76789,-5],[76805,-2],[76839,-7],[76840,-3],[76849,-1],[76850,-21],[76851,-14],[76875,-3],[76897,2],[76917,-8],[76929,-7],[76935,-5],[76942,-6],[76962,-5],[76973,-1],[76985,20],[76999,-23],[77002,-8],[77029,-18],[77043,14],[77048,-8],[77053,-3],[77055,-32],[77062,-9],[77073,-15],[77084,-2],[77091,-20],[77097,-4],[77136,-6],[77174,2],[77176,-8],[77178,-19],[77184,-5],[77206,-8],[77208,-8],[77218,-2],[77225,-2],[77236,21],[77238,-7],[77250,-8],[77267,-5],[77270,-1],[77275,-31],[77284,-12],[77291,-9],[77292,-1],[77319,-7],[77324,-15],[77335,-6],[77367,-6],[77376,-8],[77387,-10],[77397,-10],[77408,-8],[77425,-6],[77448,-1],[77463,-6],[77464,-1],[77497,-4],[77515,-18],[77529,-8],[77549,-24],[77552,-12],[77562,-4],[77565,-10],[77571,2],[77572,-4],[77579,-3],[77606,-8],[77635,-9],[77642,-14],[77656,-6],[77662,-2],[77674,-1],[77690,-2],[77694,-23],[77704,-2],[77714,-3],[77722,-10],[77726,-7],[77730,2],[77755,6],[77762,-5],[77763,-5],[77771,12],[77779,-8],[77782,-2],[77788,-4],[77794,-9],[77817,-6],[77847,-1],[77848,-4],[77857,-1],[77858,-18],[77882,-5],[77884,-1],[77890,8],[77895,-2],[77898,-15],[77906,-8],[77909,-6],[77911,-8],[77913,76],[77919,-4],[77948,-3],[77955,63],[77981,-3],[77986,-9],[77987,3],[78007,-12],[78010,-10],[78022,-7],[78050,-16],[78071,-1],[78126,2],[78143,-15],[78144,-3],[78147,-9],[78158,-49],[78164,4],[78173,46],[78220,-7],[78228,-11],[78240,-7],[78261,-2],[78263,-24],[78274,47],[78293,-8],[78297,-10],[78307,-3],[78345,-2],[78347,-1],[78360,-2],[78384,-9],[78396,-12],[78409,-2],[78432,-24],[78433,-23],[78460,-12],[78462,-6],[78463,-16],[78467,-59],[78480,-2],[78484,-8],[78494,-6],[78503,-14],[78562,-3],[78585,-25],[78603,11],[78622,15],[78670,-8],[78677,-4],[78680,-11],[78685,-6],[78692,25],[78697,-22],[78729,-12],[78749,-1],[78753,-6],[78767,-1],[78778,25],[78785,-7],[78794,-30],[78801,18],[78815,-3],[78835,-4],[78841,-8],[78843,-19],[78865,-1],[78931,-1],[78951,-3],[78965,2],[78966,-15],[78968,-2],[78988,31],[78990,-11],[79002,-16],[79006,5],[79035,-20],[79037,-3],[79061,-9],[79081,-5],[79083,-5],[79105,-9],[79109,-7],[79173,-15],[79180,-2],[79256,-11],[79262,-4],[79267,2],[79268,-2],[79271,-4],[79276,2],[79286,-13],[79313,-5],[79317,-9],[79326,-4],[79328,-1],[79330,-6],[79336,34],[79342,-15],[79347,-10],[79348,2],[79362,-8],[79367,-11],[79369,-7],[79372,-6],[79431,-3],[79449,1],[79451,-9],[79460,-3],[79470,-1],[79501,-4],[79515,-7],[79564,32],[79591,-10],[79606,-17],[79607,-1],[79620,-5],[79623,-9],[79647,-1],[79662,-1],[79677,-7],[79686,-5],[79693,-8],[79711,-11],[79712,-7],[79723,-4],[79739,-3],[79772,21],[79779,51],[79804,14],[79805,-12],[79806,-13],[79817,-1],[79825,-15],[79826,21],[79853,-5],[79907,-2],[79937,-12],[79944,-2],[79952,-4],[79970,-14],[79974,-15],[79979,-8],[79986,-1],[79994,1],[79996,-85],[80005,-1],[80009,-11],[80019,-2],[80038,-12],[80074,11],[80075,1],[80083,-29],[80089,-6],[80128,-1],[80157,19],[80172,-12],[80189,-23],[80224,13],[80260,-11],[80266,-4],[80276,-8],[80293,-2],[80294,39],[80322,-12],[80325,1],[80365,-1],[80377,10],[80393,-7],[80403,-10],[80457,-38],[80458,-4],[80473,-3],[80480,2],[80487,-2],[80568,1],[80577,-7],[80583,-5],[80584,-4],[80587,1],[80588,-8],[80621,-1],[80636,-23],[80654,35],[80664,-1],[80679,14],[80683,-10],[80704,-1],[80721,-6],[80724,-1],[80725,-2],[80735,-7],[80763,-1],[80767,-1],[80776,-14],[80788,-1],[80809,-5],[80811,-11],[80824,-2],[80839,3],[80844,-21],[80876,-4],[80878,-14],[80880,-1],[80895,-6],[80903,-3],[80955,18],[80961,-5],[80976,-4],[80983,89],[80991,-4],[80993,-4],[81020,-12],[81021,-1],[81032,-12],[81039,-11],[81068,-6],[81072,-5],[81096,-2],[81123,-1],[81127,-7],[81141,3],[81151,10],[81153,-22],[81154,-12],[81165,1],[81173,-8],[81199,1],[81282,-6],[81283,-48],[81322,-5],[81332,-22],[81337,-3],[81343,-8],[81344,-9],[81348,-7],[81355,20],[81371,-5],[81381,-16],[81400,32],[81414,-6],[81417,-3],[81444,-6],[81495,14],[81498,-9],[81556,-18],[81560,-1],[81564,-10],[81575,-8],[81579,-11],[81580,-4],[81588,-9],[81599,-5],[81611,-1],[81626,-1],[81663,-15],[81700,-1],[81701,55],[81721,5],[81727,11],[81744,-9],[81745,-8],[81746,98],[81757,45],[81786,-1],[81796,-12],[81809,-2],[81833,-5],[81847,-7],[81872,-1],[81876,-8],[81902,-10],[81915,9],[81922,-18],[81927,-7],[82019,11],[82022,-20],[82028,-6],[82048,-15],[82087,-5],[82093,-8],[82129,-1],[82140,-5],[82142,-2],[82143,-1],[82146,-9],[82151,-8],[82154,-12],[82209,-12],[82239,-5],[82242,-14],[82245,6],[82250,-7],[82257,-3],[82287,18],[82321,5],[82354,-6],[82364,-4],[82377,-17],[82391,-9],[82405,-16],[82410,-3],[82416,54],[82418,1],[82431,-6],[82434,-8],[82456,63],[82491,-3],[82503,-4],[82521,-13],[82550,-2],[82604,-4],[82612,-4],[82630,-4],[82698,-6],[82699,-3],[82714,-2],[82747,-9],[82766,-2],[82776,34],[82788,-10],[82800,2],[82804,1],[82808,-1],[82824,-12],[82871,-5],[82883,5],[82899,-1],[82910,-12],[82912,-1],[82915,-11],[82920,2],[82926,-3],[82941,-5],[82961,19],[82962,-2],[82992,-1],[83007,-1],[83035,-9],[83095,-12],[83124,-3],[83130,9],[83178,-8],[83179,-8],[83183,-21],[83187,-4],[83190,-7],[83194,-6],[83204,-8],[83207,4],[83211,2],[83212,-8],[83224,-2],[83272,-13],[83278,-4],[83287,-11],[83295,-7],[83298,53],[83313,11],[83318,-5],[83341,-12],[83372,-5],[83384,-4],[83393,-1],[83405,2],[83461,29],[83464,-7],[83468,-4],[83471,2],[83496,-1],[83501,21],[83504,-9],[83509,-4],[83527,-1],[83531,-10],[83534,-1],[83564,-2],[83565,-5],[83575,21],[83576,14],[83581,76],[83625,-3],[83660,-2],[83664,-12],[83678,-2],[83686,-1],[83688,-29],[83701,-5],[83712,-2],[83716,77],[83718,-13],[83723,-10],[83726,-14],[83734,-8],[83742,-11],[83748,-16],[83796,-9],[83818,-22],[83824,25],[83836,-15],[83847,-8],[83850,-24],[83855,-8],[83867,-6],[83875,19],[83909,-2],[83915,-23],[83916,-1],[83942,-4],[83946,-5],[83975,-5],[83985,10],[83988,-24],[84019,22],[84023,-28],[84035,-5],[84050,-7],[84066,-2],[84068,-24],[84100,-10],[84111,-5],[84117,-27],[84138,-8],[84146,-1],[84164,-8],[84170,-19],[84175,31],[84184,-1],[84227,-1],[84229,8],[84230,-3],[84251,-5],[84265,-11],[84270,-7],[84278,-2],[84286,-10],[84296,-1],[84305,-8],[84314,17],[84318,-28],[84333,13],[84340,89],[84357,-13],[84380,-2],[84388,-1],[84406,-9],[84433,8],[84434,-12],[84445,-5],[84453,-7],[84455,-5],[84494,-8],[84496,-7],[84498,-12],[84514,3],[84522,-32],[84536,-4],[84554,-7],[84562,-1],[84574,-1],[84598,-9],[84609,43],[84618,-24],[84628,-7],[84642,-11],[84645,-1],[84646,-8],[84656,-1],[84681,-2],[84700,-4],[84717,-8],[84730,-3],[84741,7],[84757,-2],[84761,19],[84788,56],[84791,-7],[84792,-7],[84795,-56],[84798,-5],[84806,51],[84849,-12],[84853,-1],[84869,36],[84872,-5],[84914,-15],[84917,-30],[84925,-9],[84949,3],[84975,-5],[84978,-7],[84979,-12],[84980,-6],[84984,-2],[84992,-5],[85019,-18],[85024,-3],[85049,-2],[85056,9],[85067,-12],[85115,-11],[85124,-7],[85140,-5],[85153,-23],[85157,-14],[85178,-3],[85182,-3],[85192,-7],[85206,-9],[85221,-5],[85237,-2],[85252,16],[85254,-1],[85265,-10],[85290,-24],[85334,-5],[85345,-1],[85348,-2],[85350,-8],[85370,1],[85375,-10],[85380,-17],[85383,-22],[85397,-5],[85400,-9],[85425,-7],[85427,-3],[85432,-4],[85457,-11],[85479,54],[85500,-8],[85517,-2],[85544,-31],[85554,-11],[85558,15],[85563,-4],[85585,-1],[85597,-38],[85604,-23],[85610,-5],[85614,-12],[85630,-1],[85644,-5],[85662,-10],[85690,-1],[85693,-11],[85719,-6],[85731,-12],[85798,-1],[85811,-13],[85819,-2],[85833,-1],[85839,5],[85866,-4],[85867,17],[85886,-4],[85892,-7],[85930,24],[85956,-7],[85969,-1],[85970,-6],[85978,-2],[85982,-21],[85984,-10],[85989,12],[86027,1],[86078,-1],[86086,-10],[86089,1],[86137,-7],[86139,-14],[86160,-15],[86184,-1],[86196,-28],[86201,-1],[86205,-1],[86221,-5],[86229,1],[86245,-7],[86247,-2],[86248,39],[86278,-1],[86282,-13],[86313,-9],[86338,-7],[86341,-3],[86372,-3],[86407,-11],[86509,1],[86518,-11],[86527,-30],[86531,-8],[86555,13],[86559,-2],[86562,89],[86577,-10],[86604,-21],[86613,-11],[86614,-1],[86649,-15],[86663,-18],[86665,-11],[86674,-5],[86687,-9],[86707,-11],[86724,-4],[86728,-4],[86757,-4],[86765,-24],[86774,1],[86781,28],[86785,-5],[86801,-5],[86818,-8],[86823,-2],[86836,2],[86849,-4],[86850,5],[86911,-5],[86954,14],[86962,-10],[86966,-1],[87002,-28],[87014,-27],[87029,-11],[87042,-2],[87048,8],[87079,5],[87080,14],[87081,-3],[87085,-2],[87118,1],[87139,14],[87161,-12],[87183,-4],[87187,-12],[87188,11],[87190,-5],[87192,-12],[87195,-11],[87199,-1],[87211,-20],[87219,-1],[87237,-9],[87253,1],[87270,-6],[87289,-4],[87291,-16],[87294,-23],[87305,2],[87306,-3],[87310,-2],[87320,-13],[87324,-2],[87359,21],[87363,-2],[87374,-3],[87375,-7],[87385,-10],[87387,-2],[87394,-20],[87405,-28],[87416,-8],[87417,-5],[87435,-5],[87451,-23],[87464,-23],[87484,-10],[87489,-16],[87500,3],[87501,-6],[87521,-4],[87523,-10],[87530,-4],[87542,-2],[87545,-3],[87546,-8],[87569,-1],[87572,-1],[87573,8],[87595,-25],[87616,32],[87617,-1],[87645,-2],[87647,3],[87663,-3],[87665,-13],[87670,-14],[87698,-6],[87706,-2],[87707,-5],[87716,20],[87726,-14],[87736,-1],[87766,-12],[87768,6],[87774,-10],[87776,-16],[87807,-2],[87820,-3],[87834,-1],[87845,-66],[87852,-8],[87854,-8],[87866,19],[87874,-4],[87875,-6],[87884,44],[87912,-4],[87939,-10],[87941,15],[87942,8],[87972,-1],[87986,-4],[87994,-3],[87996,-8],[88008,-1],[88022,-6],[88024,-9],[88067,-11],[88100,-11],[88110,-16],[88161,-3],[88166,-10],[88170,-9],[88190,-12],[88215,-16],[88243,3],[88247,-3],[88251,16],[88264,-14],[88271,-7],[88340,-12],[88363,9],[88369,98],[88376,-19],[88410,-7],[88413,-5],[88422,-6],[88447,-1],[88467,-4],[88468,-7],[88470,-1],[88478,-20],[88493,-1],[88552,-12],[88557,-5],[88576,-13],[88579,-23],[88585,-18],[88588,-5],[88619,-32],[88636,2],[88641,1],[88645,-8],[88649,-65],[88651,22],[88660,8],[88662,16],[88664,-9],[88667,-3],[88668,-1],[88692,13],[88709,-9],[88723,-5],[88739,-9],[88749,-3],[88761,-15],[88779,-1],[88813,-1],[88827,-11],[88828,-18],[88839,26],[88844,-4],[88847,-6],[88865,-17],[88869,-9],[88880,83],[88892,-4],[88900,-10],[88929,-15],[88940,-5],[88942,-11],[88948,-14],[88966,-6],[88979,-7],[89006,-1],[89029,-1],[89052,-5],[89068,15],[89103,13],[89134,-1],[89143,-7],[89144,-7],[89167,-8],[89168,-1],[89171,-3],[89186,-1],[89206,-7],[89208,-15],[89233,2],[89237,-27],[89245,-7],[89262,-11],[89291,8],[89302,-11],[89338,-8],[89347,-6],[89351,-6],[89354,-4],[89357,-9],[89380,-12],[89389,-19],[89407,-13],[89410,-30],[89435,-7],[89508,-7],[89523,-1],[89530,-6],[89567,-1],[89571,-3],[89574,-1],[89586,-24],[89593,-10],[89627,-17],[89638,-8],[89677,-6],[89688,-1],[89694,-7],[89709,-9],[89750,-7],[89771,13],[89772,-8],[89774,-5],[89776,-7],[89818,-2],[89839,-10],[89863,-2],[89864,-8],[89865,13],[89870,-7],[89880,-1],[89899,24],[89900,-3],[89907,-7],[89912,-3],[89914,-10],[89949,-5],[89960,-14],[89981,-3],[89982,-10],[89988,-18],[89991,-3],[90007,-12],[90020,17],[90037,-6],[90045,-6],[90062,52],[90082,1],[90090,-13],[90103,-16],[90130,-7],[90139,-2],[90154,-12],[90182,-4],[90186,-8],[90192,-1],[90201,-7],[90204,-11],[90206,-3],[90209,-5],[90232,7],[90238,-8],[90252,1],[90259,-1],[90263,-33],[90280,-11],[90288,-3],[90339,-12],[90348,-10],[90353,-6],[90355,1],[90361,-8],[90366,-1],[90373,-5],[90423,-11],[90424,-4],[90426,-1],[90430,-5],[90446,-8],[90454,-5],[90484,-4],[90491,-4],[90497,1],[90499,-9],[90501,-7],[90515,-5],[90518,-11],[90549,-5],[90556,-11],[90557,-8],[90567,-1],[90573,-2],[90587,-3],[90591,-1],[90644,-25],[90649,-5],[90669,-1],[90688,-7],[90700,8],[90721,-4],[90732,-10],[90766,-14],[90787,-23],[90792,-18],[90808,-4],[90823,-14],[90826,25],[90867,-1],[90878,-8],[90879,-8],[90886,-2],[90894,38],[90897,-29],[90910,-12],[90914,-18],[90927,-1],[90950,-1],[90951,-1],[90960,-2],[90962,-8],[90966,49],[90996,-8],[91000,-5],[91001,-9],[91007,-9],[91010,-8],[91012,-4],[91023,-5],[91027,12],[91044,-27],[91056,31],[91069,9],[91083,-6],[91103,14],[91162,-7],[91194,-13],[91223,10],[91240,-1],[91282,-7],[91322,-6],[91358,5],[91373,17],[91383,-6],[91384,-10],[91396,-5],[91410,-10],[91446,-10],[91477,-14],[91483,-11],[91504,-1],[91564,28],[91569,2],[91572,-2],[91613,-30],[91665,-10],[91694,-1],[91703,-11],[91709,-12],[91717,-4],[91734,-7],[91794,-5],[91800,-42],[91817,-11],[91832,-6],[91836,-5],[91841,-15],[91850,-34],[91865,-6],[91866,-7],[91871,-15],[91874,-2],[91877,-11],[91881,-7],[91900,-20],[91946,-5],[91967,-30],[91973,8],[91989,-5],[91996,-1],[92005,25],[92019,-1],[92030,-7],[92051,-19],[92064,18],[92100,-10],[92121,-9],[92148,-5],[92157,2],[92172,-5],[92223,-3],[92238,-5],[92246,-7],[92253,-26],[92260,-1],[92295,-3],[92318,-1],[92322,-24],[92337,-4],[92345,-9],[92347,-4],[92373,-1],[92378,-1],[92383,-12],[92392,-9],[92401,-30],[92403,39],[92414,-2],[92452,-30],[92457,13],[92498,-9],[92518,-16],[92519,-4],[92526,-1],[92546,-5],[92549,-8],[92560,-4],[92593,36],[92601,-40],[92605,-3],[92609,-11],[92627,-4],[92639,-6],[92651,-15],[92670,-3],[92704,-7],[92715,-1],[92739,-2],[92761,-10],[92784,-2],[92806,-13],[92854,-3],[92857,-15],[92859,19],[92865,21],[92877,-1],[92898,-1],[92901,12],[92917,-24],[92945,-9],[92963,-1],[92992,6],[93028,-2],[93052,-9],[93062,-8],[93071,-7],[93139,1],[93140,-12],[93142,-1],[93146,-22],[93188,-10],[93192,-1],[93223,-33],[93230,-1],[93238,-10],[93239,-3],[93241,-17],[93244,-7],[93267,5],[93272,-10],[93301,58],[93309,63],[93311,-1],[93315,-5],[93316,-1],[93324,-16],[93331,-8],[93332,-1],[93350,-6],[93367,-13],[93387,-19],[93407,26],[93419,-8],[93420,-11],[93429,-12],[93450,-2],[93462,-22],[93463,-15],[93518,-12],[93525,-12],[93572,33],[93574,-11],[93578,-1],[93586,-1],[93626,-2],[93690,-4],[93694,-10],[93704,-21],[93711,-10],[93726,-1],[93727,-7],[93736,-2],[93762,-9],[93774,6],[93819,2],[93867,-1],[93868,-12],[93891,-6],[93906,-3],[93917,-9],[93918,-4],[93943,-19],[93946,-24],[93972,-14],[93983,51],[94036,-21],[94039,-3],[94058,33],[94062,-5],[94066,-1],[94068,-7],[94091,-15],[94111,-8],[94115,6],[94135,-10],[94136,-7],[94165,-8],[94173,-1],[94189,-8],[94195,-19],[94198,58],[94206,-10],[94218,-16],[94226,-20],[94227,-6],[94238,-1],[94241,-10],[94256,-6],[94270,-4],[94271,-1],[94278,2],[94296,-5],[94310,-1],[94342,5],[94344,-5],[94351,-6],[94372,-1],[94377,-4],[94476,21],[94493,-9],[94514,-7],[94517,-5],[94524,-5],[94525,-9],[94539,-18],[94548,-5],[94554,16],[94573,-1],[94578,-6],[94598,-4],[94641,-2],[94654,-14],[94663,-6],[94671,32],[94681,2],[94702,-16],[94724,-1],[94734,-1],[94735,2],[94744,2],[94750,-4],[94770,-1],[94777,-1],[94817,-4],[94869,-8],[94893,-2],[94894,-15],[94912,-5],[94951,-7],[94968,-4],[94978,-1],[94990,-9],[95022,-4],[95070,-6],[95075,14],[95076,-10],[95093,-1],[95151,-5],[95167,-8],[95184,21],[95188,-14],[95191,-7],[95247,-2],[95249,-5],[95258,21],[95272,-8],[95282,-18],[95283,-1],[95287,-6],[95290,10],[95298,-7],[95322,-10],[95330,-3],[95345,-30],[95368,-1],[95404,-2],[95421,18],[95455,-1],[95456,-4],[95465,-10],[95477,-5],[95535,-3],[95574,-1],[95598,-9],[95601,-3],[95646,-6],[95652,-3],[95682,-56],[95685,-1],[95695,-2],[95706,-1],[95711,-11],[95724,-24],[95729,20],[95736,-12],[95746,-1],[95764,-3],[95769,-11],[95788,-5],[95816,-1],[95818,-10],[95831,-7],[95876,-5],[95881,-14],[95890,2],[95905,39],[95910,-2],[95919,-7],[95923,-1],[95932,-11],[95948,-1],[95952,25],[95955,-17],[95967,-2],[95974,-14],[96000,-3],[96015,-9],[96032,83],[96045,-13],[96048,-7],[96051,-12],[96088,89],[96089,-1],[96104,58],[96106,-9],[96107,-8],[96116,-6],[96151,-7],[96154,36],[96172,-4],[96250,-17],[96263,-8],[96270,-7],[96274,-15],[96308,-10],[96320,-12],[96333,10],[96348,-1],[96351,-13],[96366,-6],[96378,-4],[96381,-15],[96383,-2],[96388,-13],[96391,-9],[96410,-12],[96412,-4],[96433,-5],[96465,-11],[96539,-7],[96540,-32],[96546,1],[96573,-23],[96585,-4],[96613,-8],[96620,-1],[96679,-11],[96709,-22],[96711,18],[96712,-5],[96731,-1],[96762,-13],[96763,-2],[96768,-29],[96778,-6],[96790,8],[96800,3],[96829,-7],[96848,21],[96862,-1],[96865,-9],[96870,-2],[96873,-1],[96883,14],[96891,16],[96893,-7],[96931,-8],[96966,-1],[97010,-1],[97022,5],[97025,-9],[97056,-8],[97080,-1],[97089,-1],[97096,-2],[97114,-2],[97120,7],[97135,-6],[97147,-5],[97178,3],[97181,-12],[97208,-18],[97212,44],[97220,-1],[97234,1],[97238,-10],[97247,-9],[97273,32],[97277,1],[97281,-10],[97297,-3],[97336,-2],[97378,-1],[97415,17],[97452,-1],[97468,-15],[97472,-1],[97476,-2],[97489,-10],[97491,-10],[97516,-7],[97529,-3],[97530,-9],[97556,16],[97559,-8],[97574,-2],[97575,3],[97578,-3],[97591,-3],[97637,-2],[97657,-9],[97676,16],[97682,3],[97697,-8],[97701,-8],[97706,-5],[97717,43],[97729,-10],[97737,-11],[97743,2],[97761,-5],[97765,-4],[97779,-7],[97822,-1],[97827,-2],[97831,-3],[97835,-9],[97838,-3],[97849,-13],[97868,-8],[97902,7],[97903,2],[97907,2],[97908,-15],[97925,-8],[97957,-2],[97960,1],[97970,10],[97971,-7],[97983,-1],[98004,-5],[98025,-14],[98034,8],[98046,-12],[98051,-10],[98059,20],[98079,-1],[98102,-6],[98158,-2],[98164,-7],[98195,18],[98197,-1],[98219,-9],[98239,-3],[98244,-5],[98248,-1],[98259,-8],[98275,20],[98277,5],[98296,-8],[98297,-4],[98319,-6],[98327,-27],[98336,-23],[98340,-1],[98374,-4],[98390,-32],[98402,-4],[98422,-4],[98435,-6],[98437,-3],[98450,-10],[98464,-6],[98482,3],[98488,-1],[98489,-2],[98501,1],[98502,-2],[98508,-3],[98519,3],[98525,-2],[98528,-28],[98582,-5],[98598,-8],[98600,-5],[98609,-3],[98639,2],[98640,-5],[98645,-30],[98653,8],[98675,-4],[98680,-12],[98697,2],[98698,-18],[98703,20],[98749,33],[98767,-4],[98773,58],[98800,-4],[98817,7],[98827,-1],[98862,-3],[98875,-28],[98904,-9],[98906,-2],[98909,-8],[98911,-10],[98931,-28],[98946,-4],[98958,-6],[98969,-2],[98983,-8],[99000,-1],[99012,-7],[99024,21],[99031,39],[99049,-2],[99054,-1],[99088,8],[99095,-17],[99098,-19],[99154,-6],[99155,51],[99208,-10],[99231,-7],[99233,-3],[99241,-5],[99242,-1],[99243,-7],[99245,-4],[99263,-3],[99277,-4],[99288,-15],[99297,-1],[99303,-38],[99313,-4],[99331,-1],[99338,-9],[99347,45],[99362,-1],[99375,-6],[99391,58],[99419,-12],[99425,-2],[99440,-60],[99457,2],[99481,-1],[99490,-7],[99509,-2],[99516,-3],[99517,43],[99530,-9],[99532,-5],[99537,2],[99549,-7],[99554,-5],[99601,-9],[99618,6],[99625,5],[99634,-8],[99640,-9],[99691,-1],[99698,-2],[99728,-15],[99737,-22],[99753,-2],[99758,11],[99774,-3],[99794,-23],[99800,-3],[99812,-1],[99824,11],[99825,-2],[99840,8],[99844,6],[99847,1],[99860,-11],[99879,-4],[99925,-8],[99928,-7],[99929,1],[99961,-35],[99968,-5],[99995,-7],[100010,-6],[100011,39],[100045,-14],[100056,-1],[100070,-9],[100072,-18],[100081,48],[100094,-4],[100109,-7],[100113,-1],[100116,-7],[100125,-8],[100143,-10],[100164,-1],[100166,-3],[100167,-6],[100200,-1],[100224,-7],[100239,-9],[100257,-9],[100263,-12],[100313,-8],[100317,-2],[100335,-6],[100349,-9],[100353,-8],[100368,-5],[100376,-11],[100384,-7],[100390,4],[100428,-3],[100429,3],[100440,-6],[100441,-9],[100443,-8],[100448,-1],[100480,17],[100497,-11],[100502,-12],[100545,-2],[100581,-3],[100587,17],[100614,-1],[100640,-5],[100667,98],[100669,2],[100677,-1],[100678,-9],[100689,45],[100690,-3],[100731,-9],[100742,2],[100763,-11],[100787,1],[100791,-10],[100798,-11],[100799,-5],[100808,-1],[100809,-7],[100815,19],[100818,-23],[100820,-9],[100843,2],[100873,-20],[100904,14],[100905,-1],[100919,-9],[100990,-23],[100995,1],[101014,-5],[101038,-8],[101054,-8],[101067,14],[101112,27],[101122,-2],[101124,-12],[101126,-10],[101132,19],[101139,-6],[101141,-5],[101150,-5],[101156,-6],[101163,-2],[101174,-9],[101190,-13],[101237,-12],[101239,-9],[101245,-11],[101266,-8],[101269,-3],[101273,-2],[101299,-12],[101304,2],[101312,3],[101327,16],[101348,-23],[101370,-1],[101392,-5],[101408,-12],[101410,12],[101421,-29],[101436,-8],[101442,14],[101450,-9],[101487,-8],[101492,-8],[101506,1],[101518,2],[101523,-1],[101527,-8],[101567,-1],[101592,8],[101593,3],[101596,-1],[101623,-1],[101626,-30],[101637,-15],[101644,-15],[101663,-7],[101678,-9],[101682,-1],[101745,-4],[101753,-4],[101815,-2],[101826,14],[101867,-9],[101899,-2],[101907,-6],[101912,-9],[101918,-7],[101938,-18],[101939,-8],[101957,19],[101972,-8],[101976,-3],[101983,-1],[102000,5],[102001,-23],[102005,-6],[102006,-8],[102016,-16],[102022,-2],[102092,12],[102109,-10],[102126,-6],[102131,-2],[102136,-6],[102144,-6],[102150,11],[102151,-5],[102167,16],[102179,-15],[102193,-6],[102206,-4],[102214,-6],[102256,-3],[102263,-1],[102289,-8],[102294,-2],[102310,-12],[102311,29],[102312,6],[102342,-5],[102352,-9],[102362,-6],[102363,-11],[102382,-5],[102396,-1],[102402,-12],[102414,8],[102425,-15],[102434,-1],[102438,-10],[102442,-6],[102446,-10],[102456,-7],[102458,-4],[102466,-8],[102474,-3],[102519,-2],[102537,-3],[102555,-3],[102565,-9],[102571,-3],[102578,-4],[102580,-7],[102583,-6],[102589,-9],[102609,-15],[102644,-4],[102646,-5],[102704,-12],[102710,-5],[102711,-4],[102713,-22],[102714,-4],[102715,-4],[102716,2],[102744,-2],[102769,-16],[102782,-7],[102793,-30],[102796,-2],[102797,-10],[102802,-3],[102806,1],[102842,-7],[102845,-9],[102853,-7],[102857,-6],[102858,-16],[102884,-8],[102886,-9],[102890,-6],[102916,26],[102920,27],[102963,-21],[102968,8],[102971,3],[102974,-9],[103017,1],[103020,24],[103023,-10],[103044,-17],[103048,3],[103058,-10],[103063,-30],[103118,-8],[103119,6],[103150,-7],[103171,-1],[103172,9],[103184,-2],[103205,-31],[103212,-10],[103216,-11],[103226,-8],[103228,14],[103234,-9],[103238,-11],[103252,-31],[103261,29],[103262,-5],[103265,-4],[103286,-4],[103313,-8],[103318,14],[103353,49],[103358,-2],[103374,-24],[103390,-7],[103421,-4],[103435,-29],[103460,-18],[103491,-4],[103500,-7],[103503,-8],[103509,-5],[103517,-7],[103519,-3],[103541,-3],[103543,21],[103566,-9],[103612,-9],[103613,24],[103620,2],[103651,38],[103657,-26],[103661,-30],[103703,-11],[103725,2],[103730,-1],[103768,-12],[103828,22],[103839,-10],[103853,-7],[103879,-12],[103931,-8],[103964,-10],[103974,-6],[103987,9],[104015,62],[104023,-14],[104047,-7],[104050,-8],[104056,-10],[104060,-14],[104083,-1],[104106,-9],[104107,-2],[104116,-14],[104123,-10],[104124,-7],[104126,-4],[104128,-9],[104136,-1],[104143,-44],[104144,-8],[104155,-8],[104159,-46],[104164,-10],[104195,-5],[104211,-8],[104221,-9],[104237,-8],[104294,-2],[104325,-1],[104340,-9],[104367,-6],[104389,-8],[104395,-11],[104410,-8],[104414,-15],[104437,-11],[104440,3],[104461,-4],[104463,63],[104464,-16],[104465,-4],[104467,-7],[104496,-16],[104524,-6],[104529,-6],[104549,-11],[104550,-8],[104562,-15],[104597,34],[104613,-3],[104618,-6],[104634,-1],[104664,-7],[104667,-8],[104677,-1],[104695,-7],[104704,21],[104740,6],[104750,3],[104777,28],[104781,-9],[104795,-11],[104813,-7],[104816,-6],[104817,-10],[104833,-30],[104837,-9],[104873,-48],[104896,-18],[104905,-2],[104908,-1],[104914,-2],[104921,-4],[104932,-5],[104954,17],[104959,45],[104960,-9],[104965,-10],[104973,-8],[104984,-9],[104989,-7],[105075,-6],[105082,-2],[105085,-17],[105087,-15],[105131,44],[105136,-30],[105150,-1],[105153,-8],[105157,-15],[105169,-10],[105183,-5],[105219,-9],[105223,-21],[105224,-14],[105225,-2],[105231,-10],[105245,-8],[105256,-1],[105264,-1],[105284,-30],[105286,-11],[105298,-4],[105301,19],[105316,-1],[105333,-27],[105340,-1],[105348,-14],[105355,-8],[105381,-25],[105383,6],[105411,-8],[105433,1],[105436,-3],[105444,-3],[105451,4],[105478,-17],[105488,16],[105490,-4],[105497,-1],[105498,58],[105510,-9],[105534,-30],[105537,-1],[105539,-4],[105562,1],[105567,1],[105581,-10],[105586,-17],[105595,-10],[105622,3],[105623,24],[105657,5],[105659,-8],[105675,-2],[105684,-5],[105690,-2],[105723,-4],[105727,-15],[105728,-10],[105736,-4],[105738,-10],[105740,-13],[105773,-1],[105780,-6],[105785,-2],[105797,-3],[105803,-4],[105847,-5],[105863,-5],[105891,-1],[105937,-8],[105951,-10],[105965,13],[105974,3],[105989,-10],[105990,-7],[106002,8],[106009,-6],[106032,-7],[106041,-15],[106048,-6],[106066,-6],[106074,-8],[106089,25],[106112,-17],[106118,7],[106120,-4],[106138,-11],[106141,-17],[106158,-3],[106189,4],[106198,6],[106227,-9],[106237,-14],[106252,-5],[106277,-1],[106283,-8],[106285,-1],[106295,-2],[106297,-2],[106319,-14],[106322,-12],[106325,-10],[106332,-3],[106339,-11],[106340,-9],[106354,16],[106370,-9],[106377,-2],[106424,-4],[106427,-4],[106429,-5],[106444,-12],[106476,-4],[106478,-11],[106485,-4],[106486,-13],[106500,71],[106530,-3],[106542,-9],[106544,-7],[106549,-8],[106551,-1],[106556,-23],[106578,-4],[106614,-3],[106635,-2],[106640,-15],[106646,-1],[106651,-11],[106663,-8],[106668,1],[106669,6],[106681,-26],[106700,-3],[106719,-5],[106723,-11],[106752,-8],[106757,-3],[106884,-1],[106901,46],[106907,-1],[106911,-10],[106925,-7],[106961,-5],[106962,-11],[106970,-3],[106980,-6],[106990,-9],[106993,-9],[107006,-15],[107008,-2],[107017,-2],[107054,-5],[107083,-8],[107085,-4],[107090,14],[107097,49],[107103,-6],[107121,-25],[107138,-1],[107146,-7],[107153,4],[107167,-8],[107186,-3],[107192,-29],[107207,-24],[107222,-4],[107241,34],[107255,-6],[107284,-11],[107306,-2],[107309,-23],[107320,-2],[107332,-4],[107342,-9],[107366,-1],[107368,-5],[107374,-9],[107389,-2],[107410,117],[107426,-9],[107439,-1],[107451,-2],[107478,-3],[107503,-9],[107506,-4],[107512,-9],[107516,-11],[107527,-1],[107529,-3],[107534,-1],[107549,-23],[107550,-8],[107565,-29],[107567,-8],[107594,-18],[107601,1],[107617,-3],[107619,1],[107626,-3],[107640,-24],[107643,-14],[107682,-4],[107694,-13],[107708,-7],[107720,16],[107723,-8],[107750,-5],[107753,38],[107760,-6],[107772,42],[107776,-8],[107790,-5],[107868,-3],[107901,-5],[107952,-35],[107958,-1],[107960,-5],[107971,-1],[107981,-1],[107996,-6],[108004,-8],[108021,5],[108086,2],[108112,-3],[108128,28],[108141,-1],[108154,-14],[108158,-7],[108177,-12],[108240,-1],[108243,-2],[108263,-34],[108264,-6],[108267,2],[108276,39],[108300,-8],[108321,-12],[108349,-2],[108355,56],[108369,-1],[108388,-7],[108422,-6],[108432,25],[108437,-1],[108449,-17],[108485,-4],[108557,-6],[108563,-7],[108579,-11],[108596,-2],[108652,-9],[108666,17],[108668,-1],[108735,-9],[108747,-1],[108758,-3],[108779,-29],[108804,-14],[108810,-3],[108826,-30],[108859,-5],[108863,3],[108869,-6],[108873,-8],[108874,-7],[108906,-14],[108913,1],[108951,-7],[108959,-6],[108969,-1],[108976,-9],[108978,-2],[108990,-4],[108995,-11],[109000,-1],[109004,-1],[109008,-4],[109025,-14],[109055,-3],[109069,-9],[109078,-23],[109089,4],[109099,-62],[109142,-2],[109172,8],[109176,-5],[109191,-7],[109208,-10],[109213,1],[109255,-1],[109270,-33],[109301,-2],[109312,-5],[109314,-6],[109322,-4],[109331,-2],[109338,-17],[109345,-2],[109410,-7],[109426,-2],[109429,-5],[109440,21],[109449,-15],[109453,-3],[109467,-3],[109509,-2],[109511,-8],[109571,-1],[109616,-4],[109622,-5],[109625,-15],[109632,-6],[109642,-7],[109653,2],[109660,-5],[109668,-5],[109675,-7],[109678,-5],[109735,-1],[109766,-10],[109779,-7],[109780,-4],[109861,2],[109862,-9],[109887,-1],[109893,-1],[109894,-3],[109899,-9],[109905,-3],[109922,-11],[109923,-1],[109929,-8],[109932,-12],[109942,-8],[109943,3],[109947,-8],[109970,-3],[109975,98],[109985,-24],[109997,-5],[110021,-2],[110039,-9],[110058,-12],[110080,-5],[110086,-10],[110089,83],[110091,-3],[110107,-6],[110144,-28],[110149,8],[110171,-15],[110176,-6],[110178,5],[110228,-9],[110257,-1],[110306,-14],[110309,-1],[110336,18],[110356,-4],[110370,-14],[110384,-2],[110406,-15],[110412,2],[110434,-15],[110449,-4],[110472,-4],[110478,-5],[110485,-10],[110487,-1],[110515,-1],[110526,-2],[110579,-2],[110593,-6],[110611,-15],[110627,2],[110634,-7],[110646,-1],[110652,-9],[110708,1],[110715,1],[110716,-10],[110722,-6],[110739,-10],[110751,33],[110790,-8],[110794,-7],[110806,8],[110817,-11],[110832,-7],[110862,-6],[110865,2],[110869,-10],[110889,-10],[110890,-10],[110891,-10],[110904,-5],[110924,-17],[110928,1],[110933,-4],[110943,-4],[110990,-9],[110994,62],[111007,-1],[111010,-11],[111011,-11],[111014,-12],[111043,-3],[111082,-8],[111107,-4],[111114,-88],[111115,-3],[111116,-12],[111134,-8],[111143,-1],[111157,-11],[111176,-1],[111191,-1],[111194,-7],[111197,-8],[111211,-9],[111222,-9],[111227,-7],[111254,-15],[111277,-2],[111280,-2],[111281,-5],[111291,-1],[111320,-8],[111324,-9],[111346,-1],[111394,-9],[111408,-5],[111413,-14],[111437,-2],[111476,-16],[111507,-16],[111517,12],[111545,-6],[111572,-2],[111598,-9],[111604,3],[111647,-12],[111651,-30],[111657,-1],[111665,-16],[111668,-10],[111693,-3],[111701,-2],[111715,-10],[111735,-1],[111746,-7],[111749,-6],[111763,17],[111774,-3],[111775,43],[111788,1],[111794,-10],[111802,-2],[111804,-7],[111813,1],[111816,-10],[111817,-1],[111823,-12],[111839,-3],[111847,-10],[111852,-8],[111858,1],[111868,-5],[111878,-1],[111893,63],[111936,-2],[111943,-8],[111945,-21],[111982,61],[111997,-24],[112028,-7],[112034,-4],[112053,-15],[112064,-3],[112071,8],[112097,13],[112100,-7],[112123,-8],[112125,23],[112144,-8],[112165,-1],[112166,-11],[112176,-23],[112179,-29],[112219,-13],[112223,-12],[112261,-9],[112277,-10],[112301,-12],[112321,-15],[112323,-3],[112342,-9],[112343,-1],[112355,-10],[112369,-2],[112402,-10],[112409,-5],[112417,-9],[112439,39],[112447,-11],[112461,-14],[112474,-5],[112524,-15],[112537,-2],[112566,-4],[112617,-1],[112622,23],[112633,-15],[112639,-7],[112640,-20],[112641,-4],[112652,-4],[112655,-4],[112686,-6],[112689,-6],[112694,-24],[112710,-8],[112750,-9],[112765,-4],[112779,-9],[112809,-9],[112817,-4],[112821,-3],[112822,-1],[112831,-1],[112842,2],[112896,-12],[112901,-9],[112910,-6],[112912,-8],[112914,-13],[112932,-2],[112933,13],[112938,-13],[112958,-9],[112986,-27],[112994,1],[113015,24],[113025,-42],[113043,-8],[113061,-1],[113087,-7],[113095,-1],[113108,-14],[113109,-1],[113115,-6],[113117,-10],[113129,-28],[113136,-5],[113142,-5],[113172,-4],[113173,-10],[113185,-30],[113202,-1],[113208,-7],[113218,-4],[113224,-24],[113243,-7],[113262,-1],[113288,-12],[113313,-21],[113327,-1],[113337,29],[113351,-10],[113377,-7],[113381,-1],[113406,-7],[113421,-15],[113426,-1],[113428,-27],[113429,51],[113439,-11],[113446,-10],[113449,-18],[113458,-10],[113498,-14],[113504,-2],[113532,-46],[113551,-9],[113553,-5],[113556,-10],[113560,-17],[113566,-7],[113573,-2],[113577,-12],[113586,-24],[113603,-5],[113605,-5],[113615,-2],[113621,-1],[113628,-1],[113629,-8],[113639,-7],[113640,-7],[113643,-11],[113646,49],[113653,-22],[113694,-12],[113702,-11],[113719,-4],[113737,-1],[113762,-12],[113764,-6],[113768,-1],[113769,-7],[113775,-3],[113785,-7],[113789,-1],[113813,-11],[113818,-1],[113831,-6],[113833,-10],[113844,-12],[113857,-11],[113859,-1],[113881,-1],[113893,-7],[113917,28],[113928,-3],[113930,-9],[113932,-13],[113943,-11],[113968,19],[113992,-9],[113994,-3],[113995,3],[114001,-17],[114008,2],[114015,3],[114034,24],[114035,-6],[114048,-11],[114050,-6],[114056,1],[114089,34],[114094,-30],[114109,-3],[114112,-5],[114126,-1],[114132,15],[114141,-1],[114150,-6],[114152,16],[114163,-4],[114167,-1],[114177,-6],[114181,-1],[114182,11],[114195,113],[114220,45],[114266,-17],[114276,-5],[114288,5],[114307,24],[114348,-23],[114357,-2],[114368,-1],[114411,-8],[114417,56],[114423,-5],[114452,-11],[114471,26],[114478,3],[114481,13],[114515,-3],[114520,2],[114570,-1],[114582,-12],[114589,-6],[114596,94],[114598,-7],[114604,-8],[114606,43],[114623,-9],[114627,-8],[114637,-6],[114642,-2],[114648,-8],[114656,-3],[114674,-4],[114678,-7],[114679,-1],[114687,-7],[114709,-9],[114728,-23],[114760,-2],[114767,-22],[114768,-2],[114773,1],[114793,-1],[114797,-8],[114798,-5],[114812,-1],[114835,-3],[114837,-12],[114851,-1],[114852,-18],[114879,43],[114883,2],[114906,-12],[114921,-15],[114928,-9],[114936,-15],[114962,43],[114973,-13],[115001,-3],[115006,-11],[115018,-30],[115028,-7],[115049,30],[115067,-4],[115082,-9],[115100,-30],[115110,7],[115117,32],[115118,25],[115131,-3],[115132,-2],[115141,-13],[115142,-3],[115153,18],[115160,16],[115165,-7],[115188,-1],[115191,-10],[115200,-14],[115227,-8],[115238,-6],[115240,29],[115246,-14],[115257,-5],[115258,-2],[115299,-1],[115302,-4],[115349,-10],[115351,-7],[115371,1],[115373,-2],[115382,89],[115410,-6],[115424,-11],[115435,3],[115438,-1],[115489,-4],[115497,-28],[115510,-28],[115544,-4],[115546,-2],[115566,-9],[115600,-1],[115626,-63],[115658,20],[115663,-4],[115671,-2],[115674,-12],[115690,-16],[115702,-3],[115706,-4],[115728,-4],[115737,-5],[115750,-8],[115797,-11],[115808,-7],[115851,15],[115853,-3],[115866,-11],[115897,-11],[115900,-16],[115922,-1],[115934,6],[115945,-8],[115975,-1],[115976,-24],[115978,-3],[115989,-1],[116000,-11],[116018,-1],[116043,1],[116072,-3],[116102,-2],[116157,7],[116163,11],[116174,-6],[116201,6],[116210,-6],[116214,-4],[116219,-9],[116247,-2],[116254,43],[116273,2],[116290,-11],[116299,-5],[116314,-4],[116317,63],[116319,-3],[116329,-2],[116340,-6],[116342,1],[116352,2],[116372,-8],[116373,-8],[116400,-10],[116406,-18],[116413,20],[116415,-1],[116431,-2],[116440,-2],[116449,-4],[116455,-8],[116466,-8],[116478,1],[116519,-3],[116526,-8],[116542,-11],[116556,-4],[116575,-10],[116605,-7],[116614,-1],[116619,-10],[116634,-4],[116644,-2],[116646,-2],[116727,-2],[116749,-17],[116756,-8],[116795,-8],[116809,-1],[116820,-3],[116821,-2],[116827,-1],[116843,1],[116862,-7],[116882,-3],[116895,-5],[116909,-6],[116912,-11],[116913,-18],[116943,-2],[116971,-9],[116984,-9],[116990,-6],[117002,-7],[117015,-5],[117031,-8],[117038,-9],[117042,-9],[117058,-7],[117069,-1],[117071,16],[117073,-18],[117074,17],[117092,44],[117094,-8],[117105,1],[117124,-4],[117156,-7],[117178,-2],[117194,-5],[117230,-9],[117246,-6],[117317,-15],[117319,-1],[117340,-2],[117342,-24],[117384,59],[117400,-16],[117414,1],[117427,1],[117428,-11],[117450,24],[117481,-1],[117491,-33],[117516,-15],[117523,-7],[117531,-16],[117570,-4],[117627,-11],[117632,-3],[117674,-1],[117686,-28],[117703,7],[117708,-12],[117747,3],[117754,-6],[117758,37],[117771,-13],[117787,-18],[117793,-29],[117803,-10],[117817,-12],[117822,-24],[117833,-31],[117870,-1],[117871,-20],[117887,1],[117965,-14],[117968,-6],[117992,-2],[117997,-8],[118028,-4],[118081,-1],[118107,-5],[118110,-1],[118152,38],[118155,-8],[118158,4],[118175,-10],[118184,-12],[118188,-5],[118196,-7],[118203,-4],[118204,1],[118225,-1],[118331,-7],[118346,-1],[118410,-2],[118420,6],[118438,-3],[118447,-6],[118459,6],[118480,52],[118519,-10],[118545,-9],[118548,3],[118574,-9],[118600,-22],[118606,-3],[118612,-24],[118645,-2],[118663,-28],[118680,-5],[118681,1],[118702,-7],[118718,-3],[118721,-4],[118739,-2],[118775,-7],[118804,-1],[118810,-3],[118822,-4],[118833,-6],[118848,-4],[118853,-16],[118876,-6],[118922,-20],[118951,-6],[118954,-21],[118967,-19],[118975,-16],[118979,10],[119008,-6],[119018,-18],[119031,-1],[119036,-4],[119054,-1],[119077,-1],[119083,-2],[119116,-6],[119119,-17],[119141,-11],[119142,-8],[119153,-14],[119163,-13],[119168,2],[119177,-5],[119192,-12],[119195,-5],[119218,-9],[119242,-6],[119244,-15],[119278,-5],[119281,-1],[119287,-4],[119305,-11],[119308,-19],[119319,2],[119321,-12],[119323,-4],[119328,28],[119341,-1],[119380,-1],[119400,10],[119406,-1],[119411,-5],[119422,1],[119434,-6],[119443,-11],[119445,-14],[119476,8],[119496,-4],[119497,15],[119509,-2],[119522,-3],[119527,-1],[119545,-1],[119564,67],[119565,-10],[119567,110],[119593,-6],[119594,-18],[119601,-7],[119602,-12],[119640,-1],[119644,-1],[119647,-88],[119664,-6],[119690,-8],[119709,-9],[119728,-1],[119742,-12],[119755,-4],[119760,-1],[119771,1],[119773,-19],[119786,-7],[119863,-3],[119881,-13],[119891,-63],[119910,-24],[119925,-11],[119941,-2],[119967,-9],[119976,-7],[119988,51],[120010,-13],[120037,-8],[120040,-6],[120050,-2],[120070,-1],[120085,-5],[120119,-58],[120123,-3],[120126,-8],[120142,-1],[120147,19],[120154,58],[120156,-8],[120158,8],[120160,-4],[120197,-9],[120217,2],[120221,-11],[120224,25],[120232,2],[120256,-11],[120286,-10],[120288,-8],[120291,-10],[120309,-2],[120320,-10],[120323,-9],[120362,-6],[120367,-10],[120413,-38],[120417,-12],[120420,35],[120435,24],[120436,-4],[120445,58],[120465,1],[120490,-1],[120503,2],[120504,-1],[120506,-10],[120507,1],[120511,-28],[120533,5],[120537,-7],[120539,1],[120561,-8],[120562,-6],[120563,2],[120568,-7],[120585,6],[120614,-8],[120615,-15],[120620,-6],[120630,-10],[120639,-2],[120655,-9],[120671,11],[120747,-25],[120789,-1],[120790,-7],[120856,-21],[120878,-3],[120902,-35],[120931,-4],[120941,-21],[120955,-2],[120972,-1],[120974,-5],[120981,-10],[120982,-4],[120983,-13],[120992,-9],[121038,39],[121039,-3],[121044,8],[121057,-3],[121082,-9],[121084,-28],[121097,-7],[121111,1],[121117,-1],[121118,-24],[121125,51],[121130,-10],[121141,-13],[121143,-1],[121191,-16],[121214,-28],[121216,-4],[121238,23],[121256,-8],[121257,-8],[121259,-3],[121270,1],[121287,-5],[121303,-9],[121320,-8],[121340,-7],[121346,-6],[121357,-2],[121368,-14],[121374,-5],[121385,-4],[121386,24],[121392,-2],[121395,1],[121396,10],[121400,-10],[121404,-5],[121412,-2],[121421,-3],[121422,18],[121426,-12],[121436,78],[121450,-9],[121451,-23],[121452,14],[121459,-1],[121470,14],[121471,-2],[121472,-4],[121483,-4],[121501,-7],[121581,-24],[121596,-12],[121611,17],[121618,-9],[121641,-8],[121649,-7],[121662,-1],[121663,-4],[121697,-10],[121698,-4],[121716,15],[121721,-4],[121726,-12],[121733,12],[121737,-8],[121738,-9],[121748,2],[121766,-7],[121780,-11],[121807,-23],[121818,-7],[121831,-5],[121836,-7],[121838,89],[121858,2],[121861,-12],[121881,-18],[121896,1],[121917,2],[121922,31],[121923,-7],[121945,-1],[121965,-6],[121976,-12],[121982,-9],[121983,-5],[121988,-10],[122012,-8],[122045,-24],[122047,2],[122077,2],[122088,-10],[122123,-7],[122148,-5],[122169,-41],[122180,-18],[122181,-11],[122191,98],[122192,17],[122195,24],[122196,-2],[122239,-6],[122241,-4],[122288,-13],[122298,-12],[122309,-55],[122329,-7],[122339,1],[122340,-2],[122344,-4],[122368,-24],[122405,-11],[122413,52],[122414,-30],[122446,-9],[122450,