{"version":1,"format":"fnv1a-char-ngram-logreg-v1","dim":262144,"ngramMin":3,"ngramMax":5,"bias":3.4573721262943033,"scale":0.008880366160710728,"weights":[[45,10],[56,1],[75,8],[81,6],[88,7],[105,-25],[148,-15],[159,-15],[164,-10],[168,-41],[201,4],[267,-2],[308,-1],[313,7],[330,4],[398,-1],[415,-1],[426,-5],[427,-49],[436,-2],[459,3],[468,-2],[482,1],[536,1],[599,-23],[616,-15],[621,-28],[625,-15],[632,-16],[645,1],[680,-37],[738,-2],[783,-1],[792,-1],[794,-2],[801,-26],[812,-57],[852,-2],[863,-5],[893,-3],[915,6],[967,1],[1005,-48],[1007,-1],[1063,-2],[1077,-2],[1079,27],[1087,-1],[1113,-2],[1124,-28],[1135,7],[1151,-3],[1170,-17],[1204,-2],[1210,-2],[1212,-2],[1214,-25],[1222,-16],[1247,7],[1288,8],[1303,57],[1313,-47],[1317,-12],[1332,-1],[1355,-2],[1368,-15],[1405,1],[1413,19],[1442,-16],[1444,-7],[1520,-3],[1529,-15],[1538,4],[1552,-15],[1569,-2],[1593,-3],[1594,-3],[1595,-3],[1681,27],[1691,-2],[1695,-2],[1704,14],[1733,-2],[1762,5],[1766,7],[1767,-2],[1788,-2],[1808,5],[1872,-15],[1902,-37],[1910,-49],[1932,18],[1945,-16],[1952,1],[2010,-2],[2015,-37],[2073,-7],[2077,-49],[2080,4],[2082,-1],[2087,3],[2094,1],[2098,-2],[2110,-15],[2120,-24],[2128,-35],[2170,-37],[2259,-2],[2268,-1],[2299,-2],[2316,-2],[2319,-4],[2360,-12],[2371,9],[2382,12],[2384,-43],[2387,1],[2388,-15],[2397,-5],[2407,-3],[2413,-14],[2424,-4],[2501,8],[2510,-4],[2549,-37],[2551,1],[2565,3],[2587,-5],[2625,4],[2641,1],[2643,-34],[2660,-48],[2663,-18],[2683,-12],[2692,-7],[2702,2],[2731,-3],[2756,-6],[2771,-12],[2782,-5],[2807,-27],[2812,-5],[2817,-1],[2826,10],[2828,7],[2881,-15],[2913,28],[2989,-1],[3015,-48],[3017,1],[3047,-3],[3057,4],[3110,-3],[3130,-27],[3166,-3],[3173,-47],[3222,-2],[3279,-1],[3339,-2],[3394,-7],[3395,-28],[3401,1],[3413,-2],[3454,-3],[3458,-16],[3513,-4],[3527,-15],[3528,-4],[3545,-26],[3572,3],[3602,-4],[3613,-1],[3627,1],[3663,-4],[3684,2],[3709,-1],[3717,-1],[3726,-12],[3740,-16],[3760,1],[3855,-12],[3871,-2],[3894,-18],[3945,1],[3961,-15],[4007,1],[4010,-7],[4018,-1],[4032,24],[4041,-2],[4051,-2],[4072,-26],[4090,-9],[4111,-1],[4124,6],[4128,-2],[4148,-26],[4163,-3],[4244,-2],[4249,-12],[4276,-19],[4294,-1],[4295,-18],[4393,-3],[4398,8],[4435,34],[4486,-17],[4505,-4],[4509,3],[4513,-5],[4529,-16],[4542,-1],[4581,-17],[4587,-37],[4604,-3],[4623,-3],[4631,4],[4636,3],[4670,3],[4676,-15],[4712,-34],[4772,-19],[4797,-1],[4842,-1],[4862,-2],[4878,-16],[4982,-2],[5010,-34],[5029,11],[5052,-25],[5089,-2],[5093,-23],[5101,-15],[5156,-26],[5166,1],[5195,-15],[5209,-1],[5213,-16],[5241,15],[5248,-15],[5274,-47],[5296,-23],[5306,-37],[5319,-16],[5345,-18],[5359,5],[5370,-26],[5401,-3],[5444,-43],[5456,-7],[5476,3],[5488,5],[5499,-15],[5568,2],[5589,-2],[5592,-10],[5601,27],[5603,9],[5616,-1],[5634,-18],[5636,-5],[5644,1],[5660,18],[5703,-1],[5710,-2],[5764,5],[5782,1],[5802,2],[5838,1],[5852,-1],[5900,2],[5907,56],[5953,-26],[5972,-7],[5981,-4],[6017,-48],[6029,-2],[6031,-4],[6034,-2],[6047,10],[6077,-43],[6162,-12],[6163,-7],[6192,4],[6223,-26],[6241,-4],[6244,-48],[6250,1],[6279,2],[6312,-4],[6314,1],[6336,-2],[6374,1],[6388,1],[6389,-1],[6425,-18],[6450,8],[6496,8],[6512,-12],[6529,3],[6530,-41],[6531,-10],[6535,-9],[6543,-11],[6551,-47],[6566,2],[6598,1],[6602,-1],[6606,12],[6624,-26],[6630,14],[6641,-12],[6651,3],[6660,-16],[6691,-52],[6709,-37],[6713,-3],[6733,-2],[6807,-4],[6839,-37],[6853,19],[6856,-18],[6880,2],[6890,-18],[6892,28],[6977,14],[6991,4],[7014,-1],[7044,-3],[7047,2],[7050,-2],[7056,-2],[7061,2],[7063,-16],[7064,-15],[7108,-7],[7115,-5],[7130,-3],[7151,-2],[7167,3],[7180,4],[7205,-26],[7210,19],[7242,22],[7260,-2],[7262,-26],[7305,-1],[7349,-21],[7350,-1],[7371,-47],[7372,-19],[7388,-1],[7394,1],[7473,-3],[7509,-4],[7510,-37],[7512,57],[7513,-2],[7520,1],[7551,-1],[7574,-1],[7583,4],[7609,-2],[7611,6],[7618,-1],[7629,-3],[7650,4],[7653,11],[7654,7],[7659,5],[7672,-2],[7720,-2],[7745,35],[7802,-18],[7885,-1],[7905,-1],[7932,-15],[7982,-25],[8022,-37],[8028,-12],[8034,-24],[8037,-48],[8062,-2],[8075,-3],[8081,-9],[8082,-9],[8084,-2],[8085,-1],[8110,-2],[8157,-26],[8186,10],[8204,-4],[8261,-3],[8284,-2],[8290,-15],[8310,2],[8349,-10],[8356,-2],[8364,-15],[8389,-2],[8404,-15],[8416,35],[8432,-15],[8465,26],[8526,-26],[8536,15],[8574,10],[8582,-3],[8594,6],[8638,25],[8643,-26],[8658,3],[8682,-26],[8714,-37],[8728,-23],[8736,3],[8749,-2],[8761,-26],[8765,-15],[8778,-8],[8780,28],[8853,6],[8860,-34],[8874,-3],[8894,-18],[8910,-26],[8916,-10],[8954,-17],[9007,-17],[9012,10],[9029,-1],[9044,2],[9049,2],[9100,-15],[9113,-2],[9194,-9],[9208,6],[9209,7],[9221,4],[9232,-25],[9242,2],[9255,-23],[9288,-37],[9348,4],[9357,13],[9368,-18],[9382,-2],[9439,4],[9445,-18],[9450,6],[9451,1],[9453,3],[9476,-19],[9505,-7],[9556,16],[9570,-19],[9598,-2],[9608,11],[9619,-2],[9627,-26],[9684,-48],[9696,-7],[9719,5],[9738,-1],[9754,-7],[9790,-31],[9795,9],[9812,14],[9908,-3],[9919,2],[9924,25],[9967,54],[9970,-8],[9989,11],[10018,-47],[10029,-18],[10052,13],[10067,-9],[10072,-26],[10107,-18],[10116,-1],[10122,-15],[10167,25],[10175,22],[10188,4],[10217,3],[10240,-22],[10289,-1],[10295,9],[10306,-12],[10339,-4],[10340,-1],[10370,-15],[10389,9],[10439,10],[10480,19],[10489,57],[10491,-25],[10529,-23],[10576,-15],[10601,12],[10629,-37],[10725,6],[10773,-16],[10784,-1],[10807,-6],[10825,-26],[10846,-47],[10859,2],[10883,13],[10897,-1],[10902,-9],[10930,-48],[10964,-15],[11001,-1],[11013,35],[11025,-26],[11032,8],[11051,34],[11056,2],[11091,4],[11106,-43],[11107,-15],[11135,3],[11199,-9],[11202,-1],[11203,12],[11230,26],[11267,-3],[11282,-3],[11286,-22],[11289,28],[11294,4],[11308,-16],[11313,-3],[11335,-3],[11365,23],[11382,5],[11390,-16],[11411,14],[11438,-15],[11453,23],[11481,-1],[11510,-15],[11531,-4],[11533,-24],[11585,-7],[11586,5],[11611,-18],[11613,2],[11621,-3],[11649,-18],[11688,-2],[11698,25],[11702,-18],[11716,-3],[11725,-5],[11779,-9],[11794,5],[11829,-3],[11859,-2],[11870,1],[11919,-5],[11956,-1],[11963,-1],[11973,3],[11988,-5],[12005,1],[12028,-23],[12045,-37],[12081,-16],[12092,18],[12118,-26],[12147,-9],[12185,-38],[12214,-2],[12253,-15],[12292,3],[12298,-1],[12315,2],[12338,-1],[12356,2],[12357,18],[12387,2],[12408,12],[12417,-39],[12418,-24],[12425,1],[12426,-49],[12437,-6],[12467,-1],[12468,-37],[12493,-3],[12495,6],[12498,-2],[12517,-7],[12524,-18],[12528,-12],[12531,1],[12549,-1],[12566,-1],[12584,5],[12620,3],[12677,-7],[12683,1],[12714,-1],[12715,27],[12748,-26],[12769,-3],[12774,4],[12784,-4],[12824,-2],[12838,-26],[12843,3],[12877,-3],[12887,-10],[12898,34],[12974,5],[12989,-26],[13025,1],[13040,1],[13041,-1],[13053,-25],[13061,-12],[13074,3],[13093,4],[13095,-21],[13112,-43],[13132,-5],[13141,-43],[13142,6],[13161,2],[13197,-3],[13219,4],[13225,12],[13226,-15],[13250,-18],[13285,-3],[13288,-15],[13294,1],[13301,14],[13325,-1],[13332,-7],[13381,-10],[13407,7],[13471,22],[13511,-3],[13541,2],[13567,-21],[13568,-18],[13624,4],[13627,-8],[13632,-19],[13643,3],[13648,-12],[13657,-9],[13696,-32],[13704,7],[13717,57],[13762,2],[13775,-2],[13787,5],[13801,9],[13810,-15],[13819,-1],[13820,27],[13830,-9],[13831,-10],[13854,20],[13883,-2],[13906,-18],[13926,1],[13997,-5],[14020,-10],[14038,-33],[14047,-21],[14101,-2],[14107,1],[14126,-4],[14169,-15],[14176,-15],[14189,-15],[14202,-4],[14250,-1],[14270,-1],[14279,-16],[14303,-15],[14310,-8],[14352,-1],[14358,-48],[14359,-4],[14382,17],[14386,-16],[14427,7],[14460,-1],[14461,-49],[14467,-15],[14471,-2],[14505,1],[14510,27],[14515,-16],[14549,-2],[14601,-1],[14603,-2],[14609,3],[14619,-18],[14640,-16],[14653,-41],[14720,-16],[14729,-24],[14751,6],[14755,-3],[14764,1],[14775,-10],[14811,-23],[14815,-6],[14825,-2],[14830,-12],[14839,-37],[14888,-2],[14913,10],[14935,-7],[14970,5],[14975,6],[14979,-2],[15027,1],[15049,3],[15063,-3],[15096,-37],[15123,-15],[15144,-18],[15159,-2],[15177,5],[15178,-8],[15179,4],[15240,3],[15256,-4],[15316,37],[15329,20],[15357,4],[15375,-16],[15384,-15],[15388,-15],[15408,-3],[15419,-24],[15422,-9],[15424,-58],[15427,1],[15440,-6],[15461,20],[15462,3],[15473,-3],[15483,-7],[15486,-1],[15517,-29],[15534,-3],[15557,2],[15570,8],[15610,25],[15636,-28],[15643,3],[15685,8],[15719,28],[15724,-1],[15741,15],[15745,-15],[15746,-26],[15747,-2],[15762,6],[15770,-3],[15778,-16],[15790,1],[15808,3],[15825,-1],[15833,2],[15838,-4],[15857,-23],[15872,13],[15974,-1],[15976,-1],[16015,-1],[16017,-21],[16089,3],[16093,17],[16122,21],[16148,-1],[16177,-3],[16182,-15],[16200,-34],[16252,7],[16263,-15],[16325,-3],[16330,-2],[16343,5],[16358,-26],[16376,1],[16389,-9],[16394,-3],[16411,-2],[16417,1],[16429,-34],[16449,6],[16490,-9],[16525,16],[16527,1],[16541,-43],[16608,-12],[16640,-7],[16643,-2],[16659,-26],[16660,2],[16674,-9],[16678,37],[16688,-4],[16697,-6],[16701,-9],[16702,-1],[16706,10],[16712,-48],[16722,1],[16815,2],[16818,-13],[16823,-15],[16825,9],[16837,-3],[16846,-1],[16873,-1],[16888,-18],[16896,1],[16909,-16],[16915,-2],[16928,-18],[16964,-21],[16970,-28],[16994,-2],[17001,-26],[17004,-2],[17017,3],[17025,1],[17033,-28],[17048,-10],[17077,6],[17084,-25],[17093,8],[17122,-26],[17140,-23],[17173,6],[17227,-2],[17259,-26],[17273,-18],[17290,-26],[17309,-1],[17340,17],[17345,-37],[17390,-1],[17423,-15],[17435,10],[17510,-15],[17543,-37],[17553,-28],[17560,-2],[17567,-37],[17580,-4],[17595,1],[17598,-2],[17713,15],[17746,-15],[17762,-2],[17765,-1],[17783,-3],[17801,-18],[17814,-4],[17848,4],[17877,-1],[17881,-3],[17883,-2],[17901,-15],[17907,-26],[17925,-43],[17965,1],[17978,4],[18008,-17],[18040,-16],[18061,1],[18082,2],[18084,9],[18098,1],[18116,-43],[18136,-15],[18144,-16],[18154,57],[18180,-2],[18191,-19],[18220,4],[18234,-2],[18249,6],[18251,4],[18261,-9],[18294,-3],[18327,-12],[18368,16],[18369,-15],[18382,-4],[18398,-3],[18404,-9],[18548,6],[18550,-3],[18559,-1],[18584,-9],[18637,35],[18651,50],[18698,3],[18703,-2],[18747,-23],[18764,3],[18773,-10],[18797,-1],[18809,5],[18821,-23],[18855,-1],[18876,-18],[18882,3],[18888,-2],[18911,3],[18923,-16],[18936,-43],[19044,-3],[19058,-9],[19061,-16],[19080,-24],[19089,-8],[19149,-24],[19164,-1],[19167,-26],[19188,-1],[19192,-47],[19215,2],[19250,-26],[19286,-26],[19290,-3],[19351,-49],[19377,-3],[19417,5],[19422,14],[19460,2],[19465,-1],[19490,2],[19516,-3],[19525,-44],[19570,-4],[19577,4],[19583,-2],[19591,38],[19597,-3],[19645,1],[19654,-5],[19700,-15],[19701,-15],[19712,-27],[19737,-15],[19743,19],[19750,23],[19801,-3],[19814,1],[19819,2],[19842,-1],[19861,6],[19869,4],[19912,3],[19935,11],[19952,-2],[19980,-3],[19998,-10],[20050,-1],[20055,-2],[20076,1],[20087,4],[20091,2],[20097,6],[20104,-15],[20131,2],[20166,-6],[20167,5],[20206,3],[20219,-16],[20222,-8],[20266,1],[20281,23],[20322,-1],[20332,54],[20357,-3],[20376,3],[20383,-27],[20394,-2],[20396,6],[20397,-1],[20419,-1],[20423,3],[20455,15],[20483,1],[20495,1],[20502,-16],[20524,7],[20530,5],[20562,-37],[20572,-3],[20576,1],[20591,-4],[20606,8],[20630,2],[20646,4],[20657,-18],[20669,-3],[20675,-4],[20718,-15],[20728,-9],[20739,-15],[20752,1],[20779,-12],[20792,-49],[20800,-2],[20829,-17],[20892,28],[20916,-3],[20917,-47],[20921,6],[20955,-15],[20961,9],[21004,-16],[21044,3],[21129,-15],[21139,-5],[21148,-26],[21163,-37],[21170,-16],[21173,-4],[21182,8],[21190,-4],[21225,-5],[21231,-25],[21268,6],[21281,-15],[21297,-3],[21306,-15],[21308,1],[21317,-48],[21320,-18],[21326,5],[21368,-6],[21393,-25],[21400,7],[21405,-2],[21409,-7],[21426,5],[21435,3],[21464,-37],[21466,-21],[21471,-2],[21488,1],[21536,-3],[21557,-4],[21580,-1],[21610,-15],[21622,-15],[21634,-16],[21659,-4],[21664,-18],[21677,-3],[21700,-2],[21709,3],[21754,-4],[21768,2],[21783,-14],[21786,-37],[21828,-7],[21834,4],[21837,1],[21842,3],[21864,4],[21872,-4],[21878,-3],[21921,-9],[21927,-3],[21934,-13],[21952,-15],[21953,-15],[21962,-23],[21968,-16],[21988,-6],[21989,-3],[22008,1],[22038,-4],[22106,-1],[22195,4],[22225,-12],[22279,-15],[22281,1],[22288,18],[22289,-22],[22296,-34],[22310,-15],[22323,-16],[22333,-7],[22346,-9],[22359,-2],[22364,7],[22403,-1],[22404,15],[22434,7],[22441,-8],[22459,-4],[22494,-28],[22504,-15],[22508,-9],[22509,-1],[22524,-37],[22526,-15],[22580,-23],[22583,-1],[22584,-2],[22642,-15],[22684,3],[22688,4],[22691,-6],[22723,-11],[22728,-47],[22730,12],[22747,6],[22755,-24],[22757,-43],[22794,-1],[22827,9],[22839,-3],[22841,-43],[22847,-3],[22852,4],[22858,3],[22878,-3],[22885,24],[22900,-16],[22901,-1],[22970,8],[22980,-47],[22997,-18],[23063,-21],[23081,-20],[23087,3],[23099,-1],[23131,18],[23159,-21],[23163,10],[23171,-5],[23191,-2],[23197,-31],[23207,5],[23293,1],[23317,9],[23324,1],[23330,-15],[23368,-16],[23411,1],[23467,57],[23497,5],[23521,-2],[23553,1],[23555,-1],[23600,-1],[23622,-17],[23624,1],[23626,6],[23632,-15],[23659,6],[23708,-9],[23755,-1],[23760,3],[23776,-2],[23786,-2],[23789,2],[23792,-7],[23805,-47],[23810,-1],[23826,1],[23833,-1],[23868,13],[23885,4],[23891,-2],[23893,6],[23900,-26],[23939,-10],[23940,-4],[23976,-23],[24001,-26],[24003,-6],[24033,2],[24035,-25],[24036,-6],[24038,-16],[24039,8],[24052,-2],[24059,-17],[24089,3],[24102,23],[24120,-1],[24141,-3],[24150,-3],[24174,5],[24187,-1],[24213,3],[24219,5],[24282,20],[24291,-26],[24310,15],[24324,-18],[24327,-8],[24328,7],[24344,-34],[24364,-16],[24406,38],[24407,5],[24421,-2],[24484,-4],[24490,-2],[24514,-8],[24517,1],[24549,-47],[24557,5],[24578,-3],[24587,-37],[24602,-1],[24618,-47],[24624,-1],[24625,-2],[24626,-3],[24674,-15],[24682,-41],[24693,-26],[24704,-3],[24740,-15],[24756,-2],[24765,-8],[24785,3],[24809,12],[24816,-1],[24823,-23],[24828,3],[24834,-15],[24841,-37],[24852,-19],[24883,-2],[24888,-41],[24944,10],[24956,4],[25004,-19],[25068,8],[25083,3],[25126,5],[25127,1],[25128,-24],[25159,-1],[25162,-7],[25206,-26],[25219,-1],[25232,1],[25243,-2],[25254,2],[25288,-9],[25313,12],[25323,2],[25372,-2],[25389,8],[25395,21],[25399,-41],[25420,-3],[25430,5],[25445,-12],[25477,9],[25496,5],[25497,-35],[25503,-3],[25512,-3],[25536,-1],[25569,3],[25607,-9],[25615,7],[25623,-23],[25652,-15],[25683,-10],[25712,-2],[25729,1],[25741,13],[25769,2],[25787,-15],[25806,-37],[25811,3],[25819,13],[25862,-18],[25902,37],[25919,-15],[25928,2],[25958,-12],[26025,-4],[26038,23],[26040,-4],[26056,-28],[26064,-1],[26074,-1],[26079,-1],[26103,-3],[26134,-3],[26141,-23],[26161,-1],[26162,-8],[26193,-3],[26205,-12],[26213,-1],[26233,6],[26281,-12],[26286,1],[26341,-3],[26354,-15],[26412,6],[26414,-12],[26428,-2],[26471,-16],[26507,2],[26531,-12],[26562,6],[26565,-1],[26597,-15],[26640,-15],[26719,-15],[26759,6],[26762,-16],[26780,-2],[26785,8],[26790,18],[26815,-15],[26824,43],[26831,-12],[26851,8],[26861,23],[26868,2],[26872,-18],[26900,12],[26908,-12],[26979,-26],[27040,-16],[27056,1],[27082,28],[27100,1],[27106,-2],[27111,57],[27112,2],[27117,12],[27148,4],[27155,2],[27160,-1],[27180,2],[27183,-1],[27190,10],[27227,-36],[27232,-37],[27247,1],[27259,-7],[27311,-8],[27350,-24],[27362,-12],[27369,-43],[27400,-18],[27421,-7],[27422,-2],[27450,-15],[27453,-2],[27456,-18],[27467,-8],[27497,57],[27514,-8],[27550,-15],[27584,39],[27614,-19],[27629,8],[27630,1],[27637,-8],[27676,-3],[27679,19],[27716,6],[27736,-15],[27753,-1],[27762,-4],[27780,-1],[27784,-12],[27789,-16],[27837,-5],[27840,-7],[27845,3],[27872,-41],[27876,1],[27890,1],[27893,1],[27910,-4],[27928,3],[27930,-1],[27954,-2],[27967,-7],[28033,4],[28040,23],[28084,-12],[28091,-2],[28109,-6],[28134,1],[28209,5],[28286,5],[28333,-15],[28360,-43],[28365,-19],[28419,7],[28443,-2],[28483,-2],[28491,-41],[28502,6],[28514,-2],[28520,26],[28546,-15],[28556,-34],[28558,6],[28588,7],[28603,-1],[28633,8],[28652,-1],[28657,-1],[28658,-7],[28670,-15],[28684,-4],[28727,-2],[28736,-1],[28759,-9],[28806,-1],[28818,-43],[28839,3],[28849,6],[28930,10],[28946,-29],[28969,-3],[29024,-2],[29031,1],[29046,-15],[29053,-43],[29087,-20],[29112,14],[29137,-26],[29157,-3],[29159,4],[29186,3],[29211,3],[29242,-4],[29259,-23],[29263,11],[29274,-43],[29300,-34],[29437,-53],[29456,1],[29464,-12],[29489,-12],[29492,-2],[29527,-15],[29566,13],[29575,-34],[29589,8],[29628,-6],[29634,7],[29645,-26],[29652,-4],[29686,3],[29700,2],[29709,-7],[29722,17],[29735,-2],[29746,-15],[29798,-7],[29805,-1],[29806,5],[29827,-4],[29841,1],[29850,3],[29884,-34],[29893,-3],[29896,-12],[29924,-5],[29925,6],[29935,1],[29955,-17],[29996,-27],[30002,-26],[30005,1],[30044,3],[30055,-30],[30108,4],[30125,-2],[30148,-1],[30168,-1],[30176,-6],[30185,8],[30186,1],[30210,5],[30237,-37],[30253,1],[30283,9],[30288,5],[30292,-2],[30301,-12],[30331,-15],[30332,-12],[30336,14],[30353,-32],[30355,-18],[30378,-1],[30393,-26],[30458,-6],[30460,-1],[30489,1],[30498,3],[30532,-1],[30533,1],[30541,-6],[30591,1],[30606,-3],[30608,-37],[30639,4],[30647,6],[30664,8],[30683,-13],[30688,-15],[30699,-23],[30752,-23],[30756,9],[30777,4],[30800,-2],[30835,-3],[30861,-21],[30900,-3],[30912,5],[30928,1],[30953,-18],[30973,-2],[30993,3],[30998,-48],[31020,6],[31029,4],[31053,-2],[31067,-18],[31086,-16],[31087,7],[31092,3],[31116,-1],[31132,-1],[31134,-2],[31163,-1],[31170,-14],[31181,9],[31191,-15],[31204,-21],[31356,-23],[31373,1],[31397,6],[31404,-47],[31426,14],[31440,1],[31476,-2],[31481,-2],[31486,-45],[31502,-47],[31504,57],[31509,-47],[31550,-15],[31557,-3],[31609,-18],[31635,-18],[31779,-15],[31816,-3],[31839,-37],[31842,-15],[31896,-23],[31910,-12],[31925,-12],[31963,-16],[31967,1],[31996,-15],[32005,-15],[32089,-12],[32107,5],[32126,6],[32134,8],[32138,-2],[32162,-1],[32171,-17],[32182,1],[32188,-16],[32191,8],[32200,-43],[32206,-1],[32207,-4],[32305,11],[32317,-16],[32322,-6],[32343,7],[32345,4],[32346,1],[32355,-4],[32407,-16],[32414,-1],[32434,1],[32448,-3],[32489,-23],[32500,-37],[32501,23],[32588,2],[32604,-1],[32640,4],[32652,-16],[32655,-12],[32679,-16],[32681,18],[32686,-15],[32749,-15],[32776,9],[32801,-3],[32823,1],[32825,-1],[32840,12],[32873,-16],[32903,14],[32907,20],[32975,35],[32976,-3],[32987,-9],[32994,-3],[33024,1],[33045,-10],[33061,8],[33074,-2],[33111,-47],[33117,1],[33128,-16],[33166,20],[33187,12],[33189,-1],[33191,-9],[33216,-15],[33222,-47],[33244,28],[33255,-7],[33343,1],[33370,2],[33377,-15],[33380,-1],[33382,-16],[33384,-16],[33407,-3],[33412,-2],[33416,9],[33459,1],[33512,18],[33525,-1],[33567,8],[33572,3],[33580,-26],[33598,-4],[33623,-5],[33666,2],[33697,14],[33719,-6],[33728,-15],[33777,2],[33815,6],[33904,-1],[33906,-1],[33928,2],[33943,8],[33947,8],[33955,-3],[33982,-2],[33985,15],[34003,-2],[34037,-37],[34044,1],[34086,1],[34117,4],[34146,-41],[34150,2],[34196,-16],[34206,6],[34208,-17],[34265,4],[34266,-3],[34272,-2],[34294,-1],[34300,3],[34310,6],[34349,4],[34384,-49],[34402,6],[34411,-1],[34427,1],[34434,3],[34470,-26],[34476,3],[34526,5],[34534,-15],[34538,-18],[34580,-35],[34589,-1],[34596,-15],[34623,-12],[34640,-28],[34652,-15],[34684,2],[34730,-2],[34751,-3],[34756,5],[34786,-15],[34787,-37],[34801,-4],[34814,-12],[34819,1],[34823,3],[34841,1],[34853,4],[34857,-7],[34863,4],[34883,-15],[34887,-43],[34972,14],[35022,-8],[35040,6],[35069,13],[35148,-34],[35185,-1],[35189,-1],[35225,14],[35231,-19],[35285,-16],[35302,-37],[35337,-22],[35338,1],[35374,-15],[35391,-1],[35394,-26],[35431,-1],[35465,-3],[35488,22],[35490,1],[35502,-22],[35593,-15],[35621,8],[35622,-3],[35656,-3],[35675,-3],[35678,-26],[35699,-28],[35737,-1],[35743,-16],[35791,-23],[35830,-1],[35849,-3],[35863,-3],[35909,39],[35922,-15],[35940,-17],[35942,1],[36017,-12],[36029,2],[36037,3],[36051,6],[36055,-10],[36158,-10],[36178,-26],[36236,-29],[36248,-2],[36259,-1],[36262,-21],[36273,13],[36317,-43],[36373,3],[36389,-49],[36413,-9],[36437,-5],[36440,-4],[36452,-24],[36460,27],[36482,14],[36494,1],[36527,-7],[36534,-6],[36548,-2],[36559,-26],[36572,-37],[36578,-1],[36593,-41],[36601,2],[36602,-3],[36649,-7],[36667,1],[36678,-1],[36788,-9],[36812,-15],[36816,-2],[36819,-3],[36850,-15],[36853,-34],[36856,-2],[36861,-43],[36888,4],[36908,-15],[36923,-23],[36960,7],[37007,-4],[37043,-3],[37118,1],[37145,-28],[37147,-16],[37173,-1],[37175,-2],[37190,3],[37226,1],[37235,8],[37244,-15],[37270,-3],[37388,-3],[37394,-16],[37403,13],[37417,-3],[37442,1],[37452,-3],[37494,-7],[37554,3],[37558,-43],[37582,-10],[37595,23],[37608,-18],[37681,-43],[37693,-7],[37695,-23],[37755,2],[37782,-18],[37845,1],[37852,-26],[37862,3],[37865,-2],[37897,-18],[37916,13],[37932,-32],[37936,-12],[37945,-1],[37952,1],[37957,1],[37970,4],[37972,-15],[38003,4],[38054,-26],[38071,-12],[38087,-22],[38091,1],[38093,12],[38130,-1],[38177,-34],[38184,19],[38185,-15],[38190,5],[38217,-35],[38299,-15],[38317,-15],[38344,-26],[38404,-3],[38406,1],[38413,-17],[38416,4],[38449,-26],[38455,-37],[38470,-23],[38484,-2],[38494,-7],[38521,-18],[38535,-18],[38563,-15],[38572,-4],[38606,-25],[38628,-9],[38652,-4],[38653,-2],[38693,1],[38706,-3],[38711,-43],[38716,-34],[38726,-25],[38731,-15],[38743,-4],[38746,-37],[38761,-7],[38801,1],[38810,5],[38828,-17],[38840,-48],[38872,-48],[38900,-43],[38914,3],[38922,-37],[38967,-16],[38980,2],[39006,-5],[39017,-37],[39043,-1],[39049,4],[39053,-43],[39096,-9],[39102,5],[39163,-15],[39170,-37],[39187,-2],[39212,3],[39265,-1],[39294,-8],[39306,-1],[39356,16],[39363,1],[39376,-37],[39384,-15],[39435,5],[39443,-18],[39467,-5],[39481,-3],[39500,8],[39502,-1],[39506,-5],[39532,2],[39538,-1],[39569,3],[39597,-43],[39613,-9],[39615,1],[39664,-3],[39670,-9],[39682,-2],[39709,4],[39757,17],[39783,1],[39809,-8],[39810,-1],[39821,-18],[39836,16],[39840,-15],[39850,-16],[39860,3],[39875,-1],[39919,3],[39969,-1],[39978,-3],[39997,7],[40002,-2],[40006,-17],[40057,-16],[40067,-16],[40071,6],[40080,-21],[40081,3],[40105,8],[40110,-28],[40126,-9],[40130,8],[40134,3],[40189,-19],[40195,-2],[40234,-18],[40247,-16],[40253,-16],[40259,-47],[40270,11],[40279,-5],[40316,-2],[40338,-15],[40354,-2],[40406,-1],[40409,13],[40426,14],[40474,-15],[40480,-18],[40542,1],[40634,-2],[40638,-5],[40652,6],[40691,-43],[40697,3],[40704,-1],[40725,-14],[40748,-12],[40758,7],[40771,-26],[40797,-18],[40809,8],[40859,26],[40873,14],[40876,16],[40877,-3],[40899,-36],[40957,1],[40981,-15],[40987,1],[40996,-18],[41003,5],[41049,5],[41065,-28],[41074,-2],[41111,8],[41124,1],[41153,-9],[41202,-12],[41227,2],[41254,-2],[41336,-1],[41338,43],[41339,-4],[41354,-15],[41375,2],[41392,-45],[41407,-18],[41474,-16],[41554,-6],[41578,3],[41658,2],[41676,-2],[41742,-2],[41754,-24],[41872,-15],[41877,-23],[41901,-18],[41906,5],[41920,-1],[41925,-12],[41934,-43],[41957,-2],[41975,-1],[42039,-18],[42048,1],[42067,6],[42070,-16],[42113,5],[42123,-3],[42135,-2],[42152,-15],[42158,-4],[42159,-30],[42191,-47],[42204,-10],[42210,12],[42220,1],[42252,4],[42271,-2],[42289,-1],[42401,-2],[42417,-5],[42439,7],[42507,3],[42510,-2],[42520,1],[42530,-15],[42586,1],[42624,-4],[42649,-23],[42685,-9],[42711,-8],[42737,6],[42814,46],[42816,16],[42835,-4],[42854,1],[42862,5],[42872,-26],[42875,6],[42878,9],[42887,-16],[42928,-9],[43010,-2],[43018,-1],[43084,-4],[43094,-3],[43116,5],[43117,-3],[43126,1],[43132,1],[43137,-16],[43177,-19],[43205,-3],[43212,-43],[43254,8],[43281,4],[43320,-43],[43326,3],[43363,-5],[43399,-2],[43427,8],[43506,1],[43534,-37],[43593,-1],[43596,-43],[43599,1],[43602,-2],[43614,-43],[43620,-2],[43641,-26],[43674,-3],[43680,-49],[43683,6],[43686,-1],[43693,-15],[43694,-31],[43728,10],[43730,-18],[43783,-1],[43796,-2],[43810,-2],[43865,-9],[43929,-24],[43936,-23],[43967,-18],[43969,-47],[43978,-2],[43986,3],[44038,-2],[44061,52],[44068,8],[44069,1],[44072,-26],[44076,2],[44091,8],[44092,-2],[44126,1],[44153,-2],[44160,-3],[44166,4],[44190,5],[44217,25],[44230,10],[44244,2],[44249,-15],[44262,-3],[44283,4],[44295,-3],[44310,3],[44323,-16],[44333,8],[44409,-34],[44443,-26],[44448,-15],[44468,-37],[44481,4],[44483,-3],[44495,-15],[44513,7],[44525,-41],[44529,1],[44539,3],[44687,-12],[44710,-15],[44727,-7],[44751,-43],[44786,6],[44829,-2],[44852,-1],[44854,5],[44864,-37],[44865,3],[44890,-41],[44933,-3],[44958,-5],[44960,-12],[44990,-3],[45010,-1],[45019,-18],[45029,-26],[45034,4],[45064,-15],[45085,-18],[45099,-2],[45106,-48],[45137,4],[45159,-1],[45181,2],[45217,57],[45239,-6],[45267,8],[45285,-2],[45316,-15],[45341,2],[45366,7],[45428,-1],[45476,-1],[45486,-16],[45501,-12],[45508,-2],[45539,6],[45570,-49],[45597,-15],[45598,5],[45619,-16],[45670,-10],[45671,-34],[45700,-15],[45709,-17],[45732,3],[45754,3],[45757,5],[45779,9],[45785,17],[45801,-15],[45802,16],[45829,-63],[45845,7],[45881,-2],[45909,-3],[45931,-12],[45966,-1],[46006,-15],[46010,4],[46048,-2],[46061,-3],[46064,-16],[46066,-37],[46084,-1],[46091,6],[46097,-6],[46106,2],[46184,-8],[46194,4],[46202,1],[46235,-19],[46265,-7],[46274,-16],[46308,-2],[46394,-15],[46451,35],[46460,2],[46464,-2],[46470,-3],[46474,8],[46478,-41],[46509,3],[46516,-3],[46547,-1],[46548,-3],[46557,-28],[46565,6],[46574,-7],[46585,-5],[46653,-41],[46674,5],[46676,-37],[46681,-19],[46694,-33],[46701,-21],[46742,-2],[46745,-18],[46752,-37],[46784,15],[46853,-23],[46901,-1],[46911,-4],[46947,6],[46969,2],[46988,-1],[47003,-37],[47004,4],[47033,-5],[47051,-15],[47110,8],[47118,-5],[47120,-15],[47139,4],[47195,-10],[47200,-5],[47226,2],[47246,7],[47269,-2],[47282,-13],[47284,4],[47332,1],[47382,-1],[47390,-7],[47393,-2],[47437,-18],[47438,-12],[47448,1],[47463,17],[47480,3],[47489,-2],[47514,-2],[47529,-1],[47572,-18],[47586,-15],[47602,-15],[47616,-18],[47650,10],[47659,-3],[47673,1],[47688,2],[47699,-15],[47719,-49],[47760,-41],[47765,-15],[47780,1],[47794,-8],[47810,-2],[47870,4],[47913,8],[47959,-3],[47974,-1],[48017,-2],[48032,3],[48038,-23],[48053,-3],[48076,-1],[48081,-49],[48088,-16],[48095,-7],[48096,-2],[48112,6],[48128,-2],[48167,2],[48192,-5],[48197,20],[48205,-24],[48207,-5],[48219,-1],[48222,-18],[48248,-15],[48280,-2],[48311,22],[48313,-1],[48322,-43],[48327,-15],[48331,3],[48366,1],[48368,1],[48465,14],[48466,-16],[48483,-8],[48518,5],[48524,-15],[48529,2],[48547,10],[48556,-24],[48633,5],[48641,-26],[48653,27],[48693,5],[48707,-22],[48732,1],[48779,7],[48785,-24],[48788,14],[48812,5],[48830,-1],[48880,12],[48884,3],[48886,3],[48917,-1],[48973,-43],[49001,-6],[49016,-26],[49036,-12],[49097,-16],[49125,-1],[49144,-38],[49154,6],[49173,-1],[49176,-21],[49188,-16],[49202,3],[49248,35],[49261,-3],[49280,-7],[49284,27],[49286,4],[49289,-3],[49319,-11],[49328,17],[49333,-15],[49348,-16],[49356,-1],[49362,-41],[49368,-2],[49376,-4],[49434,2],[49436,-2],[49479,2],[49489,-3],[49500,-2],[49516,-22],[49517,-7],[49550,-16],[49556,-3],[49591,-19],[49621,-2],[49649,-2],[49667,-1],[49682,4],[49758,-37],[49809,6],[49810,-23],[49811,-43],[49820,-43],[49846,-2],[49848,-43],[49870,-3],[49873,-5],[49874,-1],[49887,-19],[49937,-2],[49939,-26],[49972,7],[49993,-1],[50013,1],[50024,-3],[50033,23],[50078,-1],[50089,-8],[50094,-52],[50102,1],[50106,-3],[50119,-15],[50128,24],[50130,-16],[50171,1],[50208,12],[50218,1],[50233,4],[50244,2],[50266,16],[50282,17],[50301,-11],[50337,26],[50340,-7],[50347,8],[50353,-43],[50373,-1],[50406,-1],[50424,-3],[50449,-15],[50450,-9],[50509,-3],[50510,-47],[50513,6],[50524,-2],[50527,-3],[50535,1],[50561,-15],[50566,5],[50611,-26],[50624,5],[50655,-88],[50689,57],[50691,-9],[50693,-1],[50713,-3],[50732,6],[50759,-1],[50762,33],[50764,-2],[50788,-45],[50797,16],[50828,-1],[50837,-3],[50851,-1],[50860,-27],[50866,-3],[50872,-2],[50886,-1],[50893,-16],[50896,-12],[50900,-7],[50953,-4],[50977,6],[50997,30],[51039,-15],[51041,-9],[51051,2],[51070,-12],[51107,-14],[51171,-2],[51203,57],[51244,-15],[51290,6],[51296,1],[51306,-15],[51348,-37],[51367,-5],[51415,-2],[51442,5],[51452,-1],[51468,-37],[51486,-6],[51495,-16],[51505,-37],[51531,-24],[51539,6],[51551,-15],[51569,-16],[51575,-2],[51600,13],[51619,2],[51629,-23],[51648,-10],[51658,-1],[51690,-2],[51713,57],[51719,-2],[51722,-18],[51738,4],[51788,-2],[51792,-34],[51865,-26],[51874,-26],[51899,-15],[51908,-2],[51920,-1],[51922,-25],[51941,3],[51959,10],[51976,1],[52059,-15],[52084,-3],[52085,-15],[52095,-15],[52104,16],[52108,-2],[52113,-28],[52123,4],[52203,-43],[52219,-23],[52243,-24],[52255,5],[52272,-3],[52319,17],[52355,-2],[52369,27],[52378,-15],[52388,-15],[52420,12],[52442,4],[52469,-2],[52471,4],[52528,-8],[52535,-23],[52566,4],[52589,-3],[52621,-18],[52628,30],[52662,-14],[52668,-27],[52754,3],[52756,-8],[52757,-49],[52768,-47],[52770,23],[52781,-43],[52786,-15],[52810,-25],[52812,-18],[52862,-6],[52904,-12],[52926,-1],[52946,2],[52953,5],[52961,2],[52966,-2],[52968,-16],[52995,4],[53003,13],[53006,-3],[53020,10],[53039,2],[53073,-8],[53122,1],[53151,-15],[53153,-6],[53174,-1],[53204,-23],[53215,-23],[53230,-5],[53239,-49],[53278,-35],[53288,-6],[53301,-28],[53341,35],[53349,3],[53358,-3],[53381,14],[53408,-16],[53440,-25],[53477,-15],[53495,4],[53525,7],[53526,-2],[53528,-7],[53533,-15],[53540,-18],[53573,-16],[53585,-2],[53588,-37],[53607,-11],[53619,1],[53663,2],[53674,-9],[53684,-18],[53702,29],[53715,28],[53720,-1],[53726,-43],[53751,6],[53768,-23],[53799,5],[53810,1],[53827,-23],[53856,-34],[53872,6],[53876,-2],[53891,8],[53898,7],[53909,-48],[53950,14],[53996,-3],[54022,-41],[54027,-28],[54031,-53],[54051,1],[54054,-24],[54059,-3],[54077,-10],[54081,-19],[54084,-3],[54095,-15],[54101,-12],[54109,-16],[54141,-15],[54154,3],[54166,-7],[54168,16],[54197,-26],[54203,-2],[54228,-15],[54245,2],[54255,-19],[54261,-15],[54263,-52],[54268,-1],[54273,-12],[54274,-3],[54317,-37],[54354,-1],[54387,-26],[54392,5],[54435,-10],[54454,8],[54476,-23],[54520,18],[54525,8],[54544,-15],[54572,-41],[54585,-17],[54610,2],[54747,-16],[54772,-3],[54782,7],[54794,-3],[54911,-15],[54923,2],[54960,-48],[54995,-15],[55014,-26],[55017,-3],[55025,-47],[55047,26],[55098,19],[55103,-3],[55131,16],[55136,-7],[55138,-3],[55144,-49],[55154,-3],[55189,-2],[55199,8],[55201,-15],[55213,-2],[55217,4],[55219,-21],[55233,16],[55251,3],[55252,-24],[55307,-3],[55314,-26],[55333,13],[55340,1],[55391,-37],[55395,-1],[55433,8],[55463,-18],[55496,-4],[55503,-2],[55512,-1],[55579,9],[55584,13],[55592,-8],[55599,1],[55629,4],[55650,-3],[55663,-2],[55681,-3],[55684,-48],[55704,26],[55724,-43],[55729,-3],[55744,-11],[55767,-13],[55779,-1],[55782,2],[55808,-5],[55823,-2],[55854,-1],[55863,-9],[55894,-2],[55898,-26],[55907,4],[55938,3],[55943,2],[55950,-2],[55961,-13],[56003,1],[56010,1],[56022,-3],[56041,1],[56119,-15],[56125,-15],[56136,14],[56161,-10],[56181,-6],[56183,-1],[56270,-34],[56274,7],[56310,-37],[56338,6],[56342,8],[56387,-4],[56391,-18],[56398,-3],[56413,2],[56414,28],[56428,-4],[56430,2],[56457,-15],[56490,-18],[56522,16],[56523,-15],[56528,-24],[56536,-1],[56547,-47],[56563,-19],[56568,-1],[56589,-7],[56612,-18],[56660,-3],[56674,2],[56683,-18],[56688,5],[56737,-15],[56749,-1],[56833,-26],[56835,-53],[56858,-15],[56875,-2],[56880,1],[56931,-1],[56933,-20],[56957,-12],[56972,-1],[57008,-26],[57017,-7],[57063,-14],[57072,-4],[57126,-12],[57168,-16],[57183,6],[57255,-1],[57296,10],[57329,14],[57336,-2],[57337,-3],[57358,-26],[57379,-24],[57387,-16],[57408,-1],[57414,-15],[57436,-1],[57441,-11],[57463,4],[57472,35],[57473,-10],[57496,-23],[57511,-3],[57521,-37],[57527,-1],[57531,-12],[57532,14],[57555,-12],[57672,-15],[57680,-2],[57682,-1],[57690,-3],[57711,-2],[57732,-34],[57738,-15],[57746,-2],[57755,-2],[57758,1],[57761,17],[57777,10],[57782,-14],[57796,17],[57831,-3],[57878,-2],[57881,24],[57892,1],[57929,-8],[57959,-3],[57991,-2],[58028,-47],[58034,-18],[58037,-26],[58050,7],[58053,-15],[58084,-1],[58093,-1],[58105,20],[58128,-3],[58139,8],[58140,-2],[58142,-5],[58149,-12],[58151,-53],[58154,-36],[58171,-15],[58193,-34],[58200,1],[58214,-2],[58219,-16],[58226,-12],[58246,-1],[58310,-35],[58317,-4],[58330,-4],[58342,-1],[58343,-1],[58350,-16],[58351,-7],[58379,-1],[58384,-28],[58387,-1],[58395,-3],[58398,1],[58411,7],[58425,-8],[58444,-21],[58460,-23],[58473,-7],[58517,-7],[58524,-15],[58629,-1],[58636,2],[58664,-7],[58671,2],[58692,-1],[58717,-2],[58743,-15],[58753,-23],[58786,-15],[58790,3],[58797,-2],[58806,-15],[58820,-15],[58852,2],[58874,-47],[58891,22],[58913,-2],[58941,-12],[58949,6],[58956,-47],[58958,-16],[58963,-8],[58991,-4],[59007,-48],[59020,-37],[59023,6],[59025,-3],[59056,10],[59060,-16],[59066,-23],[59098,-1],[59116,-3],[59126,8],[59138,-2],[59148,3],[59149,-15],[59199,-18],[59224,3],[59234,-49],[59241,5],[59242,-23],[59270,-2],[59278,-49],[59288,-1],[59319,-23],[59328,35],[59349,-1],[59367,-2],[59375,-18],[59385,-2],[59410,-16],[59512,-9],[59529,14],[59547,-25],[59562,-43],[59564,-44],[59573,-16],[59582,-4],[59616,4],[59626,-9],[59651,-2],[59670,1],[59672,7],[59677,7],[59743,1],[59747,-17],[59754,-1],[59764,1],[59782,14],[59794,6],[59795,-15],[59805,20],[59905,6],[59926,7],[59962,1],[59976,-4],[60011,-8],[60079,1],[60117,-4],[60129,-23],[60150,-30],[60162,2],[60164,-10],[60175,1],[60232,1],[60248,13],[60274,-18],[60307,-3],[60354,3],[60370,-2],[60378,-5],[60411,4],[60444,1],[60453,-47],[60495,-26],[60499,-1],[60508,23],[60562,3],[60563,1],[60569,2],[60593,4],[60614,-1],[60637,-7],[60652,57],[60664,57],[60690,-38],[60725,3],[60728,-1],[60743,8],[60747,3],[60766,-5],[60769,-3],[60786,-10],[60802,-2],[60806,-15],[60825,16],[60829,7],[60869,-3],[60876,-16],[60881,-9],[60900,-1],[60902,-1],[60903,-16],[60934,3],[60984,-4],[60999,-5],[61002,-12],[61017,-21],[61047,18],[61086,10],[61117,-18],[61141,7],[61159,1],[61210,5],[61255,-25],[61260,18],[61287,-7],[61323,7],[61348,1],[61352,-34],[61369,3],[61375,2],[61394,-1],[61427,-3],[61436,-2],[61470,-15],[61480,-15],[61484,-16],[61498,-1],[61505,-9],[61514,-4],[61520,-6],[61521,13],[61566,-3],[61573,-17],[61587,35],[61593,-10],[61618,-7],[61629,-1],[61647,-16],[61671,6],[61697,16],[61708,1],[61727,-15],[61740,-1],[61762,-15],[61766,-3],[61769,-16],[61785,-6],[61799,-1],[61822,-16],[61825,-15],[61829,5],[61869,3],[61907,-19],[61912,-3],[61926,7],[61951,-1],[61996,-32],[62025,-34],[62032,-43],[62039,-10],[62081,-1],[62101,-2],[62121,-15],[62126,-15],[62159,-1],[62214,-15],[62228,-2],[62250,30],[62277,7],[62286,-1],[62327,-16],[62379,15],[62387,-34],[62394,2],[62419,8],[62456,28],[62486,10],[62498,-25],[62500,-9],[62508,2],[62515,-2],[62537,-41],[62547,-24],[62568,-1],[62576,28],[62584,-12],[62619,3],[62631,-34],[62657,-26],[62669,-10],[62681,-28],[62728,2],[62731,6],[62736,41],[62749,13],[62752,-7],[62766,-28],[62795,-4],[62801,1],[62815,-16],[62900,-26],[62917,38],[62918,8],[62920,-3],[62923,4],[62971,-4],[62984,-1],[63027,6],[63086,-5],[63120,-3],[63131,3],[63132,11],[63155,12],[63209,-3],[63241,-1],[63269,5],[63315,-12],[63338,-18],[63343,-1],[63350,-12],[63374,-6],[63409,-2],[63419,-13],[63430,4],[63456,-15],[63512,-9],[63545,19],[63563,-49],[63565,-2],[63581,-24],[63587,-3],[63617,5],[63625,-5],[63651,2],[63678,-1],[63748,-16],[63762,-21],[63777,4],[63822,-16],[63867,-15],[63880,-17],[63974,-25],[63986,-16],[64050,-2],[64052,-48],[64068,1],[64106,-18],[64125,-18],[64127,-1],[64130,2],[64180,-11],[64187,-1],[64220,-2],[64248,-2],[64251,12],[64300,1],[64342,-7],[64351,-15],[64357,-21],[64358,-1],[64372,17],[64377,-3],[64378,1],[64387,3],[64418,-15],[64434,-15],[64478,-15],[64484,-3],[64497,1],[64498,9],[64516,-3],[64558,-18],[64590,-3],[64604,-12],[64614,6],[64619,-15],[64628,-8],[64647,-2],[64706,-16],[64723,27],[64767,7],[64798,1],[64859,17],[64906,-33],[64924,-15],[64936,-3],[64937,3],[64964,-34],[64976,2],[64981,-1],[64986,-20],[65042,-4],[65106,-26],[65138,-15],[65167,-2],[65202,-4],[65220,-23],[65257,18],[65263,-1],[65282,2],[65353,-2],[65362,5],[65379,-9],[65463,-43],[65472,54],[65490,-23],[65586,-8],[65591,-1],[65633,-15],[65659,2],[65665,7],[65702,3],[65736,14],[65742,-1],[65769,-16],[65774,-37],[65779,-3],[65798,3],[65851,1],[65855,1],[65869,-4],[65879,-15],[65885,-23],[65901,-18],[65912,-15],[65921,-3],[65940,-12],[65950,-15],[65951,-15],[65958,-3],[65999,-26],[66007,2],[66016,-15],[66026,-15],[66067,1],[66077,33],[66078,7],[66110,-19],[66128,-7],[66168,-9],[66185,3],[66209,-26],[66242,3],[66256,-1],[66259,-5],[66264,-43],[66367,-15],[66433,3],[66441,-1],[66461,-2],[66469,-1],[66479,-2],[66480,14],[66509,-12],[66518,-2],[66526,-26],[66540,-23],[66568,1],[66591,-51],[66595,-16],[66605,4],[66607,-26],[66612,-15],[66708,1],[66780,-19],[66797,4],[66802,-8],[66809,8],[66823,-3],[66875,-2],[66904,-18],[66921,19],[66989,-3],[67035,-5],[67099,-13],[67105,3],[67107,-5],[67117,-41],[67174,-18],[67176,1],[67185,-15],[67187,-7],[67224,-25],[67252,-1],[67399,-8],[67420,1],[67426,-1],[67431,-37],[67495,2],[67524,-1],[67604,-23],[67606,17],[67624,-47],[67644,-15],[67645,10],[67679,11],[67680,2],[67727,-1],[67798,-9],[67812,-16],[67865,-15],[67867,-3],[67888,-1],[67936,-48],[67989,-45],[68007,-2],[68009,-3],[68017,-41],[68021,8],[68026,-2],[68073,3],[68094,5],[68115,-3],[68116,-2],[68141,-1],[68174,-3],[68226,3],[68262,-16],[68276,-3],[68322,-12],[68334,-15],[68385,-5],[68498,1],[68553,8],[68554,-34],[68575,-24],[68631,-6],[68713,19],[68724,4],[68725,1],[68733,35],[68762,11],[68779,-7],[68786,-23],[68812,1],[68816,-1],[68848,-41],[68881,-16],[68885,-2],[68889,-15],[68891,-18],[68892,-1],[68909,2],[68916,-37],[68963,-12],[68986,-12],[69009,-1],[69068,-12],[69087,11],[69107,-15],[69138,38],[69150,-1],[69167,1],[69223,-3],[69226,3],[69236,-10],[69240,-12],[69255,-3],[69265,-1],[69301,18],[69307,18],[69308,-43],[69315,4],[69316,4],[69323,-24],[69325,-26],[69346,1],[69348,-16],[69362,-2],[69365,-16],[69382,3],[69440,-16],[69464,18],[69475,25],[69508,15],[69520,-43],[69521,8],[69547,-15],[69563,-34],[69581,37],[69582,-23],[69594,-2],[69652,28],[69728,-12],[69770,-37],[69785,-23],[69800,-15],[69825,-2],[69827,-49],[69933,-16],[69952,-2],[69956,-15],[69962,-15],[69997,-19],[70017,-24],[70056,-15],[70061,-16],[70076,6],[70098,-16],[70129,-1],[70131,-21],[70161,-10],[70162,4],[70163,-43],[70187,57],[70224,-1],[70233,-2],[70309,3],[70341,-1],[70362,-3],[70363,-4],[70373,2],[70395,-26],[70402,-8],[70406,-18],[70430,-15],[70443,-12],[70466,3],[70501,23],[70505,-1],[70520,6],[70528,-2],[70533,-23],[70589,-34],[70594,27],[70654,-47],[70656,-10],[70674,-26],[70728,-4],[70743,-15],[70755,-49],[70779,3],[70797,-23],[70818,-4],[70836,-3],[70837,-4],[70838,15],[70840,9],[70857,6],[70906,-7],[70931,-16],[70989,-23],[71003,-3],[71012,-28],[71023,-15],[71073,-15],[71099,-15],[71108,-26],[71140,-15],[71147,4],[71148,3],[71152,-26],[71186,1],[71199,-21],[71200,5],[71214,8],[71257,8],[71275,18],[71296,-3],[71306,28],[71317,4],[71318,-7],[71364,-4],[71376,-3],[71395,-37],[71409,-1],[71416,6],[71533,-12],[71576,-1],[71611,1],[71629,-7],[71643,-1],[71645,-3],[71681,-23],[71686,4],[71696,10],[71710,-15],[71713,-15],[71716,-18],[71775,-4],[71804,11],[71807,-1],[71825,-3],[71837,-3],[71838,-2],[71929,1],[71942,-26],[71952,-5],[71970,8],[72005,29],[72042,-1],[72076,-23],[72140,-15],[72146,7],[72248,-1],[72294,-12],[72308,-1],[72312,3],[72330,-16],[72360,-1],[72361,3],[72394,-16],[72395,2],[72409,-1],[72424,-26],[72438,-18],[72455,7],[72477,-34],[72488,-1],[72509,-3],[72540,-15],[72553,-2],[72590,-43],[72603,19],[72613,11],[72670,-14],[72679,-2],[72682,2],[72688,-3],[72714,-12],[72716,1],[72722,-1],[72727,-15],[72734,-16],[72764,1],[72766,-37],[72806,-3],[72980,1],[72987,-2],[72991,-1],[73023,-4],[73032,2],[73096,1],[73113,-15],[73145,-5],[73154,-15],[73206,-2],[73258,2],[73269,10],[73271,-2],[73290,4],[73294,-17],[73322,8],[73335,-3],[73340,8],[73349,-34],[73350,-26],[73363,-2],[73385,3],[73398,-15],[73411,-1],[73412,4],[73423,-26],[73432,7],[73449,7],[73464,-15],[73482,-25],[73506,2],[73521,-10],[73526,6],[73555,-52],[73617,-3],[73618,-34],[73672,-1],[73685,2],[73697,27],[73729,-28],[73748,-2],[73753,3],[73783,-4],[73793,-1],[73817,-3],[73828,-15],[73879,-2],[73899,12],[73921,-15],[73924,-1],[73938,-2],[73946,-2],[73973,-2],[74006,3],[74034,-48],[74051,-1],[74127,-16],[74171,-4],[74177,-48],[74205,-3],[74217,3],[74231,-3],[74253,-12],[74265,-4],[74267,1],[74271,4],[74273,38],[74277,-17],[74300,-36],[74348,-1],[74358,1],[74375,-1],[74391,40],[74410,1],[74432,-10],[74452,-7],[74466,3],[74519,-1],[74524,-1],[74543,3],[74559,9],[74577,8],[74614,21],[74635,17],[74643,-16],[74647,-15],[74654,-8],[74704,-3],[74730,-3],[74748,-16],[74820,-3],[74835,-37],[74856,57],[74862,3],[74871,-7],[74885,3],[74919,-4],[74923,-4],[74927,-4],[74930,-16],[74962,-18],[75029,-15],[75036,17],[75064,3],[75079,-16],[75083,-4],[75086,-6],[75088,-16],[75107,2],[75152,-5],[75168,1],[75172,-33],[75206,4],[75212,-1],[75238,-36],[75247,-25],[75314,14],[75321,5],[75333,-15],[75352,12],[75360,2],[75376,-3],[75416,1],[75445,-12],[75561,-10],[75585,-15],[75608,-34],[75647,-23],[75653,-2],[75663,-27],[75680,-15],[75717,-34],[75744,-16],[75773,1],[75862,1],[75863,-3],[75992,-26],[76005,-18],[76021,-15],[76041,4],[76044,-12],[76107,1],[76110,12],[76118,24],[76143,15],[76147,-2],[76148,-15],[76173,-26],[76210,3],[76237,-1],[76318,1],[76325,-1],[76360,23],[76376,-5],[76399,-47],[76404,1],[76427,28],[76451,-18],[76458,4],[76485,-3],[76540,27],[76547,-1],[76551,-3],[76559,-10],[76568,-21],[76572,-6],[76577,-1],[76585,2],[76595,-28],[76611,-4],[76615,-12],[76617,-2],[76695,-45],[76720,-21],[76721,3],[76723,17],[76779,-8],[76789,-1],[76850,-20],[76897,4],[76917,-4],[76929,-43],[76942,-1],[76973,-2],[76985,11],[76999,-8],[77004,-2],[77008,-9],[77025,-7],[77043,5],[77048,-1],[77055,-25],[77082,-9],[77084,-15],[77091,-32],[77136,-1],[77174,3],[77178,-3],[77208,-25],[77236,-3],[77253,-15],[77275,-26],[77284,-17],[77292,-23],[77319,-47],[77335,-12],[77356,-3],[77409,-4],[77425,-4],[77432,-2],[77529,-4],[77549,-26],[77552,-19],[77559,-18],[77565,-16],[77569,-2],[77571,4],[77579,-43],[77612,-2],[77615,-2],[77635,-6],[77662,-41],[77674,-23],[77694,-8],[77697,-18],[77714,-3],[77730,2],[77741,-1],[77755,4],[77762,-43],[77763,-3],[77771,13],[77779,-18],[77782,-41],[77857,-1],[77858,-70],[77882,-12],[77890,4],[77906,-34],[77909,-2],[77913,33],[77919,-15],[77955,57],[78007,-1],[78050,1],[78126,5],[78143,-37],[78147,-21],[78150,-15],[78164,4],[78173,9],[78182,-15],[78263,-26],[78274,19],[78360,-9],[78409,-15],[78431,1],[78432,-64],[78433,-8],[78442,-15],[78457,6],[78463,-18],[78467,-74],[78484,-4],[78537,-15],[78603,3],[78622,3],[78677,-2],[78692,7],[78697,-4],[78753,-18],[78767,-23],[78778,17],[78785,-18],[78794,-1],[78801,13],[78806,-2],[78815,-1],[78841,-1],[78923,-3],[78951,-12],[78965,1],[78966,-37],[78968,-2],[78988,9],[78990,-16],[79006,3],[79037,-15],[79041,-1],[79061,-6],[79067,-1],[79070,-3],[79081,-10],[79083,-15],[79109,-41],[79173,-3],[79180,-15],[79222,-2],[79256,-3],[79267,1],[79268,-12],[79276,3],[79290,-2],[79303,-2],[79317,-6],[79326,-16],[79328,-3],[79336,14],[79342,-37],[79348,1],[79362,-28],[79367,-17],[79369,-15],[79401,2],[79442,-7],[79447,-1],[79449,2],[79460,-1],[79501,-18],[79513,14],[79515,-43],[79564,3],[79565,-9],[79591,-15],[79607,-2],[79614,1],[79620,-47],[79623,-2],[79686,-2],[79693,-9],[79711,-1],[79772,28],[79776,1],[79779,6],[79788,-2],[79804,5],[79806,-15],[79817,-2],[79825,-43],[79826,4],[79907,-41],[80009,-16],[80050,-15],[80074,7],[80075,1],[80089,-7],[80128,-25],[80157,7],[80189,-8],[80197,6],[80224,-13],[80238,-16],[80276,-2],[80294,27],[80322,-3],[80325,7],[80393,-15],[80403,-43],[80480,3],[80550,-1],[80568,4],[80571,1],[80587,3],[80588,-2],[80621,-2],[80636,-8],[80654,19],[80664,-1],[80679,5],[80683,-24],[80704,-23],[80715,-1],[80781,-5],[80788,-2],[80793,-1],[80809,-16],[80811,-49],[80876,-1],[80903,-7],[80955,12],[80976,-2],[80983,43],[80993,-1],[81039,-16],[81072,-15],[81076,1],[81096,-1],[81109,1],[81123,-16],[81141,39],[81151,8],[81153,-24],[81173,-28],[81193,-15],[81199,3],[81247,-1],[81282,-23],[81283,-61],[81332,-1],[81343,-34],[81344,-6],[81348,-41],[81350,-10],[81355,4],[81393,1],[81400,3],[81426,-16],[81444,-3],[81495,5],[81498,-21],[81556,-2],[81560,-25],[81564,2],[81579,-17],[81599,-2],[81626,-25],[81637,-1],[81701,-5],[81721,3],[81727,8],[81744,-1],[81745,-34],[81746,20],[81757,17],[81809,-9],[81847,-15],[81915,6],[82019,3],[82048,-2],[82051,-15],[82087,-4],[82093,-28],[82104,-2],[82134,1],[82142,-41],[82151,-30],[82219,-2],[82221,3],[82271,-16],[82279,-2],[82287,11],[82321,3],[82377,-30],[82391,-21],[82405,-23],[82416,23],[82418,2],[82456,57],[82612,-15],[82776,14],[82800,2],[82804,4],[82883,3],[82899,-25],[82909,1],[82915,-49],[82920,4],[82941,-1],[82961,11],[82962,-1],[82992,-1],[83030,-1],[83095,-2],[83124,-24],[83130,5],[83179,-34],[83183,-16],[83187,-66],[83197,-18],[83204,-28],[83211,3],[83224,-41],[83287,-2],[83295,-1],[83298,7],[83302,1],[83313,3],[83384,-2],[83397,-1],[83403,1],[83405,15],[83414,-15],[83424,2],[83461,14],[83468,-15],[83471,1],[83501,4],[83509,-15],[83527,-2],[83530,42],[83534,-23],[83575,4],[83576,5],[83581,33],[83625,-43],[83716,32],[83734,-20],[83748,-18],[83824,16],[83847,-34],[83850,-26],[83875,-7],[83915,-8],[83932,-3],[83946,-47],[83964,-16],[83985,8],[83988,-16],[84019,8],[84026,-3],[84035,-12],[84048,-7],[84100,-17],[84109,-4],[84170,-3],[84175,12],[84227,-15],[84229,4],[84230,-43],[84251,-18],[84278,-15],[84286,2],[84296,-16],[84314,12],[84318,-18],[84333,8],[84388,-15],[84433,4],[84445,-18],[84446,7],[84483,3],[84498,-18],[84514,3],[84522,-23],[84554,-10],[84609,14],[84618,-26],[84642,-16],[84646,-1],[84656,-23],[84681,-7],[84700,-3],[84717,-5],[84741,8],[84761,11],[84788,10],[84795,-35],[84806,26],[84849,-1],[84869,25],[84906,-3],[84914,-4],[84915,-5],[84917,-26],[84949,1],[84977,-1],[84984,-16],[85009,1],[85049,-22],[85056,10],[85101,-15],[85124,-2],[85163,-15],[85221,-47],[85237,-2],[85252,7],[85290,-26],[85334,-47],[85345,-2],[85370,2],[85380,-20],[85397,-1],[85400,-21],[85412,1],[85432,-3],[85479,28],[85500,-16],[85544,-6],[85554,-3],[85558,2],[85563,-2],[85597,-69],[85610,-3],[85644,-15],[85682,-2],[85693,-3],[85819,1],[85839,5],[85867,4],[85882,-5],[85930,3],[85969,-2],[85970,-23],[85978,-41],[85989,6],[86004,2],[86027,1],[86078,-1],[86089,1],[86120,1],[86124,-15],[86151,-3],[86162,-2],[86195,-3],[86201,-1],[86205,-1],[86229,1],[86313,-16],[86317,-1],[86338,-1],[86362,-15],[86509,1],[86527,-8],[86531,-4],[86538,1],[86542,-15],[86555,11],[86562,43],[86604,-1],[86613,-49],[86649,-37],[86662,-1],[86665,-3],[86671,-10],[86674,-10],[86728,-1],[86757,-15],[86765,-8],[86774,1],[86781,15],[86836,1],[86850,3],[86952,-18],[86954,5],[86962,-7],[87014,-2],[87035,2],[87048,-3],[87079,6],[87080,5],[87139,17],[87188,3],[87192,-41],[87195,-9],[87199,9],[87219,-2],[87253,2],[87289,-4],[87294,-8],[87298,1],[87359,14],[87385,-48],[87411,4],[87416,-34],[87417,-18],[87451,5],[87464,-15],[87500,2],[87523,-16],[87530,-15],[87546,-34],[87569,-3],[87572,-25],[87573,3],[87581,-1],[87616,13],[87647,17],[87665,-1],[87706,-9],[87716,-10],[87726,-5],[87766,-34],[87768,4],[87807,-9],[87820,-1],[87829,1],[87845,-21],[87866,11],[87874,-2],[87884,28],[87912,-16],[87939,-24],[87941,3],[87942,4],[87986,-29],[87996,-34],[88022,-18],[88024,-16],[88130,-2],[88215,-43],[88232,-3],[88243,6],[88247,-43],[88251,8],[88269,-1],[88295,-9],[88306,1],[88318,-1],[88334,-2],[88340,-2],[88363,5],[88369,20],[88376,-3],[88396,-2],[88453,-15],[88515,-7],[88527,-1],[88542,-15],[88552,-19],[88575,3],[88576,-1],[88579,-8],[88582,-15],[88585,-18],[88619,-33],[88636,4],[88641,1],[88645,-15],[88651,40],[88660,4],[88662,6],[88664,-12],[88667,-43],[88723,-12],[88739,-3],[88741,3],[88761,-37],[88773,-16],[88827,-16],[88839,16],[88865,-12],[88869,-3],[88877,-1],[88880,28],[88900,-16],[88929,-37],[88940,-18],[88966,-18],[89029,-1],[89050,1],[89068,3],[89103,8],[89143,-7],[89167,-1],[89168,-1],[89172,-3],[89206,-2],[89233,1],[89262,-16],[89286,-16],[89291,3],[89302,-2],[89309,-16],[89335,13],[89347,-15],[89348,-3],[89357,-1],[89380,-7],[89407,-1],[89410,-26],[89435,-15],[89452,-9],[89453,1],[89521,2],[89528,-15],[89557,-9],[89627,-12],[89709,-16],[89750,-1],[89751,-4],[89771,9],[89794,2],[89801,1],[89848,1],[89865,8],[89949,-12],[89981,-1],[89982,-16],[90020,4],[90045,-3],[90062,16],[90082,1],[90090,-3],[90154,-2],[90192,-2],[90201,-15],[90204,-49],[90206,-5],[90232,3],[90252,4],[90259,-3],[90263,-17],[90280,-3],[90307,-2],[90340,-12],[90355,4],[90357,1],[90361,-1],[90423,-1],[90436,-15],[90467,-10],[90491,-16],[90497,2],[90501,-15],[90518,-1],[90591,-15],[90604,-9],[90644,-2],[90681,-7],[90700,4],[90766,-15],[90787,-8],[90808,-2],[90823,-2],[90826,10],[90829,5],[90867,-15],[90894,19],[90906,-15],[90914,-15],[90927,-1],[90928,1],[90950,-25],[90951,-23],[90966,24],[90996,-4],[91007,-16],[91012,-15],[91015,-2],[91023,-1],[91027,6],[91044,-4],[91056,38],[91069,5],[91103,8],[91120,-15],[91358,6],[91373,56],[91384,-48],[91393,-1],[91396,-43],[91449,-1],[91468,2],[91477,-43],[91483,-49],[91564,6],[91569,2],[91605,-1],[91613,-26],[91665,-16],[91694,-15],[91700,-2],[91703,-49],[91746,-1],[91780,-1],[91794,-18],[91796,1],[91800,-15],[91804,-10],[91817,-17],[91841,-37],[91850,-32],[91857,-1],[91866,-43],[91871,-37],[91874,-41],[91877,-17],[91946,-12],[91967,-26],[91973,3],[91992,-15],[92005,10],[92019,-5],[92030,-47],[92043,-1],[92051,-37],[92064,3],[92096,-3],[92103,-1],[92116,-1],[92121,9],[92157,1],[92247,-4],[92253,-2],[92260,-24],[92295,-2],[92318,-1],[92322,-26],[92347,-3],[92373,-1],[92383,-1],[92403,27],[92412,-1],[92414,-18],[92457,9],[92463,-10],[92470,1],[92498,-1],[92519,-1],[92546,-1],[92592,7],[92593,11],[92601,-22],[92609,-49],[92651,-37],[92670,-12],[92704,-15],[92715,-1],[92825,1],[92840,1],[92854,-24],[92857,-37],[92859,11],[92863,-2],[92865,14],[92890,1],[92898,-2],[92901,6],[92917,-26],[92933,-15],[92945,-16],[92963,-5],[92977,2],[92992,4],[93052,-4],[93055,1],[93096,-20],[93140,-2],[93188,-12],[93267,7],[93301,39],[93309,57],[93311,-1],[93367,-4],[93387,-3],[93407,16],[93420,-2],[93450,-15],[93462,11],[93516,-3],[93526,1],[93572,27],[93574,-2],[93578,-23],[93608,-16],[93690,-16],[93694,-48],[93704,-18],[93711,-16],[93726,-2],[93727,-15],[93819,2],[93868,-4],[93874,7],[93891,-23],[93917,-6],[93943,12],[93946,-8],[93972,-43],[93983,6],[94058,27],[94091,-37],[94115,4],[94135,-12],[94165,-28],[94195,-3],[94198,3],[94226,-5],[94258,1],[94271,-8],[94278,3],[94342,3],[94351,-19],[94403,1],[94476,4],[94493,-1],[94517,-15],[94524,-12],[94548,-12],[94554,6],[94578,-16],[94602,1],[94635,-1],[94671,3],[94681,1],[94724,-1],[94734,-1],[94735,4],[94744,1],[94763,-1],[94803,-3],[94869,-1],[94895,-10],[94951,-1],[95023,1],[95029,13],[95075,8],[95076,-24],[95138,1],[95167,-4],[95184,-3],[95187,-7],[95188,-15],[95191,-47],[95247,-15],[95258,9],[95290,3],[95298,-18],[95341,-2],[95345,-26],[95368,-23],[95378,-2],[95421,13],[95425,-15],[95455,-23],[95477,-15],[95563,-1],[95574,-2],[95682,-38],[95685,-2],[95711,-3],[95724,-26],[95729,11],[95769,-16],[95788,-15],[95818,-3],[95828,-15],[95876,-12],[95880,-5],[95881,-23],[95890,1],[95905,31],[95919,-47],[95948,-1],[95952,26],[96001,-1],[96032,28],[96045,-47],[96104,7],[96154,-15],[96172,-4],[96250,-12],[96263,-6],[96270,-43],[96290,-3],[96308,-16],[96333,5],[96336,-15],[96374,1],[96381,-24],[96383,-15],[96391,-24],[96465,-17],[96540,-16],[96546,1],[96554,-16],[96573,-8],[96679,-49],[96680,1],[96709,-15],[96711,2],[96731,-23],[96763,-15],[96768,-20],[96778,-3],[96790,3],[96800,10],[96807,-16],[96812,-3],[96848,14],[96862,-16],[96873,-15],[96883,5],[96891,6],[96931,-4],[97022,3],[97025,-6],[97056,-4],[97089,-2],[97096,-7],[97114,-15],[97120,5],[97135,-21],[97178,5],[97208,-66],[97212,38],[97234,2],[97236,1],[97247,-21],[97273,23],[97277,14],[97297,-2],[97338,1],[97415,4],[97468,-37],[97489,-7],[97491,-2],[97516,-47],[97556,14],[97559,-34],[97575,4],[97657,-18],[97676,3],[97682,1],[97697,-4],[97701,-1],[97706,-25],[97717,14],[97737,-1],[97743,1],[97761,-47],[97779,-7],[97835,-16],[97864,-3],[97902,5],[97903,1],[97907,2],[97908,-37],[97960,4],[97983,-23],[98034,3],[98037,-3],[98051,-16],[98059,-25],[98079,-15],[98125,-3],[98177,-3],[98195,4],[98197,-15],[98244,-17],[98248,1],[98275,25],[98277,3],[98319,-15],[98327,-16],[98333,-3],[98336,-8],[98340,-1],[98390,-3],[98402,-12],[98422,-12],[98437,-43],[98443,-15],[98464,-18],[98489,-2],[98498,-15],[98505,-3],[98508,-43],[98519,39],[98525,-2],[98554,-1],[98582,-43],[98598,-34],[98600,-5],[98638,-1],[98639,1],[98640,-1],[98645,-26],[98653,4],[98703,27],[98749,27],[98773,3],[98776,3],[98817,3],[98862,-24],[98904,-24],[98906,-9],[98909,-34],[98969,-2],[99024,-3],[99031,3],[99065,-1],[99088,4],[99098,-3],[99105,-12],[99154,-7],[99155,6],[99184,1],[99205,-3],[99243,-45],[99247,14],[99263,-43],[99277,-3],[99297,-25],[99298,1],[99303,-16],[99338,16],[99347,17],[99362,-2],[99391,3],[99422,-1],[99425,-4],[99440,-66],[99448,-4],[99457,1],[99509,-15],[99517,19],[99532,-18],[99537,5],[99554,-12],[99568,-1],[99618,5],[99625,4],[99634,-1],[99640,-16],[99691,-23],[99728,-18],[99737,4],[99758,-10],[99794,-16],[99812,-1],[99824,3],[99825,-47],[99840,3],[99844,40],[99847,1],[99860,3],[99901,1],[99929,14],[99981,4],[100011,14],[100050,4],[100081,22],[100101,-15],[100113,-12],[100143,-48],[100150,1],[100164,-5],[100166,-43],[100167,-23],[100261,-1],[100263,-33],[100368,-2],[100376,-15],[100390,2],[100441,-21],[100443,-4],[100452,-15],[100480,7],[100587,9],[100606,-1],[100667,20],[100669,2],[100678,-6],[100689,1],[100731,-21],[100742,3],[100787,-1],[100790,-9],[100808,-16],[100809,-43],[100815,11],[100818,-23],[100873,-12],[100880,-12],[100904,5],[100905,-3],[100947,-1],[100990,-8],[100995,1],[101026,-16],[101038,-34],[101067,5],[101112,16],[101122,-41],[101123,1],[101132,11],[101139,-12],[101150,-46],[101156,-12],[101190,-1],[101222,-15],[101239,4],[101269,-1],[101304,2],[101327,8],[101346,-4],[101348,-8],[101383,-4],[101410,4],[101442,3],[101450,-7],[101487,-34],[101518,1],[101526,1],[101592,4],[101593,4],[101596,-1],[101623,-2],[101626,-26],[101637,-37],[101644,-37],[101663,-15],[101678,-16],[101709,-15],[101733,-1],[101745,-4],[101815,-2],[101826,8],[101828,-15],[101867,-2],[101918,-15],[101928,-15],[101938,-15],[101957,10],[102000,3],[102001,-8],[102005,-23],[102086,-16],[102092,20],[102109,-10],[102131,-9],[102150,3],[102167,8],[102206,-2],[102261,2],[102289,3],[102305,1],[102311,16],[102312,2],[102314,-4],[102342,-9],[102380,-7],[102414,4],[102434,-1],[102446,-1],[102456,-43],[102466,-1],[102555,-43],[102578,-18],[102589,-3],[102609,-37],[102644,-2],[102704,-4],[102713,-3],[102714,-16],[102715,-2],[102716,1],[102744,-41],[102793,-26],[102797,-16],[102806,1],[102837,1],[102842,-43],[102845,-1],[102857,-7],[102884,-28],[102916,24],[102920,16],[102925,-15],[102950,-1],[102963,-23],[102968,7],[102971,13],[102974,-6],[103017,2],[103020,19],[103044,-37],[103048,7],[103063,-26],[103119,3],[103172,-10],[103205,-22],[103216,-1],[103228,5],[103234,-29],[103238,-49],[103261,27],[103286,-12],[103301,2],[103313,-10],[103318,18],[103353,23],[103374,-26],[103421,-3],[103491,-3],[103503,-34],[103543,14],[103608,1],[103612,-23],[103613,3],[103620,1],[103651,23],[103657,-3],[103671,-4],[103703,-1],[103725,1],[103828,14],[103839,-48],[103879,-15],[103916,-1],[103943,-3],[103987,5],[103994,-9],[104015,19],[104048,-15],[104056,-12],[104083,-15],[104106,-16],[104107,-18],[104116,-5],[104126,-15],[104128,-1],[104138,-9],[104143,-16],[104159,-16],[104195,-12],[104221,-6],[104276,-2],[104289,-2],[104294,-2],[104367,-18],[104371,1],[104377,1],[104387,-10],[104414,-9],[104435,-3],[104461,-15],[104463,57],[104550,-3],[104562,-2],[104583,1],[104595,1],[104597,2],[104618,-18],[104634,-25],[104670,-10],[104750,4],[104777,6],[104795,-3],[104816,-7],[104817,-16],[104833,-26],[104873,-38],[104903,-1],[104905,-47],[104914,-2],[104921,-3],[104930,-3],[104954,5],[104959,1],[104965,1],[104973,-34],[105076,-15],[105087,-19],[105131,26],[105136,-26],[105157,-37],[105159,-2],[105183,1],[105189,-1],[105195,-1],[105219,-16],[105223,-16],[105250,-18],[105284,-18],[105286,-49],[105301,6],[105333,-14],[105348,-43],[105355,-1],[105377,-9],[105381,-37],[105451,3],[105488,8],[105498,3],[105510,-18],[105534,-26],[105539,-15],[105562,1],[105567,4],[105581,-12],[105595,-16],[105623,15],[105657,3],[105684,-1],[105736,3],[105740,-43],[105773,-3],[105780,-18],[105894,-16],[105943,-2],[105965,9],[105990,-24],[106000,-3],[106002,7],[106009,-15],[106041,-37],[106074,-1],[106089,13],[106118,3],[106138,-16],[106189,-12],[106198,40],[106227,-21],[106248,-1],[106295,-41],[106340,-15],[106354,6],[106370,-6],[106377,-15],[106429,-12],[106476,-16],[106478,-16],[106500,61],[106544,-1],[106556,-8],[106635,-15],[106646,-1],[106651,-49],[106663,-4],[106669,4],[106681,-24],[106700,-3],[106730,-1],[106740,1],[106745,6],[106752,-28],[106776,-16],[106795,-15],[106797,-18],[106884,-1],[106901,9],[106907,-1],[106925,-41],[106961,-2],[106970,-7],[106990,-21],[106993,-21],[107008,5],[107017,3],[107073,-3],[107085,-3],[107090,3],[107097,7],[107103,-12],[107117,-18],[107140,5],[107167,-1],[107207,-26],[107241,2],[107255,-18],[107306,-41],[107309,-8],[107320,-17],[107333,1],[107366,-2],[107389,-7],[107410,9],[107451,-15],[107457,-1],[107496,8],[107504,-1],[107506,-16],[107512,-6],[107516,-1],[107520,1],[107549,-19],[107567,-4],[107582,-2],[107594,-18],[107601,3],[107617,-1],[107619,13],[107626,-1],[107640,-26],[107682,-15],[107702,1],[107720,1],[107734,-15],[107753,8],[107772,3],[107776,-16],[107790,-12],[107952,-4],[107960,-10],[107963,-2],[107971,-3],[107981,-5],[107995,1],[107996,-18],[108004,-2],[108021,4],[108032,-7],[108037,-3],[108086,12],[108112,-43],[108128,15],[108154,-16],[108158,-47],[108172,-1],[108263,-25],[108264,-7],[108276,27],[108349,-15],[108355,-27],[108432,17],[108449,-30],[108579,-12],[108666,9],[108714,-7],[108804,-43],[108810,-1],[108826,-26],[108869,-3],[108913,1],[108929,1],[108951,-7],[108959,-18],[108976,-6],[108990,-3],[108995,-5],[109008,-15],[109055,-1],[109069,-1],[109078,-8],[109089,3],[109099,-31],[109109,-16],[109142,-7],[109166,2],[109168,1],[109172,7],[109176,-43],[109213,1],[109302,23],[109312,-47],[109314,-18],[109331,-2],[109345,-2],[109381,-1],[109395,-9],[109399,-1],[109410,-15],[109440,8],[109449,-37],[109463,-2],[109509,-15],[109511,-1],[109616,-15],[109625,-37],[109632,-23],[109642,-47],[109668,-47],[109675,-15],[109678,-4],[109735,-1],[109779,-3],[109780,-15],[109861,2],[109862,-12],[109893,-24],[109923,-1],[109925,-3],[109943,2],[109970,-1],[109975,20],[109985,-26],[109997,-10],[110021,-1],[110039,-1],[110058,-16],[110080,-18],[110089,28],[110107,-7],[110149,3],[110171,-17],[110176,-3],[110178,1],[110228,-1],[110233,-20],[110257,-1],[110306,-4],[110336,7],[110349,3],[110370,-3],[110384,-3],[110406,-15],[110412,1],[110434,-16],[110472,-3],[110478,-2],[110526,-1],[110624,1],[110627,12],[110646,-1],[110652,-6],[110655,-2],[110681,-3],[110708,7],[110751,5],[110794,-15],[110806,3],[110817,-49],[110832,-2],[110835,-3],[110865,1],[110904,-1],[110924,-6],[110928,13],[110943,-16],[110994,26],[111092,-1],[111102,-20],[111114,-81],[111134,-2],[111143,-23],[111194,-10],[111254,-37],[111303,-16],[111320,-19],[111346,6],[111413,-5],[111436,-10],[111437,-15],[111510,-3],[111517,3],[111572,-15],[111598,-25],[111604,5],[111622,-10],[111651,-26],[111693,-43],[111701,-1],[111715,-19],[111720,1],[111735,-1],[111749,3],[111763,5],[111774,-43],[111775,25],[111788,13],[111794,-16],[111817,-16],[111828,-3],[111839,-43],[111843,-2],[111847,-13],[111852,-34],[111893,57],[111936,-2],[111982,44],[111997,-26],[112017,-1],[112034,-4],[112050,1],[112054,-24],[112062,-5],[112071,3],[112097,8],[112125,11],[112144,-18],[112165,-2],[112166,-18],[112176,-8],[112241,1],[112261,-14],[112342,-2],[112343,-2],[112355,-16],[112369,-15],[112419,-3],[112439,3],[112447,-16],[112474,-1],[112500,-2],[112524,-37],[112622,8],[112633,-37],[112639,-7],[112641,-3],[112686,-18],[112694,-26],[112821,-3],[112842,3],[112868,-3],[112901,-25],[112910,-12],[112912,-4],[112914,-36],[112933,8],[112958,-17],[112994,16],[113015,15],[113025,-58],[113087,-15],[113109,-2],[113129,-14],[113142,-1],[113172,-3],[113185,-26],[113193,16],[113202,-15],[113208,-43],[113218,-16],[113224,-26],[113243,-1],[113262,-2],[113305,2],[113313,-2],[113337,18],[113351,-3],[113361,-3],[113377,-5],[113381,-16],[113406,-43],[113421,-37],[113426,-2],[113428,-10],[113429,6],[113439,-3],[113446,21],[113449,-15],[113504,-43],[113532,-5],[113560,-7],[113605,-12],[113615,-1],[113621,-2],[113639,-21],[113643,-3],[113646,8],[113653,-12],[113702,-3],[113811,-3],[113813,-1],[113818,-2],[113849,3],[113859,-1],[113881,-1],[113917,15],[113930,-6],[113932,-15],[113968,6],[113992,4],[114001,-12],[114008,4],[114015,4],[114034,17],[114035,-3],[114056,13],[114081,7],[114089,17],[114094,-26],[114132,3],[114163,-2],[114181,-2],[114182,8],[114186,-5],[114195,64],[114202,2],[114220,1],[114276,-15],[114288,3],[114292,-3],[114341,1],[114348,-8],[114417,10],[114471,10],[114478,1],[114481,8],[114512,-7],[114515,-43],[114520,2],[114596,34],[114598,-3],[114604,-16],[114606,23],[114627,-3],[114637,-12],[114648,-34],[114655,1],[114664,-2],[114679,-3],[114709,-16],[114760,-15],[114767,-5],[114768,-15],[114773,2],[114812,-25],[114835,-3],[114879,14],[114883,12],[114896,-9],[114928,-24],[114936,-37],[114962,23],[114973,-12],[114991,-12],[115006,-3],[115018,-26],[115028,-43],[115058,-2],[115067,-15],[115073,-1],[115082,-16],[115100,-26],[115106,-1],[115110,10],[115117,3],[115118,15],[115132,-7],[115141,-3],[115153,13],[115163,-1],[115238,-12],[115240,20],[115257,-10],[115373,-2],[115382,43],[115424,-1],[115497,-4],[115544,-45],[115546,-41],[115566,-16],[115590,1],[115600,-1],[115626,-127],[115658,9],[115698,-7],[115706,-3],[115750,-10],[115797,-15],[115808,-1],[115851,3],[115897,-16],[115900,-4],[115907,6],[115976,-26],[116157,3],[116163,4],[116174,-18],[116201,4],[116210,-16],[116219,-27],[116254,14],[116273,1],[116290,-18],[116299,-2],[116314,-20],[116317,57],[116329,-47],[116342,2],[116352,3],[116413,9],[116415,-2],[116416,1],[116418,-15],[116428,-2],[116431,-2],[116435,1],[116449,-1],[116466,-1],[116478,14],[116497,-5],[116519,-43],[116539,-3],[116556,-15],[116603,-9],[116605,-43],[116627,1],[116644,-7],[116673,-15],[116725,3],[116727,-4],[116736,-9],[116821,-2],[116851,2],[116862,-15],[116882,-24],[116895,-10],[116909,-3],[116966,23],[116971,-21],[116974,-2],[117031,-1],[117042,-24],[117071,14],[117074,4],[117092,26],[117105,2],[117124,-4],[117178,-24],[117201,-3],[117230,-16],[117414,4],[117427,4],[117432,5],[117450,17],[117491,-42],[117516,-4],[117627,-31],[117686,-43],[117703,8],[117747,1],[117758,27],[117803,-7],[117822,-48],[117828,-22],[117833,-24],[117870,-2],[117887,8],[118007,3],[118028,-15],[118030,-9],[118081,-1],[118107,-2],[118152,25],[118158,2],[118175,-2],[118188,-47],[118204,1],[118215,-3],[118335,-2],[118420,4],[118438,-1],[118447,-3],[118459,5],[118480,24],[118519,-2],[118545,-16],[118548,1],[118612,-26],[118657,1],[118680,-18],[118702,-15],[118717,-1],[118805,-7],[118853,1],[118872,1],[118876,-7],[118941,1],[118967,-52],[118979,6],[119107,-1],[119116,-4],[119119,-12],[119141,-15],[119142,-1],[119153,-18],[119163,-43],[119168,1],[119177,-12],[119210,-2],[119244,-1],[119319,1],[119328,3],[119341,-16],[119400,7],[119411,-3],[119422,4],[119443,-49],[119445,-2],[119476,4],[119491,3],[119497,6],[119527,-1],[119545,-1],[119564,49],[119565,-16],[119567,40],[119584,1],[119593,-3],[119594,-15],[119601,-41],[119640,-2],[119647,-49],[119659,-2],[119664,-7],[119669,-3],[119773,-28],[119786,-41],[119809,-3],[119863,-24],[119881,-1],[119891,-15],[119910,-26],[119925,-18],[119943,-3],[119967,-16],[119970,1],[119976,-15],[119988,6],[120050,-1],[120119,-51],[120126,-34],[120142,-15],[120147,11],[120154,3],[120158,4],[120217,3],[120224,15],[120232,1],[120234,-1],[120286,-16],[120288,-16],[120325,-1],[120362,-18],[120413,-2],[120417,-1],[120420,15],[120433,1],[120435,2],[120436,-16],[120445,7],[120465,2],[120490,-2],[120503,3],[120507,1],[120511,-38],[120528,-3],[120533,3],[120537,-10],[120539,13],[120561,-1],[120563,1],[120585,5],[120614,-4],[120630,-24],[120635,1],[120639,-5],[120652,-15],[120670,1],[120671,25],[120683,-3],[120747,-13],[120793,-1],[120802,-7],[120820,1],[120856,-33],[120902,-26],[120955,-41],[120982,-2],[120983,-16],[120992,-18],[121012,7],[121038,3],[121039,-7],[121044,4],[121082,-12],[121117,-25],[121118,-26],[121125,22],[121141,-43],[121214,-20],[121216,4],[121238,12],[121257,-4],[121270,2],[121272,-12],[121335,1],[121340,-43],[121386,17],[121396,8],[121412,-9],[121421,-9],[121422,12],[121426,-1],[121435,-3],[121436,18],[121450,-3],[121451,-8],[121452,6],[121470,-3],[121581,-26],[121611,5],[121641,-4],[121697,-9],[121716,10],[121721,-2],[121726,-4],[121733,13],[121737,-34],[121738,-21],[121807,-8],[121818,-43],[121838,6],[121858,3],[121863,-16],[121896,7],[121917,3],[121920,2],[121922,38],[121923,-5],[121945,-16],[121955,-1],[121982,-6],[122045,-43],[122047,5],[122075,-1],[122077,5],[122123,-15],[122181,-3],[122191,20],[122192,12],[122195,3],[122239,-1],[122241,-12],[122271,-2],[122284,-3],[122288,-16],[122309,-5],[122339,4],[122340,-15],[122344,-1],[122366,-3],[122368,-26],[122413,24],[122414,-26],[122450,3],[122520,-15],[122521,2],[122552,14],[122577,-1],[122580,6],[122581,-2],[122624,-2],[122645,-3],[122658,-16],[122664,1],[122701,13],[122739,-1],[122746,11],[122752,-5],[122854,-2],[122871,-4],[122881,-1],[122908,-1],[122935,-1],[122946,-1],[122953,4],[122962,17],[122968,17],[122973,-34],[122998,6],[123005,-26],[123016,-3],[123031,-1],[123034,6],[123045,-2],[123091,-1],[123114,4],[123150,1],[123160,-1],[123167,1],[123201,5],[123232,-43],[123249,-1],[123256,13],[123298,-7],[123300,3],[123301,2],[123323,-15],[123343,-1],[123344,-2],[123449,-1],[123450,17],[123451,-7],[123466,-24],[123470,12],[123485,-1],[123500,-25],[123511,-16],[123530,-52],[123647,-2],[123663,43],[123686,-15],[123741,-26],[123749,-7],[123797,38],[123833,38],[123838,-16],[123844,57],[123846,-15],[123861,4],[123918,-15],[123921,-3],[123923,1],[123944,5],[123953,-3],[123964,-49],[124022,-48],[124028,-16],[124034,-7],[124062,8],[124073,-18],[124084,3],[124106,5],[124119,-4],[124162,-9],[124180,1],[124189,-1],[124351,19],[124358,6],[124374,-14],[124418,-6],[124423,-7],[124496,-10],[124516,-16],[124547,-1],[124558,3],[124568,-3],[124612,-1],[124625,-41],[124632,-2],[124650,2],[124673,-3],[124693,8],[124702,-12],[124723,5],[124752,-15],[124814,10],[124827,-26],[124834,5],[124852,-3],[124886,-29],[124901,-12],[124940,-47],[124990,-1],[125001,-15],[125012,-3],[125013,-24],[125016,-25],[125031,-2],[125044,-2],[125083,5],[125105,8],[125124,-7],[125126,-1],[125128,2],[125136,-15],[125207,1],[125252,-24],[125286,-1],[125289,-15],[125290,-3],[125304,3],[125320,-41],[125343,-16],[125364,-15],[125374,-10],[125434,-32],[125452,1],[125453,-15],[125487,1],[125500,-3],[125526,-26],[125527,-34],[125533,-15],[125537,-16],[125554,-3],[125560,-1],[125590,-15],[125622,12],[125626,20],[125636,3],[125647,-4],[125716,-2],[125731,-2],[125784,-12],[125786,-37],[125802,1],[125807,4],[125820,-1],[125841,1],[125846,38],[125909,5],[125912,-1],[125924,-10],[125926,-2],[125930,8],[126034,-43],[126048,16],[126049,43],[126050,-37],[126091,20],[126095,4],[126122,-43],[126210,1],[126213,4],[126238,2],[126243,2],[126254,-2],[126265,-4],[126272,35],[126285,-3],[126301,-7],[126329,4],[126354,-1],[126376,-22],[126380,-13],[126396,-18],[126421,-37],[126425,-2],[126436,-1],[126443,9],[126445,10],[126453,35],[126472,-17],[126502,3],[126513,-1],[126572,-1],[126576,-3],[126631,-3],[126641,-3],[126666,4],[126689,27],[126690,-2],[126708,-15],[126713,1],[126723,1],[126735,-1],[126769,2],[126772,-15],[126776,-15],[126819,27],[126842,-26],[126853,-26],[126867,1],[126872,1],[126875,-2],[126901,-1],[126905,8],[126913,-15],[126937,-5],[126942,4],[126983,-3],[126988,-1],[127025,1],[127026,-26],[127027,-15],[127059,-2],[127076,-16],[127082,-5],[127086,-43],[127104,7],[127111,-4],[127120,-1],[127166,4],[127178,-7],[127195,-2],[127243,-16],[127244,-2],[127252,-43],[127260,-24],[127267,2],[127286,-3],[127294,-1],[127311,-2],[127315,-47],[127322,-3],[127366,-3],[127399,-2],[127422,-16],[127479,-21],[127491,2],[127521,-16],[127531,35],[127538,23],[127557,-3],[127677,-25],[127704,-15],[127707,-2],[127708,-16],[127720,14],[127761,-28],[127815,-2],[127820,6],[127833,-3],[127837,-15],[127954,12],[127972,-2],[127979,-2],[127992,13],[128008,-2],[128034,-47],[128101,-16],[128102,-4],[128107,56],[128113,-2],[128115,-15],[128127,-1],[128133,-4],[128144,-1],[128148,-5],[128165,4],[128171,-7],[128174,1],[128181,17],[128209,-4],[128247,-1],[128288,3],[128328,-1],[128330,7],[128360,-3],[128381,-4],[128459,8],[128482,-16],[128503,-15],[128506,-8],[128510,-5],[128516,1],[128537,-26],[128540,12],[128645,-25],[128659,9],[128709,-15],[128712,4],[128732,2],[128766,-47],[128797,2],[128802,-34],[128846,5],[128853,-1],[128860,-1],[128910,-1],[128919,-2],[128932,-1],[128967,1],[128978,2],[129003,-15],[129036,-28],[129089,1],[129111,1],[129117,-15],[129135,-33],[129157,-2],[129223,-3],[129264,1],[129281,-1],[129290,3],[129294,-26],[129301,2],[129309,-7],[129316,9],[129334,-19],[129388,-2],[129395,-2],[129401,2],[129403,-10],[129414,-24],[129423,-1],[129431,3],[129438,-19],[129455,-16],[129459,-13],[129461,-4],[129479,-20],[129496,-16],[129526,3],[129601,-25],[129619,-3],[129620,-2],[129628,-18],[129647,-2],[129650,-26],[129659,10],[129721,2],[129725,-12],[129727,3],[129743,1],[129744,-4],[129747,-3],[129793,5],[129796,-12],[129801,-1],[129821,-18],[129861,57],[129873,-15],[129883,-3],[129889,-16],[129969,-43],[129974,-3],[129993,-19],[130006,-16],[130029,-41],[130036,-33],[130078,-5],[130083,-2],[130108,-6],[130121,-26],[130122,-2],[130207,6],[130212,-16],[130218,-1],[130245,6],[130250,1],[130262,3],[130347,-25],[130354,24],[130366,-15],[130376,-3],[130380,-21],[130510,-1],[130531,-1],[130533,6],[130601,1],[130609,8],[130640,28],[130645,-1],[130674,13],[130698,3],[130728,-4],[130755,27],[130762,3],[130799,-26],[130802,7],[130868,-1],[130934,-1],[130944,-18],[130949,-2],[131049,-1],[131051,3],[131057,-3],[131076,-3],[131104,-19],[131105,-16],[131108,-2],[131121,-19],[131132,-16],[131140,-12],[131147,1],[131153,-5],[131166,-3],[131186,-2],[131258,2],[131278,3],[131304,-17],[131312,2],[131336,-23],[131337,-1],[131372,7],[131387,-1],[131401,-2],[131412,-2],[131419,-2],[131444,-16],[131460,-9],[131473,8],[131479,-1],[131481,-7],[131513,14],[131546,-48],[131554,-5],[131581,1],[131588,-48],[131595,-15],[131671,4],[131707,3],[131716,-3],[131730,4],[131741,-15],[131763,-1],[131770,-37],[131797,-15],[131818,-18],[131863,-26],[131865,10],[131884,-16],[132003,2],[132013,-15],[132019,-15],[132038,35],[132046,1],[132053,1],[132077,-5],[132120,-26],[132166,3],[132186,-17],[132206,1],[132260,3],[132269,-1],[132270,-1],[132275,-4],[132286,5],[132316,14],[132317,-18],[132319,12],[132339,1],[132368,1],[132375,15],[132377,-18],[132379,-18],[132380,-18],[132384,-2],[132391,2],[132420,-18],[132465,-47],[132477,12],[132481,25],[132509,-2],[132530,-8],[132540,3],[132558,-3],[132569,-5],[132598,-41],[132610,-1],[132655,-24],[132672,-24],[132675,-15],[132690,-16],[132696,3],[132701,2],[132708,-37],[132710,-2],[132713,-16],[132723,-4],[132729,8],[132732,17],[132749,6],[132781,-41],[132809,-20],[132813,-2],[132894,-15],[132895,-2],[132898,-23],[132949,-4],[132972,-12],[133010,-1],[133023,-2],[133036,-2],[133064,-15],[133070,-16],[133095,-15],[133109,-1],[133126,-16],[133156,-1],[133157,-18],[133159,-16],[133178,-15],[133204,-18],[133215,-3],[133235,1],[133239,-15],[133257,-3],[133274,53],[133298,-4],[133322,-18],[133375,2],[133443,1],[133450,-43],[133456,-16],[133469,4],[133473,3],[133526,-16],[133552,-12],[133604,-18],[133610,-18],[133611,1],[133651,-3],[133667,-12],[133682,19],[133720,-7],[133732,-24],[133755,-7],[133766,1],[133767,4],[133778,-1],[133788,-16],[133794,6],[133822,-12],[133828,-23],[133837,-16],[133860,-18],[133872,3],[133874,-9],[133884,-15],[133899,4],[133909,-3],[133925,2],[133936,-15],[133970,-12],[133992,6],[133996,3],[134054,-15],[134085,-4],[134142,1],[134150,-3],[134158,-4],[134173,1],[134193,-12],[134226,-24],[134265,1],[134287,1],[134300,-9],[134323,1],[134336,1],[134338,1],[134353,-63],[134374,-3],[134457,-3],[134501,10],[134505,2],[134567,1],[134623,3],[134637,7],[134642,-24],[134662,1],[134677,-4],[134689,4],[134690,3],[134725,4],[134734,-18],[134762,8],[134790,-11],[134792,-5],[134798,2],[134803,-16],[134843,2],[134857,2],[134860,-16],[134901,-26],[134927,4],[134951,8],[134964,-16],[134987,-5],[134992,8],[135028,-8],[135048,-15],[135065,-22],[135067,3],[135087,-43],[135088,28],[135106,1],[135111,12],[135180,-6],[135201,9],[135206,-16],[135209,-18],[135277,1],[135280,5],[135311,-1],[135342,-17],[135351,-16],[135379,20],[135449,3],[135456,-1],[135510,-1],[135541,12],[135544,-15],[135548,39],[135563,-1],[135591,4],[135625,-2],[135630,7],[135656,4],[135735,-25],[135754,5],[135764,-10],[135799,5],[135829,-1],[135836,-1],[135844,-51],[135874,-4],[135953,1],[135993,-14],[136007,8],[136015,-18],[136019,4],[136053,-9],[136067,7],[136073,-9],[136077,-43],[136087,8],[136102,-1],[136137,33],[136160,7],[136162,-12],[136176,-16],[136193,-2],[136196,13],[136233,-41],[136262,-15],[136274,-51],[136281,-2],[136292,-16],[136306,-5],[136318,-23],[136341,-43],[136345,-8],[136350,-24],[136354,-3],[136355,-2],[136392,-12],[136399,-22],[136410,-1],[136412,-2],[136481,3],[136502,-3],[136531,-16],[136542,-2],[136553,27],[136578,14],[136584,-2],[136591,8],[136599,-1],[136630,1],[136648,-4],[136671,17],[136677,-18],[136688,11],[136691,-17],[136705,-1],[136712,-18],[136748,-3],[136755,-12],[136764,-8],[136779,1],[136813,-5],[136840,-43],[136841,-2],[136847,-26],[136852,17],[136858,-4],[136860,3],[136875,-7],[136911,1],[136957,-12],[136970,-23],[137002,6],[137022,39],[137026,6],[137030,-3],[137045,1],[137053,1],[137068,-16],[137094,16],[137156,-1],[137159,-15],[137165,3],[137173,-37],[137176,-34],[137201,-2],[137221,1],[137272,1],[137278,-17],[137341,-26],[137349,5],[137385,5],[137399,-41],[137405,-15],[137407,-34],[137447,4],[137468,-15],[137472,5],[137477,-26],[137485,8],[137492,-32],[137546,-11],[137574,-24],[137640,2],[137671,-34],[137706,7],[137713,3],[137731,9],[137747,2],[137786,2],[137815,-16],[137824,2],[137827,-15],[137829,20],[137863,-1],[137884,-48],[137887,-3],[137889,-1],[137908,1],[137925,4],[137941,1],[137961,2],[137992,-15],[137995,-43],[138009,-3],[138030,-2],[138098,-3],[138114,-4],[138115,-26],[138134,-6],[138143,-10],[138177,4],[138203,2],[138231,-3],[138237,-3],[138238,57],[138279,-2],[138315,-3],[138323,-47],[138350,-28],[138360,1],[138373,-26],[138377,-1],[138380,-3],[138402,-2],[138484,3],[138505,14],[138570,8],[138581,-12],[138607,39],[138632,3],[138661,5],[138680,-1],[138708,4],[138737,-18],[138765,39],[138836,-45],[138847,-16],[138885,2],[138900,-1],[138939,-21],[138995,-25],[139016,10],[139017,-30],[139030,3],[139048,-7],[139096,-1],[139098,-18],[139111,1],[139118,-26],[139122,-1],[139130,3],[139167,-26],[139173,4],[139247,1],[139275,-1],[139282,-7],[139284,2],[139301,-1],[139304,1],[139352,-16],[139359,5],[139366,-15],[139369,-15],[139382,5],[139404,-3],[139420,-1],[139429,-1],[139451,6],[139470,-2],[139477,-17],[139607,-2],[139625,5],[139627,15],[139639,-18],[139676,18],[139690,-18],[139703,-15],[139716,25],[139726,-15],[139727,1],[139742,-1],[139762,3],[139765,-1],[139857,-15],[139859,-18],[139881,1],[139889,-16],[139921,46],[139936,1],[139964,-2],[140025,-1],[140055,-1],[140113,-15],[140145,-8],[140149,-16],[140163,-43],[140198,-34],[140208,17],[140242,2],[140244,3],[140245,-15],[140268,-28],[140276,-43],[140345,-18],[140359,-2],[140362,-20],[140420,-16],[140432,-47],[140436,2],[140512,-28],[140517,-8],[140533,5],[140534,-15],[140537,3],[140555,42],[140559,13],[140561,-6],[140568,13],[140621,-25],[140627,-2],[140629,-1],[140645,2],[140646,-1],[140647,-37],[140674,2],[140677,-3],[140690,-10],[140707,-1],[140753,-5],[140769,2],[140772,-15],[140787,-16],[140793,-41],[140826,19],[140837,-1],[140866,-2],[140891,-1],[140893,-18],[140905,-15],[140934,2],[140978,-18],[141010,-43],[141032,22],[141051,-3],[141077,-34],[141082,12],[141098,-1],[141148,-7],[141150,-9],[141240,-2],[141253,3],[141266,-26],[141282,-2],[141305,-10],[141334,14],[141337,-37],[141352,13],[141363,-12],[141367,-12],[141374,8],[141402,-1],[141408,-15],[141440,-17],[141462,-16],[141499,-48],[141500,-3],[141533,-13],[141556,-5],[141576,-23],[141580,1],[141585,1],[141630,-17],[141657,-1],[141693,-4],[141698,-5],[141749,-4],[141757,11],[141770,-19],[141777,-3],[141790,-1],[141804,-1],[141806,23],[141818,4],[141824,1],[141830,-37],[141857,-28],[141860,13],[141904,-2],[141981,-34],[141987,-4],[142003,28],[142049,-53],[142108,-10],[142117,-2],[142160,-11],[142171,-25],[142172,-15],[142173,-10],[142200,-41],[142205,-40],[142239,-19],[142254,-16],[142267,-1],[142270,7],[142279,-34],[142312,-18],[142346,-3],[142355,7],[142356,-18],[142361,9],[142386,1],[142399,-3],[142401,-16],[142448,-6],[142456,12],[142477,-3],[142489,1],[142507,8],[142523,43],[142549,16],[142556,1],[142576,-5],[142617,-17],[142648,-4],[142664,-2],[142670,-36],[142685,-25],[142730,-17],[142766,5],[142789,5],[142836,-1],[142848,-3],[142852,-15],[142886,-12],[142893,-3],[142910,-7],[142929,2],[142931,1],[142979,-2],[142989,-25],[143051,-2],[143114,2],[143116,-47],[143125,-19],[143133,-18],[143154,-15],[143203,7],[143221,11],[143222,-5],[143255,27],[143347,-9],[143367,-16],[143382,-9],[143414,2],[143424,4],[143443,-3],[143447,-47],[143454,-8],[143463,-2],[143504,18],[143513,-1],[143514,9],[143519,-15],[143535,-18],[143571,-2],[143640,2],[143654,-15],[143656,-2],[143675,-15],[143692,-1],[143721,9],[143734,3],[143743,-3],[143772,-30],[143785,-2],[143798,-2],[143801,11],[143811,-47],[143820,-3],[143825,6],[143827,57],[143836,4],[143839,4],[143871,-2],[143910,-34],[143913,-34],[143915,-18],[143931,-10],[143964,-16],[143966,-12],[143985,-3],[143993,8],[144020,-15],[144030,6],[144087,27],[144089,-23],[144097,13],[144131,-18],[144138,-26],[144178,-2],[144184,-3],[144317,9],[144334,-6],[144358,-3],[144377,-16],[144441,-21],[144468,-6],[144489,-15],[144490,8],[144496,-41],[144504,3],[144507,-15],[144565,6],[144570,-1],[144578,19],[144608,-15],[144625,2],[144656,-10],[144671,-1],[144675,2],[144715,-16],[144728,-18],[144732,1],[144737,11],[144765,-43],[144769,-26],[144781,3],[144783,62],[144786,-2],[144790,-26],[144800,-2],[144805,-1],[144813,-2],[144817,-6],[144832,-21],[144835,-15],[144878,15],[144974,-37],[144978,-3],[144981,-23],[145002,2],[145067,-2],[145092,-1],[145098,-23],[145101,-34],[145105,8],[145126,-2],[145130,-1],[145149,8],[145164,-19],[145179,-10],[145203,-15],[145211,-2],[145270,13],[145304,-9],[145332,-1],[145345,-3],[145355,3],[145362,57],[145443,-8],[145453,8],[145461,-2],[145521,-18],[145542,-2],[145550,8],[145554,2],[145629,-18],[145630,-1],[145659,-6],[145674,-43],[145699,-4],[145714,-3],[145717,19],[145736,42],[145743,4],[145750,-11],[145760,-16],[145765,-2],[145787,-16],[145793,4],[145797,3],[145808,-3],[145822,-1],[145854,4],[145870,2],[145893,-21],[145908,-26],[145945,28],[145980,-16],[146019,57],[146093,3],[146095,-18],[146103,-24],[146112,-1],[146166,-2],[146186,-12],[146190,28],[146225,1],[146226,-2],[146273,3],[146287,3],[146381,-15],[146438,14],[146464,10],[146465,-24],[146484,6],[146558,1],[146569,1],[146571,27],[146575,4],[146607,-2],[146613,2],[146629,1],[146642,-15],[146667,-1],[146685,10],[146714,-15],[146753,-16],[146821,-37],[146862,-1],[146870,-48],[146894,3],[146910,5],[146916,-4],[146918,-4],[146934,10],[146938,-10],[146952,-18],[146957,6],[146970,-1],[146996,-27],[146997,-2],[147009,-19],[147035,-18],[147045,-10],[147054,8],[147079,8],[147104,7],[147118,16],[147163,-16],[147207,-16],[147212,2],[147218,4],[147233,13],[147240,-3],[147257,14],[147280,-1],[147281,-26],[147316,1],[147321,-4],[147324,3],[147327,5],[147334,-4],[147345,-7],[147348,-26],[147380,-26],[147399,-24],[147444,2],[147445,5],[147447,-18],[147454,-24],[147494,-34],[147517,-12],[147532,-2],[147580,-16],[147607,-8],[147625,3],[147645,-2],[147663,-41],[147682,-1],[147687,1],[147712,-7],[147717,-12],[147724,1],[147732,-41],[147736,2],[147745,6],[147749,8],[147784,15],[147802,-32],[147829,-2],[147862,-2],[147869,4],[147879,1],[147942,-2],[147977,18],[148000,-3],[148004,3],[148016,-10],[148021,1],[148028,28],[148067,-24],[148076,8],[148100,1],[148116,1],[148128,34],[148137,-16],[148143,3],[148174,-3],[148238,-15],[148254,-15],[148259,-15],[148286,4],[148365,13],[148370,-1],[148408,38],[148444,8],[148445,-8],[148449,5],[148453,-15],[148465,-1],[148471,-15],[148526,1],[148530,-4],[148566,10],[148570,-1],[148597,-1],[148611,-16],[148621,-2],[148635,-4],[148663,-4],[148670,8],[148705,4],[148729,-49],[148741,15],[148745,-15],[148766,-5],[148776,-5],[148791,-1],[148818,4],[148933,-23],[148937,-15],[148943,3],[148947,-3],[148958,2],[148966,-1],[149029,-20],[149060,-1],[149078,3],[149116,-18],[149144,-1],[149148,7],[149158,-13],[149159,-26],[149167,-3],[149237,6],[149243,-2],[149251,-26],[149285,-21],[149290,-34],[149300,-16],[149317,-15],[149335,3],[149336,-36],[149401,-37],[149402,-15],[149450,-4],[149469,-18],[149470,-16],[149472,2],[149473,-10],[149474,1],[149481,8],[149487,-45],[149529,2],[149574,2],[149589,5],[149664,5],[149703,-4],[149727,-3],[149739,41],[149795,3],[149796,-2],[149800,1],[149813,-16],[149830,-2],[149835,-16],[149866,-16],[149884,1],[149929,1],[149933,-2],[149950,4],[149980,-3],[149982,-24],[149984,-2],[150006,10],[150014,1],[150036,-49],[150062,-9],[150107,-1],[150120,-6],[150142,-4],[150160,-23],[150202,-1],[150205,4],[150219,-10],[150223,-3],[150254,-4],[150268,4],[150272,-15],[150279,-16],[150287,1],[150296,5],[150329,7],[150334,7],[150341,-27],[150363,-28],[150397,-2],[150400,1],[150409,-9],[150411,-3],[150449,13],[150456,5],[150462,-10],[150545,-3],[150557,-3],[150586,-23],[150601,-3],[150624,2],[150631,-3],[150632,1],[150652,-7],[150673,-26],[150713,-8],[150735,1],[150743,27],[150753,-16],[150787,58],[150788,-6],[150823,-7],[150849,1],[150873,-5],[150888,-2],[150890,-7],[150920,-16],[150946,-1],[150948,-38],[150970,-17],[150983,-15],[150987,-9],[151004,-1],[151007,-26],[151039,-4],[151087,1],[151093,1],[151117,5],[151120,14],[151168,2],[151190,-3],[151206,2],[151210,1],[151218,13],[151236,-15],[151281,-14],[151301,-2],[151324,1],[151353,1],[151362,-1],[151371,-2],[151380,-8],[151400,-1],[151403,-43],[151407,2],[151408,-2],[151417,-10],[151472,49],[151486,-16],[151499,26],[151505,-9],[151510,-4],[151524,-47],[151655,1],[151674,-7],[151699,9],[151721,-28],[151739,-26],[151748,-1],[151754,-64],[151767,-49],[151838,-1],[151852,-12],[151875,-16],[151933,-34],[151941,7],[151948,-9],[151950,-3],[151966,-2],[151972,-16],[151986,7],[151990,-4],[152006,-25],[152012,-9],[152028,-5],[152038,-12],[152043,-3],[152058,-26],[152107,4],[152138,-1],[152147,-37],[152159,1],[152196,-15],[152232,4],[152254,17],[152255,-2],[152305,-4],[152321,3],[152371,1],[152385,1],[152388,-17],[152393,-3],[152400,13],[152402,-5],[152414,4],[152415,3],[152509,2],[152520,-2],[152559,6],[152604,3],[152616,-1],[152635,-24],[152653,-23],[152656,-2],[152657,-18],[152661,-38],[152674,-10],[152794,-26],[152796,-5],[152818,15],[152835,6],[152840,-9],[152843,3],[152881,1],[152949,6],[152953,-3],[152967,-16],[152969,14],[152989,4],[153007,-18],[153010,18],[153029,-15],[153032,-1],[153043,-2],[153059,16],[153063,2],[153089,24],[153098,4],[153101,-1],[153107,-13],[153147,-2],[153151,-8],[153153,5],[153187,-18],[153194,-16],[153221,2],[153222,-10],[153247,-28],[153255,-1],[153261,-19],[153285,1],[153299,-2],[153305,1],[153310,4],[153312,-3],[153389,-5],[153390,-5],[153403,2],[153418,-16],[153467,-3],[153551,-16],[153556,12],[153606,-1],[153614,-43],[153616,-23],[153624,1],[153635,4],[153642,-15],[153648,-2],[153649,1],[153667,-16],[153674,1],[153709,-15],[153734,3],[153755,-9],[153821,-3],[153867,-2],[153873,-23],[153875,-2],[153891,11],[153913,1],[153971,-21],[153977,-15],[154018,1],[154027,2],[154053,-7],[154094,39],[154115,-1],[154227,-15],[154234,-1],[154252,-1],[154271,1],[154288,-48],[154310,8],[154314,-18],[154324,-3],[154328,-2],[154355,-4],[154383,-10],[154401,-2],[154473,-15],[154475,4],[154512,-12],[154548,6],[154570,-19],[154574,-15],[154625,23],[154631,-14],[154640,1],[154676,10],[154702,2],[154703,-3],[154710,33],[154717,-6],[154761,-3],[154765,2],[154774,-34],[154783,-15],[154807,-43],[154874,-23],[154896,13],[154917,-26],[154924,-21],[154961,-3],[154978,-2],[154984,-6],[154999,-12],[155034,-16],[155047,-3],[155072,-3],[155083,-2],[155105,3],[155116,-17],[155143,-3],[155209,-2],[155249,-37],[155251,-2],[155268,-18],[155278,-2],[155297,-15],[155299,-1],[155339,3],[155375,3],[155380,-23],[155381,12],[155397,-7],[155400,-3],[155420,-3],[155427,6],[155437,-16],[155450,-5],[155451,-1],[155469,22],[155475,-2],[155512,-4],[155517,-2],[155519,-8],[155522,-26],[155525,-3],[155534,-4],[155546,49],[155569,27],[155592,-5],[155610,-1],[155620,-12],[155654,3],[155659,-20],[155706,-9],[155707,14],[155714,1],[155768,35],[155783,-5],[155784,-18],[155785,9],[155810,-1],[155816,-1],[155817,-3],[155860,-15],[155880,-5],[155891,20],[155896,-34],[155904,-26],[155914,-3],[155932,-9],[155982,3],[155991,-18],[156005,-16],[156016,3],[156049,3],[156057,8],[156073,-2],[156084,-5],[156106,5],[156133,-23],[156164,-10],[156182,-8],[156184,-28],[156197,11],[156226,-17],[156272,-7],[156276,-3],[156282,-2],[156287,-15],[156297,-8],[156352,14],[156384,-9],[156418,-25],[156432,-47],[156445,4],[156460,-9],[156470,-1],[156492,-15],[156503,-13],[156523,-15],[156527,-7],[156533,-4],[156547,1],[156571,-10],[156572,16],[156590,-2],[156617,-2],[156659,7],[156674,-19],[156679,-15],[156683,-1],[156696,-3],[156769,-21],[156790,-1],[156801,-3],[156825,1],[156842,5],[156863,1],[156888,-15],[156906,-16],[156982,-16],[156993,2],[157017,4],[157035,-2],[157049,-8],[157051,-2],[157100,-1],[157129,-16],[157181,-5],[157187,-41],[157228,-3],[157251,2],[157260,-15],[157319,-25],[157348,1],[157354,-3],[157396,-28],[157413,-15],[157418,-15],[157487,-38],[157543,-7],[157583,7],[157594,-12],[157612,-1],[157640,-1],[157661,6],[157669,1],[157675,-6],[157687,15],[157693,-4],[157718,3],[157731,-23],[157732,3],[157760,-37],[157765,-4],[157772,-37],[157782,-23],[157793,1],[157799,22],[157805,-1],[157813,5],[157857,-26],[157865,28],[157866,-18],[157871,-24],[157882,-12],[157890,-4],[157941,-2],[157955,-1],[158009,-1],[158024,-4],[158094,-2],[158109,-37],[158121,2],[158123,-16],[158144,-23],[158178,-37],[158181,-5],[158240,5],[158281,15],[158329,-2],[158336,-18],[158348,7],[158377,-15],[158412,2],[158419,-3],[158426,-1],[158427,-7],[158442,57],[158475,-1],[158480,-1],[158501,-1],[158502,-2],[158504,-26],[158537,-2],[158544,1],[158551,2],[158582,41],[158583,1],[158603,-5],[158605,-8],[158613,-41],[158627,5],[158648,1],[158662,5],[158710,-1],[158722,-18],[158724,5],[158733,7],[158749,-9],[158761,20],[158783,-43],[158824,-7],[158860,-1],[158861,-16],[158864,-5],[158890,-1],[158917,-7],[158941,3],[158946,-1],[158954,-1],[159003,-18],[159035,1],[159050,5],[159067,-26],[159076,1],[159102,-1],[159108,11],[159114,-4],[159119,-12],[159123,-1],[159157,-16],[159209,-24],[159210,8],[159248,-1],[159263,-2],[159337,-3],[159366,-24],[159375,64],[159377,7],[159390,-1],[159413,-2],[159454,-43],[159502,2],[159517,-3],[159522,1],[159542,-26],[159577,-26],[159581,14],[159587,14],[159606,-12],[159621,14],[159625,-15],[159635,-1],[159640,-2],[159648,2],[159670,57],[159673,4],[159679,27],[159694,2],[159749,-16],[159757,-26],[159772,7],[159782,-17],[159788,-43],[159800,-41],[159814,1],[159842,-2],[159856,-23],[159863,-16],[159867,-15],[159879,-1],[159887,-2],[159909,7],[159920,-3],[159959,-48],[159967,-22],[160031,-5],[160034,-10],[160054,-33],[160062,-2],[160063,5],[160067,2],[160070,-47],[160093,-18],[160160,-3],[160172,-2],[160175,1],[160276,26],[160303,-7],[160327,-34],[160347,1],[160356,-1],[160377,1],[160419,9],[160428,-18],[160457,-3],[160466,-26],[160472,-2],[160475,2],[160500,2],[160518,14],[160578,-18],[160580,-9],[160596,3],[160613,-2],[160637,-43],[160659,-18],[160675,-15],[160702,5],[160707,-43],[160748,-2],[160753,-18],[160782,-10],[160793,-25],[160803,2],[160850,-15],[160875,-10],[160882,-4],[160894,15],[160920,-17],[160955,-1],[160990,-16],[160993,-3],[160997,-43],[161035,2],[161114,41],[161122,-4],[161150,-3],[161161,-25],[161164,-34],[161176,-48],[161214,5],[161278,-1],[161296,1],[161302,-15],[161307,-7],[161322,-23],[161323,-16],[161336,3],[161346,-16],[161360,-7],[161377,-7],[161420,4],[161458,-12],[161465,1],[161475,-2],[161515,-1],[161531,8],[161532,-15],[161537,-37],[161546,-3],[161548,4],[161557,-16],[161603,1],[161643,25],[161652,-1],[161657,-15],[161681,22],[161696,-26],[161700,-2],[161705,8],[161707,-2],[161717,-11],[161724,-15],[161726,36],[161754,-17],[161756,-3],[161760,1],[161762,1],[161763,-34],[161772,28],[161783,-73],[161832,-5],[161850,-2],[161856,-16],[161864,12],[161880,20],[161953,-2],[161970,1],[161994,11],[162002,7],[162005,8],[162053,-23],[162123,-7],[162144,-26],[162163,-1],[162212,8],[162234,-8],[162235,10],[162288,-3],[162291,-7],[162305,-15],[162310,-1],[162338,-5],[162343,-26],[162348,2],[162379,1],[162405,9],[162419,3],[162455,1],[162480,-6],[162490,1],[162531,-16],[162556,7],[162566,-12],[162568,13],[162655,23],[162667,1],[162680,-5],[162681,-48],[162693,-4],[162713,3],[162717,16],[162739,-16],[162751,22],[162773,-9],[162840,3],[162849,-2],[162875,15],[162893,7],[162903,8],[162944,1],[162964,-16],[162969,2],[162999,-5],[163007,23],[163022,50],[163061,-43],[163092,-24],[163098,-8],[163121,-2],[163216,-17],[163238,-16],[163250,-8],[163257,27],[163283,-18],[163304,-1],[163313,-16],[163332,27],[163372,1],[163392,2],[163452,-43],[163455,-29],[163474,2],[163499,11],[163504,-15],[163511,-15],[163518,-4],[163539,15],[163543,-2],[163579,-18],[163581,6],[163649,5],[163651,-3],[163656,8],[163665,-5],[163672,2],[163673,-5],[163686,47],[163694,-23],[163710,-24],[163728,-3],[163746,-43],[163753,-9],[163762,15],[163770,-19],[163844,-3],[163878,-3],[163925,3],[163950,-1],[164008,4],[164057,-31],[164072,-26],[164091,-15],[164097,-47],[164143,-3],[164178,2],[164185,-43],[164192,11],[164217,1],[164251,1],[164288,25],[164315,-1],[164324,-15],[164364,-43],[164398,-1],[164400,-1],[164403,-1],[164438,10],[164456,1],[164469,-4],[164485,5],[164502,-15],[164546,-16],[164547,-1],[164563,12],[164571,8],[164589,7],[164609,-16],[164612,-15],[164672,1],[164696,-2],[164729,3],[164751,6],[164756,-35],[164793,-34],[164809,-2],[164827,-37],[164833,-12],[164848,-12],[164867,-3],[164894,-28],[164901,-19],[164927,14],[164980,-37],[164984,-1],[165004,4],[165014,-1],[165016,-4],[165017,6],[165022,-26],[165081,-49],[165082,-28],[165083,-19],[165091,5],[165132,-15],[165136,-10],[165158,-16],[165159,-15],[165162,-9],[165185,-43],[165195,-16],[165196,-26],[165215,-3],[165267,-37],[165274,-28],[165285,27],[165293,-15],[165308,-19],[165316,-41],[165326,4],[165354,-1],[165355,-5],[165387,-15],[165446,-1],[165543,3],[165557,-23],[165562,-2],[165568,-3],[165575,-12],[165623,-1],[165633,-23],[165660,-16],[165674,2],[165702,-24],[165735,-15],[165740,-21],[165790,-12],[165808,-1],[165810,-2],[165814,-5],[165830,-2],[165838,-1],[165860,-4],[165873,-25],[165948,-18],[165965,28],[165969,2],[165997,12],[166030,5],[166084,-1],[166091,-8],[166099,-15],[166129,-3],[166135,1],[166149,-3],[166193,4],[166213,3],[166215,-37],[166263,-10],[166284,6],[166293,-1],[166326,-18],[166333,2],[166407,16],[166429,-1],[166510,7],[166536,-16],[166562,-1],[166574,5],[166596,1],[166603,7],[166604,-23],[166616,-2],[166622,-28],[166687,-1],[166688,6],[166732,-15],[166735,-15],[166749,-16],[166795,2],[166819,-2],[166821,-11],[166827,-2],[166845,13],[166855,5],[166902,-81],[166917,-1],[166960,27],[166977,5],[166994,5],[166999,-6],[167012,21],[167029,-16],[167035,-26],[167038,4],[167105,-37],[167107,3],[167108,-18],[167131,-2],[167191,3],[167208,1],[167215,-1],[167264,6],[167275,-3],[167328,-7],[167334,6],[167341,4],[167356,13],[167358,1],[167389,2],[167400,-16],[167403,1],[167452,-4],[167483,-2],[167493,16],[167506,-12],[167526,-25],[167552,14],[167590,-4],[167621,1],[167623,-43],[167627,3],[167633,-1],[167634,-16],[167638,-7],[167651,-8],[167660,19],[167663,-2],[167697,12],[167725,6],[167740,-18],[167746,-4],[167772,1],[167825,4],[167834,-1],[167852,-7],[167853,-2],[167879,-15],[167904,-18],[167922,-3],[167932,7],[167962,-1],[167985,-5],[167995,-15],[168006,-2],[168025,-34],[168036,-2],[168059,-26],[168075,-15],[168087,-15],[168091,-1],[168144,7],[168150,-16],[168174,-3],[168227,-18],[168228,29],[168267,18],[168333,-3],[168339,-3],[168400,-7],[168404,8],[168445,57],[168453,12],[168496,-65],[168525,1],[168532,-10],[168567,-4],[168572,-2],[168596,-41],[168598,-37],[168613,-23],[168622,8],[168658,5],[168694,-5],[168702,57],[168719,2],[168724,13],[168752,-23],[168755,-47],[168762,-6],[168764,-26],[168766,1],[168794,3],[168842,-1],[168851,-48],[168864,-16],[168865,19],[168997,-1],[169017,4],[169026,-15],[169034,12],[169042,-15],[169075,-12],[169078,-15],[169111,-16],[169139,27],[169142,25],[169150,2],[169193,2],[169198,-3],[169204,-18],[169217,-2],[169258,-5],[169282,3],[169292,-43],[169332,-16],[169349,-26],[169396,8],[169405,-4],[169417,-1],[169420,-3],[169430,-21],[169472,-2],[169483,-4],[169486,17],[169508,28],[169512,-2],[169520,-24],[169524,1],[169579,2],[169607,-41],[169614,4],[169631,-37],[169647,-17],[169694,2],[169695,-5],[169722,-3],[169732,-47],[169741,-16],[169773,-3],[169776,3],[169792,-18],[169807,-24],[169827,1],[169840,1],[169857,-1],[169899,10],[169911,-2],[169950,-10],[169966,-34],[170022,-15],[170025,4],[170033,-37],[170036,-15],[170044,-16],[170052,-49],[170145,-9],[170165,22],[170174,30],[170176,-1],[170194,-8],[170195,-16],[170223,2],[170239,-16],[170243,-15],[170255,-16],[170322,8],[170360,5],[170364,-16],[170407,-16],[170439,1],[170454,-1],[170465,-12],[170476,-15],[170499,6],[170528,-24],[170592,-37],[170630,-43],[170631,23],[170633,-1],[170640,4],[170660,-28],[170711,2],[170724,-3],[170752,-25],[170755,3],[170790,-2],[170802,8],[170854,-3],[170880,22],[170905,-2],[170931,-1],[170932,-31],[170939,-26],[170942,-3],[170953,-2],[170958,-8],[170970,-2],[171046,-15],[171049,-9],[171075,-34],[171078,-9],[171088,7],[171103,-34],[171105,-2],[171115,-47],[171136,6],[171138,-4],[171142,-1],[171191,1],[171231,-34],[171235,-15],[171260,-16],[171264,5],[171273,-1],[171280,-26],[171294,7],[171317,-9],[171345,4],[171372,-12],[171380,-37],[171392,-49],[171393,-1],[171406,-3],[171432,-2],[171460,-26],[171476,-3],[171497,-2],[171513,-5],[171523,-9],[171544,-4],[171561,-9],[171564,-15],[171573,22],[171583,-8],[171595,-2],[171610,-48],[171611,-3],[171615,-7],[171618,4],[171639,26],[171647,-1],[171649,-1],[171690,-19],[171692,-15],[171746,-2],[171793,4],[171810,-7],[171813,-11],[171827,-15],[171851,-2],[171855,-2],[171893,-27],[171911,-3],[171945,-4],[171948,-25],[171962,-4],[171963,-47],[172003,-3],[172014,-1],[172030,-37],[172036,-37],[172057,-16],[172093,1],[172118,20],[172125,-2],[172140,-15],[172160,-1],[172208,-9],[172238,1],[172243,-26],[172258,-7],[172280,5],[172293,5],[172312,-17],[172317,3],[172339,-43],[172391,2],[172403,4],[172423,-26],[172466,-7],[172505,-4],[172564,-37],[172602,-15],[172641,-5],[172661,8],[172674,-15],[172690,3],[172700,-1],[172709,25],[172713,9],[172726,6],[172756,-12],[172799,-49],[172815,-16],[172820,1],[172837,3],[172842,-12],[172857,10],[172899,-15],[172900,-3],[172910,1],[172918,-37],[172920,11],[172926,-37],[172943,-21],[172979,-25],[173027,-4],[173044,-1],[173049,-2],[173053,-18],[173078,-7],[173085,6],[173103,-1],[173111,7],[173160,14],[173172,-15],[173209,1],[173217,-10],[173220,-12],[173223,1],[173235,-1],[173243,-28],[173248,-2],[173262,27],[173284,-1],[173288,-3],[173337,-1],[173344,-5],[173389,-26],[173400,5],[173404,-1],[173421,-6],[173425,-17],[173432,-15],[173440,-3],[173447,2],[173459,-3],[173460,13],[173476,6],[173506,-4],[173515,4],[173517,-3],[173539,-28],[173544,-43],[173572,-3],[173587,-16],[173607,-4],[173612,1],[173626,-2],[173639,1],[173654,3],[173714,10],[173752,-2],[173771,-34],[173784,-18],[173797,15],[173798,-19],[173802,-16],[173828,-4],[173883,-37],[173897,-2],[173906,4],[173907,-49],[173967,-43],[174000,1],[174015,13],[174065,-26],[174094,42],[174096,1],[174097,5],[174108,12],[174114,2],[174131,-15],[174159,-6],[174168,-26],[174188,-4],[174204,-16],[174218,-2],[174231,-1],[174253,-9],[174260,-43],[174312,-2],[174330,28],[174331,1],[174344,-43],[174345,-16],[174394,1],[174404,5],[174447,-10],[174467,-16],[174484,1],[174515,-2],[174552,-2],[174554,6],[174563,-15],[174615,7],[174634,1],[174642,-2],[174702,-12],[174718,-21],[174763,5],[174773,-12],[174780,-1],[174796,-15],[174799,-2],[174806,2],[174810,1],[174841,2],[174848,-4],[174858,-3],[174862,12],[174890,-2],[174899,-15],[174900,24],[174917,1],[174948,1],[174955,-2],[174974,14],[175028,15],[175055,14],[175078,19],[175100,-1],[175110,-23],[175115,17],[175127,-1],[175150,-18],[175174,22],[175211,-2],[175230,-12],[175242,-24],[175243,-25],[175249,-1],[175300,-2],[175315,4],[175364,-12],[175366,7],[175387,-2],[175410,-1],[175471,-18],[175482,-1],[175573,19],[175581,6],[175592,13],[175606,3],[175630,1],[175679,-12],[175683,4],[175713,-37],[175737,-1],[175740,-37],[175753,-37],[175758,10],[175776,4],[175779,-3],[175799,5],[175825,-47],[175873,-16],[175897,1],[175953,-19],[175975,-10],[176000,-12],[176003,-4],[176030,-15],[176039,-9],[176060,-37],[176061,-4],[176086,1],[176109,2],[176141,-2],[176158,-24],[176170,25],[176182,3],[176204,14],[176220,-1],[176260,-4],[176280,-4],[176290,-2],[176359,-2],[176379,-2],[176389,-23],[176420,-3],[176423,4],[176432,1],[176449,1],[176479,-15],[176557,5],[176559,-2],[176588,-17],[176602,-15],[176631,-5],[176650,-6],[176663,-15],[176679,-12],[176688,6],[176735,-15],[176761,-7],[176829,-3],[176854,-22],[176856,20],[176866,-2],[176879,-2],[176894,-4],[176898,2],[176906,-43],[176926,-2],[176933,-37],[176950,-9],[176965,-1],[176970,15],[176976,-2],[177017,-1],[177032,-15],[177038,3],[177065,-16],[177092,27],[177112,17],[177116,13],[177143,-12],[177188,4],[177193,-10],[177199,-52],[177200,20],[177201,-1],[177215,1],[177229,-27],[177239,1],[177242,-3],[177276,-1],[177285,-10],[177291,-16],[177336,2],[177338,8],[177362,17],[177367,-47],[177449,19],[177519,3],[177557,-18],[177567,-15],[177584,3],[177588,2],[177590,-19],[177600,2],[177602,-22],[177639,1],[177663,20],[177665,-2],[177676,1],[177698,1],[177714,-2],[177723,3],[177744,5],[177748,-7],[177753,-2],[177837,3],[177858,6],[177866,-2],[177894,-26],[177918,11],[177929,-16],[177970,-1],[178036,-6],[178038,19],[178046,28],[178060,-28],[178075,-1],[178130,-4],[178132,14],[178134,-18],[178149,-48],[178154,-2],[178156,-24],[178161,8],[178188,4],[178227,16],[178268,12],[178305,-47],[178309,-18],[178339,-4],[178374,4],[178398,26],[178401,3],[178414,-12],[178447,-10],[178448,-10],[178464,-6],[178491,-23],[178496,-5],[178499,17],[178504,14],[178511,-15],[178533,8],[178539,-37],[178548,8],[178569,-37],[178585,6],[178590,2],[178631,-15],[178641,-21],[178665,27],[178680,-2],[178710,-2],[178793,6],[178797,-16],[178799,-4],[178810,2],[178877,5],[178898,-1],[178966,-2],[178978,-9],[178995,-4],[179005,-9],[179040,5],[179050,-3],[179094,-2],[179102,-15],[179140,3],[179153,-1],[179178,-43],[179222,-16],[179228,1],[179261,-21],[179264,6],[179277,-5],[179296,4],[179319,-8],[179321,-13],[179368,-13],[179371,-24],[179379,-15],[179389,-15],[179396,-33],[179436,-1],[179492,-28],[179494,-2],[179507,-1],[179516,-21],[179575,1],[179612,-15],[179651,-1],[179656,-19],[179657,4],[179668,7],[179672,6],[179709,-28],[179716,-28],[179727,5],[179770,5],[179778,2],[179834,1],[179839,-16],[179847,-26],[179860,1],[179865,-16],[179871,3],[179897,3],[179917,6],[179941,-4],[179970,1],[179971,-15],[179995,-3],[180010,-16],[180020,-6],[180080,-10],[180108,-35],[180127,-4],[180136,2],[180138,57],[180171,1],[180214,-37],[180296,2],[180300,20],[180327,-16],[180334,-23],[180342,3],[180349,3],[180399,-5],[180511,1],[180516,3],[180517,-7],[180544,10],[180545,4],[180549,-9],[180557,-15],[180565,43],[180627,5],[180637,19],[180668,1],[180674,2],[180691,3],[180701,-2],[180703,-2],[180726,6],[180730,23],[180744,26],[180771,2],[180775,-15],[180794,13],[180820,-19],[180841,-16],[180882,-41],[180888,-22],[180900,1],[180927,-2],[180933,46],[180945,-1],[180948,-3],[180953,30],[180979,-7],[180993,-37],[181026,-16],[181058,-3],[181082,-13],[181098,-1],[181121,1],[181138,-43],[181148,-23],[181178,-10],[181202,-1],[181222,-26],[181227,-21],[181241,-2],[181252,4],[181270,-15],[181302,-2],[181309,-1],[181316,-15],[181347,-2],[181351,1],[181375,-16],[181382,5],[181412,-3],[181423,-3],[181433,-15],[181435,-1],[181457,1],[181462,-8],[181509,-3],[181510,-2],[181517,-1],[181538,-12],[181548,-16],[181602,-15],[181663,3],[181677,3],[181733,2],[181767,-16],[181779,-24],[181784,-15],[181792,-3],[181807,-1],[181814,1],[181848,7],[181854,-43],[181874,28],[181886,-1],[181896,3],[181897,-16],[181909,-16],[181917,-16],[181950,-41],