{"version":3,"format":"fnv1a-char-ngram-logreg-v1","dim":262144,"ngramMin":3,"ngramMax":5,"bias":-0.029027876854233137,"scale":0.016121583805050934,"weights":[[11,45],[27,-5],[38,-2],[44,-10],[45,37],[56,2],[72,-2],[75,18],[81,6],[88,10],[105,-7],[122,-1],[136,-1],[164,-10],[168,-11],[185,-2],[196,-1],[199,-2],[201,-1],[212,-7],[246,-7],[264,52],[287,-6],[313,14],[319,-2],[330,-10],[374,-1],[396,-10],[398,-1],[426,10],[427,-11],[436,-2],[446,-9],[456,-10],[459,4],[461,-4],[467,45],[468,-12],[480,-9],[488,-1],[499,-6],[536,-1],[551,-22],[567,-3],[569,-10],[616,-5],[621,-24],[632,-5],[683,-10],[744,-8],[762,-2],[777,-3],[783,-3],[792,-3],[794,-6],[801,-15],[812,-24],[852,-12],[871,-5],[893,-1],[902,-3],[915,6],[949,-11],[984,-2],[1005,-11],[1007,-5],[1014,-12],[1038,-1],[1046,-6],[1053,-1],[1054,-6],[1063,-1],[1069,-1],[1076,-1],[1077,-1],[1079,12],[1087,-2],[1097,-1],[1124,-3],[1135,8],[1136,-10],[1151,-9],[1156,-12],[1170,10],[1172,-2],[1199,-10],[1204,-2],[1210,-1],[1212,-7],[1214,-2],[1222,-5],[1247,6],[1282,-1],[1303,24],[1313,-4],[1317,-7],[1329,-10],[1332,-2],[1367,-1],[1368,-1],[1413,74],[1419,-5],[1442,-14],[1444,-3],[1469,-4],[1476,-3],[1486,-6],[1512,-1],[1520,-3],[1523,-3],[1538,11],[1552,-2],[1569,-1],[1581,-10],[1593,-6],[1594,-1],[1595,-9],[1602,-5],[1607,-24],[1644,-2],[1681,18],[1695,-1],[1704,13],[1707,-7],[1710,-5],[1735,5],[1745,-6],[1746,-5],[1762,2],[1777,-2],[1788,-14],[1834,-4],[1858,-5],[1881,-1],[1910,-5],[1929,-7],[1932,-1],[1945,-17],[1962,-10],[1977,-9],[1997,-13],[2010,-21],[2016,2],[2070,-11],[2073,-2],[2077,-5],[2078,-1],[2080,2],[2089,-3],[2098,-1],[2110,-4],[2120,-7],[2128,-12],[2139,-12],[2160,-1],[2198,-5],[2259,-4],[2279,-5],[2288,-4],[2290,-6],[2319,-21],[2325,-20],[2335,-10],[2348,-5],[2357,-8],[2360,-20],[2371,1],[2382,44],[2384,-3],[2387,1],[2388,-2],[2397,-14],[2407,-9],[2413,-12],[2422,-4],[2424,-35],[2455,-1],[2490,-6],[2501,10],[2510,-8],[2524,-7],[2536,-1],[2551,-1],[2565,18],[2582,-1],[2610,10],[2625,49],[2635,-2],[2641,1],[2643,-5],[2660,-11],[2663,-8],[2683,-7],[2692,-10],[2703,-2],[2725,-5],[2726,-1],[2731,-4],[2756,-6],[2771,-8],[2782,11],[2807,-7],[2812,-14],[2816,1],[2824,-1],[2826,1],[2828,21],[2841,-7],[2881,-1],[2884,-1],[2898,-9],[2913,27],[2933,-2],[2989,-10],[3015,-11],[3017,2],[3023,-10],[3026,-4],[3045,-3],[3047,-11],[3057,64],[3059,-10],[3079,-13],[3087,-2],[3096,-2],[3110,-18],[3122,-5],[3153,-11],[3173,-4],[3182,-12],[3194,-4],[3208,-2],[3244,-3],[3259,-1],[3279,-2],[3287,-15],[3303,-5],[3316,-11],[3339,-6],[3351,-9],[3394,-3],[3395,-3],[3413,-1],[3424,-1],[3454,-3],[3458,-12],[3494,-1],[3513,-9],[3527,-3],[3528,-22],[3530,-1],[3545,-5],[3567,-9],[3572,8],[3587,-3],[3588,-13],[3597,-7],[3607,-2],[3609,-3],[3627,2],[3636,-1],[3646,-4],[3663,-1],[3684,5],[3706,-5],[3717,-1],[3726,-20],[3730,-1],[3735,-8],[3741,-7],[3745,1],[3750,-3],[3760,-9],[3769,-1],[3771,-5],[3832,-7],[3834,-5],[3840,-21],[3855,-21],[3861,-3],[3868,-2],[3871,-27],[3894,-8],[3904,-1],[3938,-1],[3942,-3],[3960,-2],[3961,-3],[3986,-4],[3992,-1],[4003,-2],[4007,1],[4010,-2],[4018,-8],[4019,7],[4022,-5],[4032,39],[4041,-2],[4048,-5],[4051,-2],[4072,-5],[4090,9],[4110,-2],[4111,-3],[4118,-2],[4124,8],[4128,-12],[4148,-2],[4152,-5],[4161,-6],[4163,-3],[4199,-1],[4209,-1],[4216,1],[4226,-2],[4235,-1],[4239,-10],[4249,9],[4255,-4],[4267,-3],[4272,-13],[4275,-1],[4276,-29],[4285,2],[4294,-2],[4295,-18],[4319,-15],[4325,-9],[4343,-3],[4387,-7],[4393,-3],[4398,6],[4435,37],[4444,-6],[4457,-1],[4476,-1],[4485,-6],[4505,-21],[4513,-2],[4523,-1],[4529,-2],[4542,-12],[4594,-4],[4598,-5],[4604,-4],[4623,6],[4629,-4],[4631,8],[4665,-2],[4673,-7],[4676,-6],[4679,-2],[4712,-5],[4719,-6],[4735,-3],[4772,-7],[4797,-21],[4810,1],[4815,-1],[4842,-21],[4845,-2],[4867,-8],[4878,-15],[4893,-1],[4908,-2],[4990,-4],[5010,-5],[5016,-11],[5027,-1],[5029,4],[5046,-3],[5052,-2],[5089,-1],[5093,-8],[5097,-3],[5098,-5],[5101,-3],[5112,-13],[5138,-9],[5156,-5],[5160,-10],[5177,-10],[5179,-1],[5187,-1],[5194,-6],[5195,-1],[5206,-5],[5209,-8],[5236,-1],[5241,21],[5248,-10],[5274,-4],[5296,-5],[5321,-4],[5331,-1],[5345,-8],[5359,2],[5368,-2],[5401,-3],[5415,-6],[5442,-3],[5444,-3],[5468,-8],[5474,-7],[5476,7],[5479,42],[5488,12],[5495,-2],[5499,-6],[5524,-5],[5534,-19],[5549,-2],[5568,6],[5580,-2],[5587,-3],[5589,-2],[5592,-1],[5596,-1],[5601,43],[5603,-19],[5616,-10],[5629,-6],[5634,-2],[5638,-1],[5639,-11],[5644,9],[5651,-2],[5660,24],[5678,-1],[5703,-1],[5710,-4],[5748,-7],[5764,2],[5768,-9],[5844,-14],[5852,-3],[5878,-1],[5896,-6],[5900,8],[5907,24],[5954,-6],[5972,-3],[5974,-9],[5976,-11],[5996,-7],[5998,-6],[6017,-11],[6029,-17],[6031,-11],[6047,11],[6077,-1],[6088,-6],[6103,-14],[6140,-4],[6162,-6],[6163,-3],[6164,-4],[6178,-5],[6180,-6],[6208,-7],[6213,-1],[6223,-7],[6244,-11],[6250,1],[6252,-8],[6279,1],[6288,-2],[6312,-11],[6336,-10],[6352,-5],[6389,-11],[6421,-5],[6422,-1],[6425,-9],[6449,-9],[6450,6],[6471,-2],[6496,37],[6502,-8],[6512,-20],[6529,11],[6530,-6],[6531,-6],[6535,-9],[6543,-4],[6551,-12],[6581,-1],[6588,-8],[6602,-2],[6606,12],[6624,-2],[6630,23],[6641,-8],[6644,-6],[6651,6],[6653,-2],[6670,-1],[6674,-10],[6677,-5],[6689,-2],[6690,1],[6691,-2],[6713,-3],[6733,-2],[6750,-13],[6769,-1],[6807,-1],[6826,-1],[6830,-7],[6853,23],[6856,-8],[6868,-1],[6880,2],[6890,-8],[6892,23],[6914,-9],[6957,-4],[6977,41],[6982,-1],[6991,13],[7013,-4],[7019,-1],[7027,-10],[7044,-6],[7047,3],[7050,-12],[7078,-1],[7096,-4],[7108,-12],[7112,-4],[7115,-5],[7130,-3],[7142,-21],[7145,-17],[7180,5],[7207,-1],[7210,3],[7226,-4],[7242,18],[7260,-2],[7264,-3],[7326,-4],[7349,-43],[7371,-4],[7372,-7],[7388,-3],[7400,-5],[7431,-2],[7442,-10],[7447,-4],[7450,-1],[7456,-1],[7473,-3],[7489,-6],[7512,24],[7513,-12],[7520,3],[7526,-2],[7571,-1],[7574,-2],[7609,-10],[7611,-8],[7618,-9],[7623,-2],[7629,-4],[7650,-6],[7653,2],[7654,5],[7659,3],[7685,-2],[7709,-2],[7720,-12],[7744,-5],[7745,51],[7802,-3],[7821,-2],[7826,-4],[7885,-11],[7904,-1],[7905,-1],[7932,-10],[7946,-3],[7982,-2],[7986,-1],[7996,-1],[8024,-4],[8028,-7],[8031,-15],[8034,-8],[8037,-11],[8054,-5],[8062,-21],[8069,-18],[8075,-4],[8079,-1],[8081,-9],[8082,-16],[8083,-2],[8085,-2],[8147,-4],[8157,-2],[8166,-7],[8171,-6],[8186,1],[8204,-21],[8225,-4],[8261,-9],[8284,-21],[8288,-6],[8295,-3],[8310,-8],[8349,-6],[8355,-2],[8356,-3],[8366,-1],[8367,-3],[8404,-3],[8416,2],[8432,-3],[8452,-6],[8465,30],[8478,-1],[8479,-1],[8511,-3],[8526,-5],[8536,19],[8554,-5],[8574,49],[8582,-3],[8596,-4],[8624,-7],[8638,32],[8643,-5],[8648,-3],[8659,-9],[8677,-1],[8692,-21],[8710,-3],[8736,25],[8761,-7],[8777,-6],[8780,23],[8794,-11],[8853,8],[8860,-8],[8869,-6],[8874,-5],[8875,-9],[8887,-6],[8891,-4],[8894,-9],[8895,-8],[8903,-32],[8930,-7],[8954,-16],[8979,1],[8994,-7],[8999,-1],[9012,8],[9029,-4],[9034,-5],[9037,-3],[9051,-4],[9052,-4],[9070,2],[9100,-4],[9113,-9],[9114,-2],[9127,-10],[9132,-5],[9142,-10],[9208,1],[9209,8],[9221,54],[9224,-5],[9225,-7],[9246,-5],[9255,-7],[9310,-7],[9348,-7],[9359,-9],[9368,-7],[9382,-1],[9384,-4],[9445,-2],[9450,27],[9451,1],[9455,-1],[9476,-3],[9505,-2],[9516,-2],[9524,-4],[9529,-1],[9533,-2],[9556,27],[9570,-7],[9576,-3],[9598,-1],[9608,15],[9619,-10],[9627,-2],[9629,-4],[9632,-1],[9663,-1],[9668,-21],[9680,-6],[9684,-11],[9696,-2],[9738,-11],[9754,-2],[9764,-9],[9769,-4],[9790,-11],[9795,4],[9812,3],[9813,-3],[9824,-1],[9826,-1],[9832,-7],[9880,-6],[9919,1],[9924,17],[9929,-4],[9953,-4],[9967,13],[9970,23],[9981,-10],[9989,21],[10003,-1],[10009,-7],[10015,-13],[10018,-6],[10029,-3],[10052,38],[10064,-7],[10066,-6],[10067,-16],[10072,-8],[10107,-2],[10116,-5],[10122,-1],[10143,-2],[10145,-1],[10167,20],[10175,46],[10188,2],[10199,-7],[10204,-6],[10240,-11],[10252,-11],[10295,18],[10298,-7],[10306,-20],[10339,-21],[10340,-1],[10353,-7],[10370,-10],[10379,-10],[10388,-9],[10389,4],[10409,-2],[10425,-8],[10439,49],[10441,-1],[10460,-1],[10475,-6],[10480,80],[10489,4],[10491,-7],[10528,-6],[10529,-7],[10560,-2],[10575,-5],[10576,-1],[10601,44],[10619,-6],[10628,-10],[10649,32],[10669,-7],[10725,1],[10738,-4],[10753,-2],[10761,-5],[10773,-14],[10784,-5],[10800,-2],[10803,-1],[10804,-4],[10807,-9],[10840,-5],[10846,-4],[10859,2],[10883,20],[10893,-8],[10902,-5],[10930,-11],[10932,-7],[10964,-6],[11001,-7],[11013,51],[11032,40],[11051,48],[11066,-6],[11106,-1],[11135,4],[11144,-25],[11199,-7],[11202,-10],[11203,27],[11211,-8],[11222,-11],[11226,-4],[11230,30],[11231,-1],[11245,-1],[11267,-3],[11282,-1],[11286,-19],[11289,39],[11308,-5],[11319,-2],[11365,27],[11382,19],[11390,-5],[11411,41],[11440,-3],[11453,27],[11459,1],[11478,-2],[11479,-1],[11481,-10],[11487,-1],[11517,-1],[11531,-22],[11533,-6],[11542,-3],[11549,-2],[11559,-9],[11575,-7],[11585,-3],[11586,12],[11593,-21],[11611,-3],[11613,4],[11614,-2],[11619,-9],[11621,-6],[11633,24],[11643,-1],[11649,-2],[11678,-2],[11688,-17],[11698,20],[11700,-5],[11702,-5],[11708,-6],[11762,-4],[11794,35],[11798,-5],[11812,-2],[11826,-14],[11829,-3],[11835,-14],[11859,-11],[11892,-26],[11900,-4],[11956,-3],[11963,-8],[11973,5],[11980,-1],[11988,-6],[12005,2],[12043,-2],[12081,-1],[12086,-21],[12092,13],[12111,-8],[12118,-5],[12119,-3],[12124,-5],[12126,-3],[12142,-4],[12185,-40],[12214,-1],[12226,-2],[12251,-1],[12259,-2],[12292,5],[12298,-12],[12315,1],[12328,-32],[12338,-11],[12357,33],[12362,-2],[12379,-1],[12385,-13],[12387,7],[12401,-4],[12408,12],[12411,-7],[12417,-25],[12418,-8],[12421,-7],[12426,-5],[12434,-10],[12437,-7],[12467,-10],[12482,-5],[12493,-3],[12495,1],[12506,-6],[12507,-5],[12524,-8],[12528,-8],[12531,35],[12533,-6],[12549,-14],[12566,-2],[12584,11],[12620,52],[12661,-3],[12672,-4],[12674,-6],[12703,-3],[12714,-8],[12715,12],[12725,-7],[12726,-3],[12748,-2],[12769,-1],[12774,10],[12775,-17],[12784,-21],[12796,-1],[12815,-2],[12833,-5],[12839,-10],[12843,1],[12864,-7],[12877,-1],[12887,-2],[12898,37],[12901,-13],[12909,-3],[12924,-1],[12926,-1],[12970,-7],[12974,2],[12978,-2],[12989,-5],[13004,-10],[13020,-3],[13053,-2],[13055,-3],[13061,-21],[13071,-4],[13074,7],[13093,7],[13095,-7],[13112,-9],[13129,-3],[13132,-8],[13141,-1],[13142,5],[13161,2],[13189,-1],[13191,-45],[13197,-3],[13198,-3],[13199,-7],[13219,21],[13225,12],[13226,-4],[13250,-8],[13251,-3],[13263,-1],[13273,-2],[13279,-1],[13285,-1],[13288,-14],[13294,1],[13301,9],[13320,-16],[13322,-6],[13332,-5],[13336,-1],[13380,-3],[13381,-1],[13384,-5],[13422,-6],[13462,-9],[13470,-2],[13471,35],[13483,-9],[13488,-1],[13491,-2],[13495,-10],[13498,22],[13511,-9],[13521,-3],[13552,-4],[13567,-7],[13568,-2],[13569,-7],[13570,-4],[13578,-1],[13589,-2],[13608,-2],[13624,-5],[13627,-2],[13632,-30],[13648,-9],[13655,-10],[13679,-1],[13693,-7],[13696,-13],[13704,14],[13710,-2],[13711,-9],[13712,-5],[13717,24],[13719,-4],[13758,-5],[13775,-3],[13787,24],[13788,-4],[13801,10],[13819,-2],[13820,18],[13830,-21],[13854,27],[13874,-10],[13883,-4],[13906,-8],[13927,-3],[13931,-2],[13971,-13],[13977,-6],[13988,-10],[13993,-1],[13997,8],[13998,-6],[14029,-5],[14035,-21],[14038,-4],[14047,-7],[14107,-4],[14109,-16],[14126,-3],[14161,-4],[14169,-2],[14176,-6],[14189,-12],[14218,-2],[14225,-6],[14267,-1],[14270,-4],[14274,-7],[14283,-9],[14292,-6],[14299,1],[14303,-12],[14310,-4],[14330,-3],[14352,-1],[14358,-11],[14359,-21],[14369,-1],[14374,-7],[14382,48],[14386,-5],[14419,-9],[14427,15],[14456,-1],[14460,-4],[14461,-5],[14467,-4],[14469,-6],[14471,-17],[14474,-4],[14493,-4],[14505,-20],[14510,18],[14527,-22],[14539,-27],[14549,-12],[14593,-2],[14596,-10],[14601,-1],[14609,3],[14619,-8],[14653,-9],[14679,-1],[14734,-3],[14745,-2],[14746,-3],[14774,-1],[14777,-6],[14815,-11],[14825,-4],[14830,-21],[14839,32],[14851,-1],[14857,-5],[14900,-1],[14910,-1],[14913,17],[14935,-3],[14950,-2],[14955,-3],[14959,-2],[14963,-2],[14970,12],[14975,3],[15028,-1],[15056,-1],[15063,-8],[15083,-15],[15136,-7],[15144,-4],[15159,-12],[15177,41],[15178,-3],[15180,-25],[15183,-1],[15192,-2],[15316,11],[15329,31],[15358,-9],[15408,-1],[15410,-4],[15418,-4],[15419,-8],[15420,1],[15424,-56],[15427,2],[15434,-9],[15440,-5],[15457,-12],[15458,-5],[15461,26],[15473,-14],[15480,-9],[15483,-3],[15494,-7],[15503,-3],[15512,-16],[15517,-3],[15545,-11],[15549,-9],[15557,6],[15562,-6],[15567,-1],[15578,-6],[15591,-3],[15597,-1],[15610,20],[15615,-1],[15620,-9],[15636,-6],[15643,9],[15667,-2],[15670,-4],[15680,-11],[15685,7],[15696,-9],[15700,13],[15719,62],[15735,-2],[15741,49],[15745,-4],[15746,-5],[15747,8],[15755,-8],[15762,-1],[15763,-11],[15770,-6],[15792,1],[15808,4],[15829,-10],[15833,4],[15838,-1],[15857,-30],[15877,-1],[15880,-1],[15889,-1],[15902,-7],[15924,-9],[15964,18],[15974,-2],[15976,-2],[15981,-1],[15982,-16],[15983,-2],[15986,-13],[15998,-2],[16015,-2],[16017,-7],[16044,-2],[16048,-8],[16055,-1],[16057,-9],[16065,-3],[16067,-2],[16077,-1],[16093,48],[16094,-2],[16099,-2],[16122,8],[16126,-2],[16139,-1],[16141,-2],[16146,-7],[16153,-1],[16168,-1],[16177,-10],[16182,-4],[16183,-10],[16200,-11],[16252,10],[16263,-6],[16265,-4],[16271,-6],[16284,-7],[16311,-5],[16322,1],[16325,-3],[16343,24],[16358,-15],[16366,-2],[16394,-3],[16411,-7],[16417,2],[16419,-1],[16420,-1],[16429,-5],[16435,-1],[16444,-5],[16449,6],[16465,-10],[16489,-10],[16490,-23],[16500,-17],[16515,-2],[16525,8],[16527,1],[16535,18],[16555,-5],[16592,-6],[16608,-20],[16640,-5],[16643,-7],[16645,-3],[16659,-2],[16660,1],[16665,-12],[16674,-16],[16678,8],[16686,-5],[16688,-21],[16697,-6],[16706,4],[16712,-11],[16729,-1],[16769,-1],[16794,-5],[16818,-15],[16825,27],[16837,-3],[16846,-2],[16873,-8],[16888,-3],[16893,-2],[16896,1],[16915,-6],[16925,-12],[16928,-8],[16931,-7],[16957,-2],[16964,-7],[16970,-3],[16994,-4],[17001,-13],[17004,-1],[17025,25],[17033,-3],[17034,-4],[17047,-2],[17051,-3],[17057,-2],[17077,8],[17084,-2],[17093,20],[17122,-7],[17129,-12],[17144,-11],[17173,5],[17175,-17],[17182,78],[17184,-2],[17192,-8],[17195,-4],[17198,-4],[17202,-5],[17220,-3],[17224,-9],[17239,-5],[17240,-7],[17273,-8],[17274,-1],[17277,-6],[17284,-4],[17303,-2],[17305,-5],[17340,89],[17342,-3],[17345,-11],[17371,-2],[17390,-4],[17391,-3],[17435,86],[17451,-3],[17452,-4],[17460,-2],[17469,-21],[17478,-4],[17488,-1],[17510,-1],[17514,-1],[17525,-6],[17543,-11],[17553,-3],[17560,-18],[17567,-11],[17580,-21],[17582,-10],[17589,-10],[17590,-5],[17595,1],[17598,-1],[17625,-2],[17713,19],[17723,-5],[17747,-10],[17762,-18],[17764,-5],[17765,-1],[17783,-3],[17801,-3],[17807,-1],[17814,-21],[17844,-8],[17848,5],[17855,-13],[17860,-1],[17866,-11],[17877,-2],[17881,-1],[17883,-12],[17907,-16],[17919,-6],[17925,-1],[17952,-1],[17963,-11],[17978,8],[17991,-6],[17992,-10],[18001,-3],[18008,-26],[18040,-1],[18047,-1],[18049,-10],[18061,1],[18082,47],[18084,18],[18108,-2],[18109,-1],[18123,-9],[18136,-3],[18144,-5],[18153,1],[18154,24],[18159,-5],[18180,-6],[18191,-9],[18225,-2],[18234,-2],[18245,-5],[18248,-1],[18249,16],[18261,-4],[18266,-1],[18269,-5],[18277,-3],[18294,-3],[18303,-1],[18318,-1],[18327,-20],[18338,-2],[18360,-2],[18368,5],[18376,2],[18382,-1],[18404,-5],[18410,-5],[18417,-1],[18435,-11],[18480,-3],[18492,-6],[18547,-11],[18548,85],[18550,-1],[18558,-1],[18584,-7],[18594,-5],[18612,-3],[18634,-1],[18637,23],[18651,13],[18678,-5],[18698,2],[18703,-1],[18726,-2],[18764,4],[18771,-2],[18773,-6],[18797,-3],[18805,-1],[18876,-2],[18882,17],[18888,-12],[18911,8],[18917,-1],[18923,-7],[18958,-4],[18974,-6],[19019,-2],[19041,-1],[19044,-1],[19058,-6],[19080,-8],[19149,-9],[19164,-2],[19166,-1],[19167,-7],[19171,-5],[19174,-5],[19188,-3],[19192,-4],[19215,19],[19228,-13],[19242,-1],[19250,-5],[19252,-2],[19283,-6],[19290,-6],[19297,-2],[19306,-5],[19351,-5],[19368,-1],[19377,-17],[19422,9],[19460,6],[19465,-10],[19466,-2],[19482,-12],[19485,-1],[19490,8],[19491,-5],[19492,-6],[19497,-1],[19499,-4],[19503,-1],[19507,-4],[19509,-3],[19515,-21],[19516,-11],[19526,24],[19564,-3],[19570,-22],[19577,-1],[19590,-6],[19591,10],[19597,-3],[19611,-21],[19622,-5],[19642,-10],[19645,1],[19651,-12],[19654,10],[19701,-1],[19712,-21],[19714,-4],[19735,-9],[19737,-3],[19743,-9],[19750,55],[19801,-3],[19819,2],[19831,-2],[19832,-10],[19842,-13],[19861,17],[19869,-6],[19888,-6],[19912,51],[19935,15],[19952,-7],[19976,-1],[19980,-2],[19992,-1],[19998,-13],[20050,-8],[20058,-2],[20061,-2],[20077,-1],[20087,6],[20091,3],[20103,-3],[20104,-12],[20108,-1],[20114,-7],[20125,-2],[20131,1],[20146,-5],[20159,-9],[20166,-5],[20167,6],[20169,-27],[20172,-6],[20187,-8],[20190,-9],[20192,-12],[20195,-21],[20206,-3],[20207,-9],[20229,-4],[20234,-8],[20250,-6],[20257,-2],[20258,-2],[20267,-1],[20271,-1],[20276,-2],[20281,27],[20322,-3],[20332,5],[20345,-4],[20347,-1],[20357,-8],[20376,41],[20383,-18],[20396,5],[20397,-10],[20411,-4],[20417,-1],[20419,-2],[20426,-2],[20455,19],[20460,-7],[20461,-2],[20489,-8],[20495,1],[20502,-5],[20526,-10],[20530,42],[20543,-19],[20562,-11],[20572,-9],[20576,3],[20591,-1],[20606,6],[20618,-2],[20621,-10],[20657,-8],[20669,-9],[20673,-4],[20675,-1],[20681,-5],[20682,-7],[20718,-4],[20723,-10],[20763,-2],[20770,-1],[20771,-2],[20779,-9],[20782,-3],[20786,40],[20792,-5],[20798,-6],[20801,-28],[20829,-10],[20840,-25],[20843,-13],[20883,-5],[20892,25],[20897,-1],[20917,-4],[20921,-4],[20944,-6],[20946,-2],[20955,-4],[20961,40],[20975,-24],[20984,-2],[20995,-5],[21004,-5],[21005,-4],[21008,1],[21032,-7],[21036,-1],[21044,4],[21059,-6],[21064,-12],[21068,-1],[21078,-2],[21083,-9],[21139,-5],[21148,-5],[21159,-1],[21163,-11],[21172,-2],[21173,-4],[21182,3],[21190,-2],[21199,-7],[21205,-2],[21212,-2],[21225,-20],[21231,-2],[21232,-6],[21238,-6],[21257,-1],[21269,-1],[21275,-2],[21297,-9],[21300,-1],[21305,-12],[21306,-12],[21308,17],[21310,-7],[21312,-1],[21314,-5],[21317,-11],[21320,-8],[21326,5],[21366,-2],[21368,-7],[21393,-2],[21402,-7],[21404,-30],[21405,-12],[21409,-2],[21416,-6],[21419,-8],[21426,31],[21454,7],[21466,-7],[21471,-12],[21486,-12],[21488,25],[21503,-8],[21536,-4],[21565,-1],[21580,-5],[21585,-2],[21590,-7],[21604,-6],[21626,-10],[21635,-4],[21647,-21],[21652,-1],[21659,-4],[21664,-5],[21665,-1],[21668,-12],[21669,-7],[21677,-3],[21684,-2],[21700,-7],[21745,-6],[21754,-21],[21768,2],[21781,-14],[21793,-8],[21828,-5],[21837,16],[21842,5],[21864,2],[21867,-2],[21872,-21],[21889,-6],[21897,-6],[21907,-1],[21921,-9],[21927,-8],[21934,-10],[21936,-17],[21950,-10],[21953,-1],[21976,-2],[21987,-9],[21988,11],[21989,-3],[22005,-1],[22008,1],[22019,-15],[22022,-11],[22077,-12],[22106,-2],[22161,-1],[22166,-6],[22170,-12],[22171,22],[22195,54],[22198,-1],[22204,-1],[22211,-1],[22225,-6],[22238,-6],[22275,-2],[22279,-6],[22281,1],[22285,-3],[22288,45],[22289,-6],[22296,-5],[22310,-4],[22359,-12],[22364,43],[22380,-9],[22383,-4],[22404,37],[22434,-16],[22459,-1],[22477,-4],[22494,-3],[22496,-7],[22504,-4],[22508,-4],[22521,-25],[22526,-3],[22546,-4],[22548,-5],[22580,-5],[22583,-2],[22584,-12],[22621,-3],[22635,-9],[22642,-3],[22688,2],[22691,-7],[22711,-4],[22723,-24],[22728,-6],[22730,44],[22755,-17],[22794,-8],[22805,-12],[22827,18],[22837,-1],[22839,-12],[22841,-1],[22844,-1],[22847,-1],[22852,5],[22878,-13],[22885,20],[22893,-5],[22901,-4],[22940,-9],[22950,-6],[22970,37],[22980,-4],[22997,-8],[23048,-5],[23063,-7],[23081,-60],[23087,9],[23130,-10],[23141,-1],[23147,-8],[23150,-4],[23159,-7],[23163,86],[23171,-8],[23191,-1],[23197,-40],[23207,42],[23224,-2],[23238,-2],[23258,-5],[23306,-1],[23317,1],[23320,-14],[23330,-4],[23363,-4],[23388,-1],[23394,-2],[23411,1],[23467,24],[23497,29],[23517,-1],[23521,-12],[23523,-18],[23546,-7],[23555,-13],[23600,4],[23622,-3],[23627,-3],[23632,-23],[23635,-13],[23659,8],[23686,-8],[23697,7],[23705,-3],[23722,-1],[23755,-2],[23760,3],[23796,-15],[23805,-4],[23810,-15],[23826,1],[23833,-1],[23847,-8],[23868,3],[23885,7],[23891,-4],[23893,6],[23900,-61],[23922,-5],[23939,-6],[23940,-12],[23968,-7],[23976,-5],[23997,-3],[24001,-5],[24003,-1],[24029,-5],[24035,-2],[24036,-5],[24039,17],[24044,-1],[24052,-1],[24057,-10],[24059,-8],[24061,-2],[24066,-5],[24088,-10],[24102,23],[24108,-1],[24141,-3],[24145,-7],[24150,-3],[24189,-3],[24197,-8],[24213,11],[24219,12],[24251,-7],[24260,-1],[24282,51],[24291,-5],[24310,19],[24314,-6],[24324,-8],[24327,-3],[24329,-9],[24335,-10],[24339,-9],[24344,-5],[24346,-4],[24369,-6],[24406,3],[24407,31],[24413,-3],[24414,-1],[24448,-8],[24451,-5],[24484,-1],[24490,-7],[24511,-10],[24549,-6],[24557,12],[24562,-4],[24574,-8],[24577,-9],[24578,-1],[24584,-5],[24587,-11],[24590,-1],[24602,-1],[24618,-4],[24621,-2],[24624,-1],[24626,-3],[24631,-12],[24682,-7],[24693,-2],[24704,-3],[24712,-2],[24714,-11],[24719,-6],[24728,-2],[24765,-3],[24785,52],[24792,-8],[24800,-12],[24808,-1],[24809,1],[24816,-3],[24821,-1],[24834,-1],[24841,-24],[24852,-3],[24888,-7],[24891,-9],[24896,-2],[24898,-5],[24903,-9],[24906,-4],[24944,10],[24956,6],[25004,-1],[25031,-5],[25041,-12],[25068,7],[25081,-4],[25083,3],[25120,-4],[25128,-8],[25141,-10],[25145,-1],[25162,-5],[25206,-7],[25210,-10],[25212,-10],[25219,-23],[25226,-1],[25232,33],[25236,-7],[25243,-1],[25254,-8],[25258,-5],[25268,-7],[25288,-9],[25289,-4],[25290,-10],[25313,17],[25323,1],[25349,-19],[25358,-12],[25389,18],[25395,8],[25399,-6],[25401,-6],[25414,-7],[25420,-18],[25430,11],[25445,-20],[25459,-1],[25477,89],[25480,-6],[25497,-39],[25503,-27],[25512,-1],[25526,-6],[25569,9],[25607,-9],[25615,13],[25622,-1],[25652,-3],[25711,-2],[25712,-1],[25716,1],[25729,1],[25741,29],[25750,-7],[25769,3],[25829,-6],[25862,-8],[25872,-7],[25902,50],[25928,-8],[25936,-21],[25947,-7],[25958,-21],[25961,-10],[25972,-2],[25999,-10],[26004,-4],[26025,2],[26027,-2],[26040,-14],[26056,-3],[26074,-5],[26103,-9],[26104,-1],[26109,-5],[26134,-3],[26141,-10],[26176,-1],[26193,-3],[26205,-9],[26207,-10],[26213,-5],[26214,-5],[26221,-13],[26281,-21],[26288,-8],[26289,-5],[26305,-2],[26323,-9],[26335,-7],[26341,-10],[26349,-2],[26385,-4],[26400,2],[26412,1],[26414,-6],[26421,-8],[26428,-6],[26435,-14],[26441,-9],[26461,-1],[26471,-10],[26507,2],[26508,-4],[26531,-7],[26538,-6],[26539,-11],[26545,-3],[26549,-1],[26562,6],[26597,-7],[26640,-2],[26670,2],[26675,-1],[26709,-3],[26719,-6],[26739,-1],[26759,12],[26780,-8],[26785,20],[26790,33],[26803,-25],[26824,28],[26831,21],[26849,-4],[26851,1],[26856,-1],[26861,27],[26872,-12],[26900,-7],[26908,-6],[26918,-1],[26950,-2],[27000,-7],[27013,-3],[27029,-1],[27033,-2],[27040,-4],[27046,-7],[27056,2],[27066,-3],[27072,-1],[27082,27],[27111,61],[27112,1],[27117,12],[27138,-6],[27156,-1],[27175,-10],[27180,18],[27187,-6],[27190,49],[27226,-13],[27227,7],[27233,-7],[27241,-4],[27244,-10],[27247,1],[27259,-9],[27274,-1],[27294,-2],[27304,-3],[27350,-5],[27362,-10],[27369,-1],[27376,-10],[27400,-8],[27409,-1],[27413,-1],[27446,-6],[27449,7],[27451,-1],[27453,-7],[27456,-5],[27467,-3],[27497,24],[27507,-4],[27514,-16],[27540,-1],[27550,-12],[27584,5],[27614,-9],[27629,16],[27637,15],[27676,-4],[27679,69],[27694,-20],[27700,-1],[27746,-9],[27784,-20],[27813,18],[27838,-1],[27845,4],[27861,-10],[27872,-6],[27876,1],[27878,-5],[27885,-5],[27893,1],[27902,-1],[27908,-1],[27910,-1],[27917,-6],[27930,-14],[27935,-3],[27941,-9],[27954,-14],[27964,-1],[27965,-5],[27967,-3],[28006,-2],[28015,-1],[28019,-10],[28033,16],[28040,-9],[28055,-4],[28056,-4],[28084,-6],[28108,-11],[28109,-6],[28134,3],[28153,-13],[28168,-6],[28173,-9],[28209,42],[28217,-1],[28246,-8],[28258,-12],[28281,-3],[28307,-2],[28333,-2],[28357,-1],[28358,-10],[28360,-9],[28365,-12],[28419,7],[28443,-9],[28463,-1],[28483,-12],[28491,-9],[28502,11],[28514,-19],[28520,15],[28545,-17],[28546,-4],[28552,-2],[28556,-5],[28558,6],[28559,-10],[28578,-21],[28588,10],[28595,-1],[28652,-1],[28657,-9],[28658,-3],[28719,-3],[28721,1],[28727,-1],[28736,-4],[28768,-1],[28792,-5],[28818,-9],[28821,-5],[28829,-13],[28838,-2],[28839,-15],[28846,-14],[28849,8],[28853,-9],[28871,-7],[28911,-7],[28915,-8],[28930,1],[28934,-29],[28941,-1],[28943,1],[28969,11],[29024,-1],[29047,-7],[29053,-10],[29087,-9],[29098,-1],[29112,9],[29127,-1],[29132,-5],[29137,-13],[29144,-1],[29157,-6],[29186,6],[29189,-2],[29208,1],[29242,-3],[29249,-3],[29253,-6],[29263,2],[29290,-4],[29300,-11],[29349,-3],[29365,-6],[29392,-4],[29425,-3],[29437,-9],[29456,3],[29464,-9],[29475,-16],[29483,-4],[29489,-11],[29492,-1],[29493,-1],[29511,-4],[29527,-15],[29543,-10],[29554,-5],[29566,38],[29571,-8],[29575,-5],[29587,-1],[29589,16],[29617,-10],[29618,-13],[29628,-5],[29634,5],[29645,-22],[29650,-8],[29652,-21],[29686,8],[29708,-2],[29709,-5],[29715,-6],[29722,22],[29735,-12],[29746,-3],[29762,-4],[29763,-6],[29770,-6],[29794,-5],[29806,-5],[29818,-1],[29827,-1],[29841,3],[29861,-1],[29884,-5],[29887,-2],[29893,-9],[29896,-20],[29902,-10],[29925,6],[29926,-6],[29927,-24],[29955,-9],[29986,-9],[29998,-1],[30005,-3],[30013,-1],[30014,-12],[30066,-6],[30070,-3],[30085,-1],[30093,-1],[30094,-5],[30108,4],[30130,-2],[30166,-8],[30168,-10],[30175,-7],[30176,35],[30185,20],[30186,1],[30210,11],[30211,-5],[30243,-4],[30274,-5],[30283,48],[30288,31],[30292,-2],[30301,-8],[30307,-1],[30309,-2],[30331,-2],[30332,-7],[30336,9],[30349,-8],[30353,-22],[30355,-3],[30393,-7],[30439,-1],[30440,-5],[30450,-5],[30458,-6],[30460,-1],[30465,-12],[30489,1],[30498,8],[30506,-7],[30533,-15],[30541,-6],[30569,-2],[30581,-2],[30591,1],[30606,-9],[30633,-3],[30635,-2],[30639,2],[30647,6],[30664,20],[30675,-1],[30683,-13],[30699,-5],[30700,-2],[30701,-6],[30722,-1],[30749,-9],[30756,50],[30777,12],[30789,-7],[30800,-12],[30810,-3],[30818,-6],[30851,-7],[30861,-18],[30883,-1],[30899,-2],[30905,-6],[30912,2],[30920,-1],[30938,-5],[30952,-2],[30953,-5],[30970,-10],[30979,-6],[30997,-2],[30998,-11],[31001,-4],[31020,82],[31028,-1],[31050,-8],[31055,-6],[31067,-8],[31093,-6],[31116,-7],[31128,-3],[31132,-1],[31134,-1],[31147,-1],[31204,-5],[31209,-9],[31217,-11],[31253,-1],[31268,-10],[31327,-16],[31334,-5],[31338,-1],[31344,-1],[31347,-5],[31356,-5],[31362,-11],[31373,-4],[31397,-5],[31404,-4],[31426,16],[31440,1],[31476,-12],[31481,-12],[31486,-13],[31489,-3],[31493,-1],[31498,-1],[31502,-4],[31504,24],[31509,-12],[31514,-6],[31537,-3],[31542,-3],[31548,-10],[31550,-12],[31554,-1],[31574,-2],[31587,-11],[31609,-5],[31635,-12],[31676,-2],[31686,-5],[31687,-2],[31695,-18],[31703,-1],[31740,-5],[31770,-2],[31779,-3],[31797,-6],[31799,-3],[31813,-7],[31816,-3],[31837,-6],[31839,-31],[31842,-7],[31846,24],[31858,-3],[31896,-5],[31898,-7],[31902,-4],[31910,-21],[31925,-7],[31948,-9],[31963,-1],[31965,-1],[31992,-4],[31993,-10],[31996,-1],[31997,-8],[32005,-2],[32086,22],[32089,-8],[32107,11],[32113,2],[32126,12],[32134,20],[32161,-1],[32169,-10],[32171,-6],[32188,-5],[32191,16],[32206,-5],[32305,21],[32311,-2],[32318,-6],[32322,-6],[32343,36],[32355,-1],[32369,-6],[32380,-1],[32407,-5],[32414,-6],[32448,-9],[32452,-7],[32457,-8],[32483,-5],[32489,-33],[32493,-8],[32500,-11],[32501,27],[32562,-5],[32567,-10],[32574,-11],[32588,1],[32597,-16],[32604,-2],[32615,-1],[32616,-6],[32640,11],[32642,-2],[32655,-20],[32681,24],[32686,-8],[32690,-13],[32695,-10],[32710,-1],[32730,-1],[32749,-6],[32754,-11],[32755,-6],[32757,-13],[32771,-6],[32776,41],[32788,-3],[32792,-6],[32801,-6],[32808,-3],[32823,6],[32840,17],[32845,-4],[32849,-8],[32865,-4],[32884,-7],[32903,41],[32905,-5],[32907,-1],[32916,-1],[32931,-9],[32956,-4],[32975,2],[32976,-5],[32987,-9],[32994,-3],[32998,-1],[33032,-12],[33045,-6],[33053,-9],[33058,-12],[33074,-1],[33093,-14],[33111,-6],[33124,-1],[33137,-8],[33140,-10],[33148,-4],[33149,-10],[33166,31],[33183,-8],[33187,44],[33189,-13],[33191,10],[33216,-4],[33222,-6],[33229,-4],[33244,23],[33294,-15],[33311,-5],[33326,-3],[33340,-4],[33354,-2],[33370,53],[33377,-4],[33407,-3],[33458,-2],[33481,-2],[33482,-1],[33491,-6],[33499,-6],[33508,-4],[33564,-5],[33567,18],[33572,6],[33580,-5],[33591,-9],[33594,-3],[33598,-1],[33647,-7],[33648,-11],[33659,-6],[33663,-8],[33666,6],[33697,12],[33703,-3],[33712,-2],[33728,-12],[33757,-1],[33777,2],[33787,-9],[33815,8],[33864,-7],[33877,-5],[33881,-21],[33898,-7],[33904,-4],[33906,-6],[33920,-2],[33922,-6],[33943,18],[33946,-1],[33947,6],[33980,-1],[33985,2],[34003,-2],[34014,-2],[34044,1],[34051,-8],[34146,-6],[34150,2],[34184,-2],[34218,-3],[34225,-5],[34265,13],[34266,-3],[34272,-1],[34283,-2],[34300,14],[34310,15],[34316,-4],[34349,2],[34358,-1],[34384,-5],[34402,5],[34411,-1],[34418,-9],[34453,-2],[34470,-7],[34495,-1],[34534,-6],[34538,-3],[34541,-2],[34548,-1],[34563,-2],[34574,-1],[34580,-5],[34586,-2],[34589,-2],[34623,-13],[34640,-3],[34654,-6],[34684,-21],[34695,-11],[34704,-2],[34751,-3],[34763,-2],[34774,-9],[34787,-11],[34792,-1],[34801,-1],[34814,-21],[34819,1],[34828,-8],[34832,-21],[34841,1],[34863,5],[34887,-1],[34903,-1],[34933,-6],[34972,3],[34990,-2],[35022,-1],[35040,17],[35069,19],[35075,-1],[35141,-1],[35148,-5],[35184,-4],[35185,-8],[35192,-5],[35225,9],[35231,-19],[35261,-6],[35276,-7],[35277,-2],[35300,-16],[35302,-31],[35334,-5],[35338,1],[35374,-1],[35391,-4],[35394,-6],[35402,-1],[35418,-6],[35431,-2],[35447,-4],[35481,-3],[35488,78],[35507,-9],[35592,-3],[35593,-3],[35621,13],[35622,-6],[35633,-8],[35637,-5],[35675,-9],[35678,-2],[35688,-2],[35694,-1],[35699,-3],[35702,-2],[35716,-13],[35822,1],[35844,-8],[35849,-3],[35863,-9],[35866,-3],[35886,-2],[35909,5],[35912,-7],[35921,-6],[35942,1],[35956,-9],[36017,-21],[36028,-6],[36029,1],[36035,-8],[36037,-51],[36051,16],[36055,-6],[36082,-7],[36100,-3],[36126,-8],[36153,-5],[36158,-6],[36163,-2],[36166,-6],[36171,-1],[36178,-2],[36207,-2],[36219,18],[36236,-4],[36261,-3],[36273,38],[36283,-10],[36308,-6],[36317,-9],[36319,-9],[36325,-1],[36327,-9],[36373,13],[36377,-4],[36389,-5],[36409,-1],[36429,-8],[36430,-4],[36440,-7],[36452,-30],[36460,25],[36467,-10],[36468,-3],[36482,19],[36500,-21],[36507,-5],[36519,-7],[36534,-5],[36543,-4],[36546,-2],[36548,-12],[36559,-5],[36572,-11],[36578,-10],[36591,-4],[36593,-6],[36597,-6],[36601,2],[36628,-5],[36639,-3],[36649,-2],[36667,1],[36672,-1],[36678,-14],[36697,-1],[36712,-1],[36731,-6],[36744,-9],[36749,-1],[36768,-7],[36788,-9],[36796,-4],[36819,-10],[36824,-5],[36849,-8],[36850,-4],[36853,-7],[36855,-1],[36861,-15],[36883,-2],[36888,-9],[36896,-6],[36918,-3],[36997,-3],[37007,-26],[37043,-11],[37065,-1],[37118,6],[37121,-3],[37143,-6],[37145,-3],[37175,-21],[37190,6],[37218,-2],[37230,-11],[37240,-8],[37241,-8],[37254,-1],[37270,-3],[37281,-1],[37286,-3],[37303,-6],[37328,-5],[37330,-7],[37384,-9],[37388,-3],[37394,-5],[37417,-8],[37434,-1],[37442,3],[37446,-8],[37494,-3],[37495,-6],[37497,-3],[37554,2],[37581,-2],[37582,-1],[37595,27],[37602,-24],[37608,-8],[37636,-4],[37663,-4],[37782,-8],[37804,-1],[37821,-4],[37845,2],[37852,-5],[37871,-12],[37897,-8],[37916,38],[37932,-26],[37936,-6],[37945,-2],[37952,1],[37957,1],[37970,2],[37989,-4],[37994,-1],[38000,-4],[38003,9],[38028,-9],[38052,-2],[38071,-10],[38093,-7],[38094,-3],[38135,-11],[38177,-5],[38184,89],[38185,-3],[38215,-1],[38217,-5],[38250,-10],[38269,-21],[38272,-4],[38299,-4],[38302,-2],[38317,-3],[38323,-3],[38350,-1],[38368,-1],[38404,-9],[38406,3],[38413,-28],[38416,2],[38420,-9],[38455,-36],[38456,2],[38463,-2],[38469,-5],[38491,-7],[38509,-2],[38513,-2],[38518,-10],[38521,-3],[38535,-5],[38536,-13],[38540,-1],[38563,-4],[38572,-1],[38585,-5],[38586,-1],[38592,-1],[38606,-2],[38628,-16],[38640,-10],[38641,-10],[38643,-6],[38652,-21],[38698,-1],[38703,-9],[38706,-2],[38711,-10],[38713,-4],[38716,-5],[38726,-2],[38740,-7],[38743,-25],[38761,-9],[38770,-9],[38781,-4],[38805,-5],[38807,-8],[38810,3],[38836,-6],[38838,-5],[38840,-4],[38847,-3],[38858,-1],[38862,-2],[38872,-11],[38880,-2],[38891,-8],[38911,1],[38914,6],[38930,-1],[38936,-1],[38980,6],[39006,-4],[39017,-11],[39022,-9],[39043,-2],[39054,-1],[39058,-8],[39069,-6],[39096,-16],[39115,-1],[39154,-27],[39155,-7],[39163,-1],[39170,-6],[39187,-26],[39194,-10],[39212,-3],[39230,-9],[39241,16],[39255,-8],[39265,-25],[39273,-2],[39294,-42],[39355,-7],[39356,28],[39359,-6],[39369,-7],[39384,-4],[39435,29],[39443,-5],[39450,-4],[39463,-3],[39467,-8],[39471,1],[39487,-1],[39488,-1],[39493,-1],[39500,12],[39502,-1],[39506,-4],[39511,-6],[39555,-9],[39565,-11],[39569,6],[39578,-6],[39592,-1],[39597,-39],[39607,-3],[39612,-1],[39615,3],[39664,-15],[39673,-6],[39709,-2],[39729,-2],[39757,61],[39766,-1],[39770,-2],[39779,-2],[39796,-25],[39809,-11],[39810,-2],[39821,-8],[39828,-5],[39836,23],[39850,-33],[39878,-10],[39885,-1],[39908,-6],[39920,-8],[39925,-4],[39950,-2],[39973,-2],[39978,-4],[39983,-1],[39997,14],[39999,-1],[40002,-3],[40006,-21],[40007,-6],[40053,-7],[40059,-2],[40067,23],[40071,3],[40080,-22],[40089,-5],[40105,48],[40110,-3],[40139,-1],[40172,-21],[40183,-4],[40189,-30],[40195,-12],[40214,-11],[40220,-1],[40234,-3],[40238,-5],[40246,-21],[40247,-2],[40259,-4],[40263,-2],[40270,15],[40279,-10],[40283,-10],[40338,-4],[40406,-2],[40412,-3],[40426,9],[40467,-3],[40478,-4],[40480,-8],[40500,-2],[40506,-11],[40514,-1],[40522,-3],[40539,-1],[40542,1],[40563,-2],[40580,-11],[40582,-9],[40634,-3],[40638,-8],[40646,1],[40652,86],[40666,-2],[40682,-10],[40685,-2],[40691,-9],[40697,7],[40699,-5],[40717,-3],[40748,-6],[40797,-8],[40800,-1],[40809,1],[40818,-13],[40824,1],[40835,-1],[40845,-9],[40859,10],[40873,41],[40876,23],[40877,-2],[40880,-2],[40899,-7],[40906,-7],[40913,-2],[40918,-2],[40920,-2],[40944,-2],[40954,-10],[40957,6],[40976,-12],[40996,-3],[41042,-10],[41044,1],[41050,-9],[41065,-3],[41073,-6],[41074,-2],[41111,7],[41120,-6],[41123,-4],[41128,-8],[41137,-7],[41153,-16],[41166,-4],[41202,-22],[41225,-1],[41256,-4],[41292,-21],[41293,-1],[41335,-21],[41338,22],[41339,-21],[41348,-2],[41353,-5],[41354,-12],[41375,-50],[41377,-5],[41392,-13],[41421,-5],[41452,-13],[41456,-1],[41505,-6],[41520,-3],[41526,-6],[41527,-8],[41546,-1],[41554,-8],[41615,-4],[41634,-3],[41646,-6],[41674,-1],[41676,-1],[41754,-9],[41772,-11],[41796,-19],[41801,-9],[41860,-1],[41876,-10],[41878,-4],[41896,32],[41901,-2],[41925,-7],[41934,-10],[41956,-7],[41957,-2],[41975,-2],[41987,-6],[42008,-8],[42021,-4],[42034,-10],[42039,-8],[42067,17],[42070,-5],[42093,-10],[42098,-8],[42112,-2],[42113,42],[42123,-3],[42126,-1],[42129,-4],[42152,-4],[42158,-21],[42159,-3],[42165,-9],[42191,-4],[42197,-6],[42204,-6],[42210,27],[42212,-6],[42213,-1],[42221,-3],[42229,-7],[42252,4],[42262,-2],[42270,-7],[42281,-10],[42287,-16],[42321,-4],[42335,-11],[42384,-2],[42401,-2],[42415,45],[42425,-5],[42439,35],[42442,-6],[42483,-10],[42510,-6],[42520,1],[42530,-3],[42546,-1],[42547,1],[42565,-6],[42578,-9],[42594,-1],[42600,-2],[42622,-1],[42624,-21],[42635,-3],[42658,-10],[42677,-6],[42688,-5],[42697,-1],[42701,-1],[42711,-4],[42737,2],[42814,63],[42816,27],[42854,-1],[42862,42],[42875,86],[42878,27],[42887,-5],[42888,-4],[42918,-2],[42942,-9],[42981,-2],[42984,-21],[42995,-10],[43010,-9],[43015,1],[43018,-5],[43054,1],[43074,-1],[43094,-11],[43116,2],[43117,-1],[43155,-7],[43156,-9],[43177,-15],[43178,-3],[43182,-1],[43190,-2],[43212,-10],[43217,-6],[43224,7],[43230,-6],[43240,-1],[43277,-7],[43285,1],[43320,-9],[43345,-1],[43362,-10],[43363,-1],[43392,-6],[43405,-3],[43413,-1],[43427,5],[43516,-3],[43550,-18],[43554,-11],[43571,-2],[43599,1],[43602,-17],[43641,-2],[43644,-6],[43669,-13],[43680,-5],[43683,5],[43686,-1],[43688,-1],[43693,-6],[43694,-43],[43702,-2],[43710,-3],[43728,1],[43729,-3],[43730,-8],[43768,-2],[43793,-2],[43794,-11],[43805,-7],[43809,-2],[43810,-12],[43811,-5],[43829,-4],[43865,-5],[43877,-6],[43880,-1],[43897,-7],[43902,-12],[43933,-6],[43936,-5],[43967,-8],[43969,-4],[43978,-2],[43986,8],[44004,-2],[44019,-6],[44038,-12],[44061,82],[44068,48],[44069,-1],[44072,-5],[44091,13],[44092,-5],[44097,-3],[44105,-1],[44126,3],[44160,-19],[44166,7],[44180,-11],[44196,-7],[44217,20],[44223,-5],[44230,37],[44244,16],[44249,-1],[44283,13],[44293,-2],[44329,-7],[44335,-3],[44351,-10],[44373,-4],[44374,-3],[44409,-5],[44443,-5],[44447,-10],[44469,-5],[44481,2],[44483,-1],[44493,-10],[44495,-12],[44513,19],[44517,-5],[44525,-7],[44529,-11],[44537,-7],[44553,-11],[44576,-1],[44585,-1],[44623,-3],[44687,-20],[44699,-1],[44710,-12],[44727,-3],[44734,-1],[44744,-10],[44751,-1],[44755,-1],[44786,11],[44801,-10],[44811,-3],[44838,-6],[44842,-4],[44847,-4],[44852,-1],[44854,5],[44872,-6],[44878,-10],[44890,-6],[44891,2],[44903,-11],[44933,-1],[44958,10],[44960,-6],[44979,2],[44990,-9],[44996,-2],[45010,-2],[45019,-3],[45029,-1],[45035,-4],[45058,-5],[45064,-4],[45077,-5],[45085,-2],[45099,-12],[45103,-1],[45106,-11],[45116,13],[45156,5],[45217,24],[45221,-6],[45232,-7],[45251,18],[45280,-8],[45281,-5],[45285,-12],[45302,-12],[45306,-12],[45315,-3],[45341,19],[45342,-6],[45347,-8],[45362,-21],[45364,-4],[45376,-11],[45378,49],[45382,-9],[45395,-6],[45426,-8],[45428,-2],[45476,-7],[45477,-1],[45482,-2],[45486,-3],[45501,-20],[45508,-12],[45512,-5],[45532,-7],[45539,6],[45548,-12],[45570,-5],[45581,-1],[45598,3],[45609,-3],[45644,-1],[45670,-13],[45671,-5],[45692,-5],[45709,-3],[45710,-7],[45721,-3],[45732,5],[45750,-7],[45754,31],[45756,-16],[45757,11],[45779,24],[45785,-1],[45802,23],[45829,-45],[45845,21],[45847,-4],[45868,-19],[45881,-1],[45931,-8],[45948,-4],[45966,-2],[45982,-7],[45992,-6],[46010,6],[46019,-12],[46048,14],[46084,-3],[46090,-9],[46091,8],[46097,-5],[46106,1],[46145,-10],[46146,-6],[46152,-2],[46205,-3],[46210,-5],[46223,-10],[46235,-16],[46264,-4],[46274,-2],[46291,-34],[46305,-1],[46308,-8],[46313,-4],[46323,-8],[46329,-2],[46338,-3],[46354,-3],[46376,-8],[46401,-13],[46417,-10],[46434,-10],[46443,-17],[46451,29],[46468,-10],[46470,-2],[46474,20],[46478,-6],[46492,-10],[46502,-1],[46541,-28],[46547,-1],[46548,-6],[46549,-2],[46557,-3],[46561,-9],[46565,17],[46574,-9],[46585,-3],[46586,-3],[46653,-13],[46674,5],[46676,-11],[46681,-30],[46688,-1],[46701,-7],[46704,-5],[46742,-1],[46745,-6],[46762,-10],[46784,19],[46823,-2],[46848,-10],[46851,-2],[46852,-21],[46853,-7],[46873,-1],[46901,-1],[46910,-6],[46911,-21],[46919,-5],[46926,-2],[46947,8],[46969,3],[46984,-4],[46988,-9],[46990,-7],[47002,-2],[47005,-1],[47012,-7],[47029,-10],[47033,-7],[47041,-3],[47058,-1],[47070,-3],[47093,-9],[47103,-5],[47110,16],[47118,-8],[47139,2],[47161,-4],[47175,7],[47188,-3],[47195,-6],[47200,-6],[47215,-1],[47221,-10],[47226,1],[47246,2],[47257,-4],[47262,-4],[47269,-1],[47282,-26],[47347,-3],[47358,-10],[47390,-2],[47393,-20],[47437,-6],[47438,-8],[47447,-7],[47448,1],[47463,2],[47480,-7],[47514,-12],[47519,-6],[47529,-10],[47532,-13],[47537,-1],[47572,-8],[47599,-21],[47602,-12],[47616,-8],[47650,-9],[47659,-9],[47669,-2],[47692,-12],[47699,-2],[47702,-5],[47719,-5],[47736,-5],[47760,-9],[47780,1],[47794,-1],[47820,-7],[47839,-2],[47848,-7],[47851,-1],[47899,-5],[47913,-28],[47951,-4],[47955,-6],[47959,-9],[47974,-8],[48006,-1],[48017,-12],[48024,-2],[48032,22],[48040,-10],[48053,-21],[48056,-1],[48076,-2],[48078,-1],[48081,-5],[48096,-1],[48112,1],[48128,-12],[48132,-6],[48162,-1],[48167,-8],[48192,-2],[48197,26],[48205,-9],[48222,-2],[48236,-11],[48248,-3],[48288,-5],[48304,-16],[48313,-2],[48322,-3],[48327,-10],[48365,-7],[48366,1],[48367,-7],[48393,-3],[48395,1],[48396,-6],[48409,1],[48465,23],[48483,-23],[48542,-14],[48547,49],[48556,-8],[48609,-4],[48629,-8],[48633,5],[48638,-1],[48653,18],[48693,12],[48725,-4],[48728,-1],[48730,-5],[48732,1],[48785,-9],[48788,9],[48801,-1],[48812,7],[48814,-6],[48826,-6],[48830,-2],[48831,-2],[48861,-3],[48880,12],[48884,3],[48893,16],[48894,-12],[48899,-11],[48952,-7],[48977,-1],[48989,-12],[49001,-6],[49008,-2],[49011,-11],[49015,-5],[49016,-5],[49036,-7],[49097,-11],[49133,-4],[49154,6],[49156,-6],[49165,-5],[49173,-2],[49176,-12],[49202,17],[49245,-10],[49248,2],[49261,-9],[49280,-5],[49284,12],[49286,54],[49289,-9],[49296,24],[49319,-17],[49328,89],[49331,-6],[49341,-12],[49348,-10],[49361,-11],[49362,-6],[49376,-1],[49466,-7],[49489,-3],[49514,-2],[49517,-5],[49548,-1],[49556,-3],[49575,-1],[49580,-5],[49581,-12],[49600,-2],[49610,-11],[49616,-13],[49632,-3],[49639,-7],[49644,-9],[49649,-1],[49651,-7],[49667,-2],[49671,-2],[49680,-1],[49740,-16],[49742,-2],[49745,-4],[49809,-1],[49811,-1],[49820,-1],[49835,-1],[49887,-9],[49889,-13],[49898,-23],[49906,-3],[49932,-4],[49960,-6],[49972,10],[49974,-1],[49993,-2],[50006,-9],[50013,-1],[50024,-3],[50030,-2],[50033,57],[50050,-6],[50066,-1],[50080,-12],[50094,-5],[50106,-3],[50119,-4],[50128,20],[50142,-2],[50146,-6],[50171,1],[50208,44],[50211,-4],[50218,-1],[50230,-7],[50244,1],[50266,28],[50282,46],[50289,-3],[50301,-25],[50306,-10],[50340,-9],[50342,-9],[50347,11],[50368,-6],[50373,-15],[50385,3],[50423,-6],[50424,-9],[50450,-9],[50474,-5],[50480,-10],[50499,-1],[50509,-9],[50510,-6],[50513,16],[50524,-12],[50527,-3],[50545,-16],[50564,-1],[50566,29],[50591,-2],[50600,-1],[50606,-1],[50624,7],[50633,-5],[50655,-23],[50689,47],[50704,-14],[50705,-6],[50712,-3],[50713,-8],[50725,-10],[50727,-5],[50732,3],[50751,-4],[50759,-5],[50762,23],[50764,-4],[50788,-13],[50797,10],[50809,-1],[50811,-8],[50813,-9],[50819,-3],[50837,-18],[50840,1],[50841,-5],[50851,-1],[50860,-36],[50866,-5],[50883,-24],[50886,-5],[50896,-8],[50934,-14],[50953,-21],[50956,-9],[50965,-10],[50977,5],[50983,-1],[50992,-5],[50997,27],[51002,-4],[51047,1],[51051,5],[51070,-10],[51093,-7],[51107,-14],[51110,-8],[51114,-1],[51150,-10],[51203,18],[51244,-1],[51259,-6],[51290,17],[51296,-9],[51300,-17],[51359,-1],[51367,-15],[51397,-3],[51415,-6],[51421,-9],[51422,-21],[51440,-2],[51442,42],[51458,-2],[51468,-11],[51473,-1],[51486,-5],[51491,-5],[51507,-2],[51512,-1],[51531,-30],[51539,3],[51546,-8],[51575,-2],[51588,-16],[51595,-9],[51609,-1],[51619,2],[51621,-4],[51627,-5],[51645,-6],[51658,-2],[51670,-15],[51672,-7],[51684,-4],[51690,-1],[51700,-3],[51713,28],[51719,-11],[51722,-3],[51738,1],[51751,-7],[51788,-17],[51792,-5],[51806,-2],[51831,1],[51856,-1],[51857,-11],[51865,-2],[51899,-3],[51908,-12],[51915,-2],[51920,-2],[51922,-2],[51933,-12],[51941,18],[51959,13],[52041,-4],[52104,12],[52106,-10],[52113,-3],[52126,-7],[52160,-18],[52174,-5],[52201,10],[52203,-1],[52214,-7],[52243,-19],[52255,8],[52272,-18],[52282,-1],[52305,-4],[52319,48],[52355,-8],[52369,18],[52386,-3],[52388,-1],[52413,-10],[52420,22],[52440,-2],[52451,-6],[52468,-3],[52469,-14],[52492,-11],[52514,-1],[52537,-8],[52566,54],[52589,-21],[52621,-3],[52627,-6],[52628,27],[52642,-1],[52657,-1],[52661,-1],[52662,-41],[52668,-13],[52675,-4],[52679,-6],[52707,-2],[52722,-10],[52729,-9],[52756,-1],[52757,-5],[52758,-6],[52768,-6],[52770,55],[52781,-1],[52786,-6],[52805,-5],[52810,-2],[52812,-5],[52824,-3],[52830,-4],[52862,-6],[52871,-9],[52898,-3],[52901,-5],[52904,-20],[52908,-2],[52940,-8],[52947,-6],[52953,5],[52961,3],[52966,-7],[52987,-10],[52995,54],[53006,-6],[53020,49],[53022,-21],[53059,-9],[53063,-1],[53073,-3],[53110,-10],[53122,3],[53124,-1],[53128,-1],[53151,-3],[53153,-6],[53174,-14],[53204,-10],[53207,-8],[53215,-8],[53230,-1],[53239,-5],[53246,-1],[53250,1],[53278,-9],[53284,-5],[53288,-11],[53294,-2],[53301,-39],[53325,-24],[53331,-5],[53332,-3],[53341,46],[53358,-7],[53360,-9],[53369,10],[53381,19],[53400,-5],[53417,-2],[53436,-4],[53440,-14],[53445,-4],[53453,-3],[53470,18],[53495,11],[53497,-6],[53520,-1],[53528,-5],[53540,-8],[53542,-11],[53549,-3],[53560,1],[53574,-3],[53575,-17],[53582,-3],[53587,-2],[53592,-5],[53607,-8],[53619,-3],[53639,-9],[53649,-4],[53666,-4],[53684,-8],[53702,42],[53713,-1],[53715,23],[53718,-5],[53720,1],[53726,-9],[53751,8],[53769,-5],[53782,-2],[53799,11],[53806,-7],[53810,1],[53811,-4],[53856,-5],[53872,3],[53876,-1],[53898,8],[53905,-5],[53909,-11],[53912,-4],[53923,-2],[53928,-3],[53941,-2],[53950,13],[53996,-14],[54002,-4],[54003,-7],[54011,-4],[54022,-6],[54027,-3],[54031,-9],[54047,-5],[54051,1],[54054,-8],[54059,-2],[54077,-6],[54081,-1],[54084,-5],[54101,-6],[54121,-2],[54125,-8],[54126,-2],[54154,4],[54166,-9],[54168,2],[54184,1],[54195,-7],[54197,-7],[54203,-12],[54206,-5],[54225,-2],[54226,-3],[54243,-1],[54245,6],[54253,-5],[54255,-30],[54261,-3],[54263,-5],[54273,-21],[54274,9],[54287,-4],[54328,2],[54333,-14],[54351,-7],[54352,-10],[54353,-6],[54369,-1],[54384,-8],[54387,-3],[54415,-2],[54454,4],[54463,-11],[54476,-5],[54513,-1],[54544,-11],[54550,-1],[54558,-7],[54565,-1],[54566,-6],[54572,-7],[54576,-3],[54585,-6],[54603,-4],[54610,6],[54619,-12],[54656,-8],[54666,-9],[54706,-4],[54726,-4],[54743,-5],[54747,-7],[54765,-6],[54772,-10],[54777,-7],[54794,-10],[54822,-21],[54834,-21],[54852,-3],[54855,-1],[54870,-2],[54885,-9],[54890,-1],[54911,-5],[54923,6],[54924,-3],[54942,-7],[54960,-11],[54974,-2],[54994,-7],[54995,-1],[55005,-4],[55014,-5],[55017,-1],[55024,-5],[55025,-10],[55038,-3],[55051,-5],[55084,-5],[55095,-5],[55098,20],[55101,-1],[55103,-12],[55125,-1],[55131,23],[55133,-2],[55136,-2],[55138,-3],[55144,-17],[55154,-6],[55160,-11],[55164,-4],[55166,-10],[55173,-7],[55175,-3],[55189,-2],[55199,18],[55213,-5],[55215,-5],[55217,11],[55219,-7],[55226,-10],[55233,12],[55251,52],[55252,-1],[55263,-7],[55302,-1],[55307,-17],[55314,-2],[55316,-8],[55326,-1],[55330,-1],[55340,1],[55364,-6],[55370,-6],[55397,-2],[55413,-2],[55434,-6],[55451,-3],[55463,-8],[55474,-7],[55496,-30],[55497,-1],[55503,-3],[55512,-1],[55527,2],[55558,-10],[55565,-10],[55579,1],[55584,38],[55592,-30],[55599,-1],[55629,2],[55631,-6],[55650,-9],[55663,-10],[55684,-11],[55708,-1],[55724,-2],[55728,-7],[55729,-14],[55735,-1],[55767,-3],[55782,-12],[55802,-4],[55823,-12],[55854,-10],[55894,-4],[55938,46],[55950,-11],[55961,-20],[55970,-7],[55972,-7],[55974,-7],[55987,-2],[56003,2],[56010,1],[56016,-10],[56026,-3],[56038,-6],[56045,-12],[56075,-1],[56088,-11],[56090,-4],[56101,-1],[56120,-1],[56125,-2],[56136,14],[56161,-31],[56162,-6],[56181,-5],[56228,-1],[56241,-2],[56265,-2],[56270,-11],[56274,77],[56287,13],[56289,-5],[56296,-9],[56310,-31],[56329,-3],[56338,-1],[56353,-1],[56375,-4],[56387,-21],[56391,-3],[56398,-22],[56410,-7],[56413,-10],[56414,23],[56428,-21],[56430,1],[56449,-16],[56490,-4],[56497,-10],[56505,-6],[56510,-1],[56513,-7],[56522,31],[56523,-14],[56528,-14],[56536,-9],[56545,-5],[56547,-4],[56563,-7],[56568,-3],[56589,-14],[56595,-6],[56612,-5],[56660,-1],[56683,-2],[56688,4],[56713,-7],[56721,-5],[56727,1],[56733,-1],[56737,-6],[56750,-2],[56754,-7],[56803,-7],[56835,-31],[56838,-6],[56872,-5],[56875,-1],[56891,-9],[56897,-1],[56931,-15],[56933,-41],[56939,-4],[56945,-12],[56952,-2],[56955,-5],[56957,-21],[56958,-6],[56982,-4],[57017,-9],[57063,-5],[57072,-22],[57074,-5],[57108,-4],[57111,-1],[57126,-11],[57148,1],[57166,-2],[57183,5],[57229,-8],[57235,-4],[57255,-2],[57279,-15],[57287,-10],[57296,1],[57299,-4],[57329,13],[57334,-4],[57336,-20],[57337,-2],[57350,-6],[57357,-6],[57358,-2],[57370,-11],[57379,-8],[57387,-7],[57408,-1],[57409,-5],[57414,-4],[57441,4],[57457,-5],[57459,-3],[57466,-3],[57469,-1],[57472,2],[57486,-7],[57496,-5],[57498,-1],[57505,-1],[57511,-22],[57521,-53],[57527,-8],[57531,-8],[57532,42],[57555,-6],[57589,-1],[57609,-2],[57638,-10],[57653,-4],[57673,-1],[57680,-2],[57690,-13],[57707,-2],[57732,-32],[57735,-2],[57738,-9],[57753,-5],[57755,-4],[57758,1],[57761,20],[57773,-9],[57777,-11],[57782,-18],[57792,-9],[57796,22],[57831,-3],[57869,-15],[57874,-11],[57878,-21],[57929,-3],[57945,-1],[57957,-4],[57959,-1],[57960,-2],[57965,-19],[58026,1],[58028,-6],[58034,-9],[58036,-27],[58050,2],[58053,-1],[58064,-3],[58071,-1],[58085,-1],[58093,-2],[58105,72],[58128,-9],[58129,-5],[58130,-9],[58135,-6],[58140,-7],[58142,-8],[58149,-6],[58151,-31],[58154,-11],[58193,-12],[58198,-10],[58219,-5],[58226,-21],[58246,-11],[58252,-8],[58310,-20],[58317,-7],[58328,-5],[58341,-6],[58343,-4],[58349,-2],[58351,-3],[58379,-5],[58384,-3],[58395,-9],[58398,-2],[58409,-1],[58411,5],[58420,-16],[58425,-3],[58444,-7],[58467,-12],[58473,-9],[58517,-10],[58522,-1],[58524,-9],[58525,-21],[58528,-2],[58548,-10],[58552,-4],[58556,-5],[58602,-21],[58611,10],[58618,-2],[58626,-13],[58636,1],[58641,-3],[58647,-3],[58671,19],[58682,-8],[58692,-1],[58699,-1],[58743,-12],[58790,5],[58791,-10],[58797,-2],[58806,-6],[58824,-17],[58852,5],[58874,-6],[58891,35],[58913,-4],[58941,-10],[58945,-7],[58946,-2],[58948,-3],[58949,6],[58950,-1],[58956,-12],[58957,-2],[58980,-5],[58991,-1],[59007,-11],[59023,8],[59025,-3],[59027,-3],[59050,-5],[59056,1],[59065,-1],[59066,-5],[59093,-7],[59095,-6],[59111,-8],[59116,-6],[59126,7],[59138,-1],[59139,-2],[59148,4],[59149,-12],[59199,-8],[59204,-6],[59211,-10],[59224,31],[59231,-7],[59234,-5],[59241,2],[59242,-5],[59258,-4],[59264,-2],[59270,-17],[59273,-17],[59278,-5],[59288,-10],[59306,-12],[59319,-5],[59328,51],[59337,-2],[59346,-9],[59349,-1],[59352,-2],[59355,-3],[59367,-6],[59375,-21],[59380,-3],[59389,-1],[59402,-6],[59410,-5],[59435,-7],[59446,-4],[59459,-13],[59482,-4],[59490,-1],[59512,-16],[59521,-1],[59529,9],[59547,-2],[59549,-10],[59562,-3],[59564,-66],[59573,-1],[59582,-21],[59595,24],[59616,11],[59626,-9],[59628,-6],[59670,1],[59672,36],[59677,14],[59691,-6],[59742,-1],[59743,-4],[59747,-8],[59751,-3],[59754,-9],[59768,-2],[59782,41],[59792,-7],[59794,5],[59795,-3],[59797,-15],[59805,6],[59809,-9],[59831,-1],[59860,-3],[59867,-1],[59871,-2],[59875,-4],[59933,-1],[59936,-11],[59938,-5],[59962,1],[59976,-1],[59992,-1],[60016,-11],[60071,-7],[60079,2],[60087,-3],[60114,-3],[60117,-5],[60121,-4],[60136,-2],[60150,-11],[60155,-2],[60158,-9],[60162,6],[60164,-28],[60175,3],[60218,-9],[60227,-5],[60248,18],[60274,-3],[60307,-3],[60354,4],[60359,-1],[60370,-2],[60378,-5],[60379,-16],[60417,-12],[60425,-1],[60426,-1],[60434,-2],[60444,-3],[60453,-12],[60480,-1],[60495,-5],[60499,-1],[60508,53],[60514,-6],[60524,-2],[60539,-2],[60549,-6],[60553,-2],[60580,-6],[60581,-10],[60585,-9],[60598,-7],[60637,-5],[60644,-6],[60652,24],[60664,15],[60690,-11],[60703,-7],[60713,-4],[60714,-2],[60715,-1],[60720,13],[60724,-2],[60725,13],[60728,-5],[60743,7],[60747,4],[60752,-2],[60766,8],[60769,-3],[60806,-3],[60819,-21],[60825,31],[60829,16],[60836,-10],[60839,-2],[60853,-7],[60861,-3],[60869,-3],[60881,-16],[60902,-2],[60928,-9],[60934,31],[60961,-1],[60962,-7],[60969,-5],[60970,-6],[60984,-21],[60988,-21],[61001,-7],[61002,-31],[61017,-7],[61034,-2],[61046,-16],[61047,52],[61059,-3],[61061,-6],[61075,-5],[61086,1],[61088,-5],[61095,-1],[61102,-9],[61104,-2],[61107,-7],[61117,-8],[61120,-4],[61141,21],[61145,-1],[61156,-4],[61159,2],[61221,-1],[61255,-2],[61260,55],[61276,-2],[61303,-5],[61306,-2],[61315,-2],[61345,-2],[61352,-5],[61354,-1],[61367,-5],[61369,5],[61370,-21],[61394,-2],[61406,-5],[61415,-1],[61421,-1],[61433,-2],[61436,-3],[61470,-14],[61480,-4],[61484,-1],[61492,-13],[61496,-5],[61514,-1],[61520,-5],[61521,12],[61523,-1],[61536,-8],[61537,-7],[61566,-9],[61579,-4],[61587,29],[61593,-9],[61600,-8],[61618,-3],[61629,-7],[61643,-7],[61669,-6],[61671,3],[61679,-17],[61682,-6],[61685,-2],[61687,-2],[61697,5],[61701,-9],[61707,-7],[61708,1],[61727,-11],[61728,-2],[61762,-1],[61767,-9],[61785,-5],[61788,-3],[61798,-1],[61799,-10],[61822,-1],[61852,-7],[61854,-4],[61869,5],[61907,-1],[61908,-3],[61917,-9],[61923,-2],[61938,-2],[61945,-4],[61969,-1],[61987,-3],[61996,-5],[62010,-3],[62025,-5],[62032,-1],[62039,-6],[62059,-4],[62069,-1],[62081,-2],[62101,-4],[62109,-5],[62126,-3],[62132,-5],[62140,-3],[62159,-5],[62170,-1],[62177,-8],[62214,-1],[62224,-9],[62228,-1],[62250,27],[62270,-6],[62277,14],[62286,-1],[62296,1],[62356,-5],[62379,33],[62380,-4],[62385,-9],[62387,-5],[62394,-1],[62419,17],[62434,-3],[62456,62],[62457,-3],[62465,-4],[62469,-1],[62486,1],[62491,-10],[62494,-6],[62498,-2],[62508,16],[62515,-4],[62518,-7],[62520,-1],[62532,-5],[62537,-7],[62541,-9],[62542,-8],[62547,-8],[62568,-2],[62576,23],[62578,-20],[62580,-7],[62584,-6],[62631,23],[62648,-1],[62656,-13],[62658,-11],[62681,-3],[62697,-2],[62731,16],[62732,-2],[62736,46],[62752,16],[62766,-9],[62775,-7],[62788,-5],[62801,2],[62827,-7],[62828,-3],[62829,-4],[62878,-2],[62900,-5],[62923,5],[62961,-10],[62971,-21],[62984,-2],[63027,8],[63042,-5],[63045,-3],[63069,5],[63086,-3],[63120,-9],[63132,15],[63145,-2],[63155,44],[63170,-1],[63180,-2],[63182,-6],[63209,-3],[63222,-24],[63240,-2],[63278,1],[63282,-1],[63315,-25],[63318,-9],[63338,-2],[63340,-5],[63343,-1],[63350,-10],[63366,-5],[63374,-6],[63411,-11],[63419,-13],[63427,-8],[63430,11],[63431,-2],[63432,-5],[63444,-6],[63456,-10],[63512,-16],[63545,8],[63549,-1],[63556,-1],[63563,-5],[63565,-6],[63575,-2],[63581,-1],[63587,-1],[63594,-1],[63617,6],[63625,-7],[63636,-7],[63648,-3],[63649,-8],[63678,-13],[63748,-2],[63762,-7],[63771,-2],[63791,-2],[63806,-10],[63840,-2],[63883,-3],[63895,-3],[63938,-8],[63974,-2],[63975,-18],[63977,-1],[63986,-8],[63997,-11],[64052,-11],[64068,18],[64094,-12],[64106,-8],[64116,2],[64125,-10],[64135,-1],[64148,-1],[64180,-15],[64187,-5],[64190,-6],[64196,-5],[64220,-6],[64225,-3],[64238,-10],[64248,-3],[64251,-6],[64295,-5],[64320,-9],[64340,-9],[64342,-3],[64347,-1],[64351,-3],[64357,-7],[64358,-5],[64372,48],[64377,-3],[64378,-1],[64403,-5],[64407,-2],[64418,-6],[64434,-3],[64442,-1],[64478,-2],[64484,-1],[64493,-9],[64498,10],[64516,-9],[64520,13],[64529,-2],[64543,-1],[64558,-3],[64590,-2],[64591,-3],[64604,-21],[64614,16],[64619,-3],[64632,-4],[64641,-1],[64642,-2],[64647,-1],[64671,-3],[64694,-1],[64696,-3],[64704,-3],[64715,-21],[64723,25],[64765,-1],[64783,-10],[64792,-3],[64822,-10],[64859,89],[64876,-1],[64883,-1],[64912,-2],[64936,-2],[64937,8],[64964,-5],[64975,-2],[64986,-25],[64993,-5],[65000,-1],[65004,18],[65018,-3],[65029,-5],[65037,-3],[65042,-4],[65054,-6],[65057,-7],[65102,-2],[65120,10],[65132,-7],[65138,-4],[65156,-6],[65167,-31],[65202,-21],[65221,-7],[65227,-10],[65257,40],[65263,-7],[65283,-2],[65311,-1],[65318,-3],[65324,-3],[65349,-1],[65357,-3],[65364,-4],[65422,24],[65429,-2],[65453,-8],[65470,-13],[65471,-10],[65472,88],[65476,-2],[65479,2],[65480,-10],[65492,-1],[65494,-2],[65502,-1],[65516,-3],[65566,-7],[65589,-21],[65622,-10],[65633,-3],[65659,1],[65686,-2],[65702,18],[65720,-7],[65736,13],[65767,-1],[65769,-4],[65779,-9],[65788,-6],[65798,52],[65799,-5],[65802,-7],[65813,-8],[65826,-9],[65827,-2],[65833,-5],[65855,1],[65856,-1],[65869,-21],[65879,-1],[65885,-7],[65890,-5],[65901,-2],[65912,-19],[65918,-8],[65921,-3],[65923,-11],[65940,2],[65949,-2],[65950,-13],[65951,-3],[65958,-3],[65999,-7],[66026,-2],[66033,-8],[66067,13],[66077,23],[66089,-1],[66096,-4],[66110,-30],[66128,-9],[66140,1],[66142,-4],[66168,-7],[66177,-5],[66242,8],[66254,-10],[66256,-1],[66264,-1],[66269,-4],[66274,-6],[66298,-2],[66367,-4],[66441,-1],[66469,-3],[66479,-12],[66480,16],[66484,-1],[66494,-8],[66509,-21],[66518,-2],[66535,18],[66540,-5],[66565,-1],[66568,-6],[66589,-2],[66591,-74],[66598,-7],[66605,-1],[66606,-2],[66664,-2],[66708,19],[66718,-3],[66736,-10],[66769,-7],[66775,-6],[66777,-4],[66780,-2],[66800,-21],[66802,-3],[66839,-7],[66841,-3],[66889,-2],[66895,-3],[66904,-21],[66921,3],[66989,-3],[66994,-11],[67007,-9],[67019,-11],[67031,-11],[67061,-5],[67063,-9],[67099,2],[67105,8],[67117,-6],[67146,-9],[67168,-1],[67174,-8],[67187,-9],[67199,-6],[67220,-2],[67224,-9],[67234,-8],[67245,-1],[67252,-5],[67262,-1],[67267,-1],[67276,-5],[67281,-9],[67291,-8],[67298,-1],[67304,-3],[67309,-7],[67314,-10],[67360,-1],[67399,-4],[67420,-6],[67426,-8],[67477,-2],[67495,-13],[67498,-5],[67503,-9],[67508,-1],[67524,-2],[67551,-6],[67558,-9],[67560,-6],[67572,-4],[67578,-7],[67596,-5],[67599,-2],[67606,46],[67622,-3],[67624,-6],[67633,-11],[67644,-4],[67645,1],[67679,28],[67680,-65],[67690,-2],[67703,-4],[67704,-5],[67727,-3],[67733,-3],[67745,-7],[67749,-1],[67779,-6],[67786,-8],[67812,-1],[67824,-7],[67851,1],[67852,-5],[67856,-3],[67867,-1],[67885,-2],[67888,-9],[67936,-11],[67974,-1],[67989,-10],[68009,-3],[68017,-7],[68026,-1],[68035,-10],[68063,-11],[68073,4],[68094,25],[68100,-2],[68108,-4],[68114,-7],[68116,-1],[68118,-1],[68126,-1],[68141,-4],[68151,-2],[68163,-8],[68174,-3],[68177,-1],[68178,-10],[68181,-21],[68189,-2],[68276,-3],[68278,-5],[68289,-1],[68293,-5],[68322,-20],[68334,-4],[68359,-1],[68372,-8],[68377,-4],[68384,-5],[68385,-8],[68445,-1],[68472,-4],[68493,-2],[68498,1],[68502,-13],[68504,-1],[68513,1],[68553,6],[68554,-5],[68555,-1],[68575,-8],[68585,-5],[68631,-7],[68677,-7],[68691,-3],[68711,1],[68713,12],[68720,-1],[68725,1],[68726,-3],[68733,2],[68762,6],[68764,-4],[68804,-6],[68810,-3],[68820,-9],[68833,18],[68842,-8],[68845,-5],[68848,-6],[68875,7],[68881,-5],[68889,-27],[68891,-8],[68892,-2],[68933,-7],[68940,-8],[68963,-14],[68986,-20],[69030,-3],[69042,-5],[69049,-14],[69052,-2],[69054,1],[69066,-15],[69068,-8],[69084,-14],[69087,4],[69106,-8],[69107,-1],[69127,-15],[69138,12],[69149,-2],[69150,-1],[69167,3],[69191,-5],[69192,-2],[69223,-3],[69226,5],[69240,-7],[69255,-3],[69267,-6],[69301,40],[69308,-1],[69316,9],[69321,-6],[69323,-8],[69325,-5],[69335,-4],[69348,-21],[69362,-12],[69364,-6],[69378,-12],[69381,-6],[69406,-1],[69412,-21],[69464,17],[69475,32],[69497,-10],[69498,-4],[69520,-3],[69521,48],[69563,-5],[69566,-11],[69581,31],[69582,-5],[69594,-1],[69610,-5],[69647,-10],[69652,23],[69653,-7],[69660,-3],[69682,-2],[69726,-2],[69728,4],[69767,-1],[69777,-7],[69800,-12],[69825,-12],[69827,-5],[69835,-5],[69854,-4],[69856,-5],[69863,-13],[69883,-11],[69901,-1],[69902,-3],[69906,1],[69933,-10],[69951,-11],[69952,-6],[69956,-6],[69967,-2],[69997,-15],[70017,-8],[70045,-2],[70047,-3],[70056,-2],[70061,-5],[70075,-3],[70076,17],[70078,-2],[70098,-7],[70100,-2],[70112,-1],[70129,-8],[70131,-7],[70161,-21],[70162,8],[70163,-1],[70169,-8],[70176,-8],[70187,24],[70198,-1],[70224,-3],[70233,-7],[70246,-10],[70341,-8],[70344,-9],[70362,-9],[70363,-21],[70373,1],[70395,-7],[70402,-15],[70406,-2],[70430,-1],[70432,-12],[70443,-22],[70466,17],[70476,-4],[70487,-1],[70493,-3],[70501,35],[70520,16],[70528,-7],[70533,-7],[70577,-3],[70584,-11],[70589,-5],[70593,-5],[70594,18],[70603,-2],[70621,-3],[70636,-2],[70650,-16],[70654,-6],[70674,-7],[70675,-13],[70678,-2],[70716,-9],[70728,-21],[70743,-3],[70755,-5],[70769,-12],[70795,-3],[70801,-9],[70818,-1],[70827,-6],[70836,-9],[70838,7],[70840,47],[70857,1],[70862,-1],[70895,-9],[70939,-2],[70969,-2],[70989,-7],[71012,-3],[71015,-6],[71027,-21],[71037,49],[71049,-11],[71067,-3],[71073,-3],[71077,-10],[71092,-6],[71097,-2],[71103,-4],[71108,-5],[71111,-9],[71140,-6],[71147,-6],[71153,-6],[71199,-7],[71214,6],[71248,-1],[71257,27],[71275,40],[71279,-9],[71296,-1],[71306,23],[71317,11],[71318,-2],[71364,-21],[71376,-5],[71381,-1],[71395,-11],[71409,-10],[71411,-6],[71416,6],[71432,-1],[71478,-6],[71500,-26],[71533,-11],[71544,-8],[71576,-3],[71609,-2],[71617,-5],[71624,-11],[71629,-9],[71633,-2],[71643,-1],[71645,-10],[71652,-4],[71668,-1],[71686,8],[71693,-4],[71696,86],[71703,-4],[71710,-12],[71716,-5],[71718,-4],[71739,-10],[71775,-21],[71796,-7],[71802,-2],[71804,33],[71807,-2],[71810,-2],[71825,-1],[71837,-3],[71840,-11],[71843,-4],[71895,-21],[71915,-10],[71921,-3],[71929,3],[71934,-11],[71952,-4],[71963,-1],[71970,16],[71992,1],[72005,42],[72030,-7],[72035,-3],[72050,-6],[72076,-5],[72131,-1],[72140,-9],[72176,-10],[72216,-2],[72294,-22],[72308,-11],[72312,6],[72326,-2],[72330,-5],[72360,-16],[72394,-2],[72395,6],[72422,-5],[72438,-8],[72455,29],[72471,-1],[72477,-5],[72488,-2],[72509,-9],[72511,-3],[72515,-9],[72553,-7],[72598,-13],[72602,-3],[72603,74],[72604,-2],[72613,4],[72618,-2],[72627,-2],[72639,-18],[72666,18],[72667,-10],[72670,-10],[72682,1],[72688,-6],[72714,-20],[72716,1],[72722,-5],[72727,-3],[72738,-16],[72766,-11],[72770,-1],[72782,-4],[72783,-2],[72805,-10],[72806,-1],[72893,-4],[72933,-1],[72936,-3],[72943,-2],[72952,-12],[72980,2],[72987,-1],[72988,-4],[73019,-4],[73023,-29],[73032,1],[73079,-2],[73099,-4],[73113,-3],[73130,-3],[73154,-3],[73165,-10],[73177,-9],[73206,-3],[73218,-9],[73222,-5],[73238,-12],[73258,37],[73265,-5],[73269,36],[73271,-7],[73288,-1],[73294,-9],[73297,-2],[73322,-12],[73335,-14],[73340,16],[73342,-7],[73349,-5],[73350,-10],[73358,-6],[73382,-5],[73385,18],[73391,-5],[73398,-4],[73412,12],[73425,-2],[73430,-1],[73432,5],[73445,-5],[73457,-5],[73458,-3],[73482,-7],[73506,6],[73520,-1],[73540,-10],[73555,-2],[73567,-2],[73569,-1],[73593,-4],[73613,-5],[73616,-1],[73617,-9],[73618,-5],[73626,-2],[73633,-4],[73640,-1],[73685,6],[73696,-5],[73697,25],[73705,-3],[73717,-2],[73719,-8],[73729,-3],[73741,-7],[73748,-1],[73753,17],[73783,-29],[73793,-3],[73817,-9],[73828,-12],[73831,-11],[73845,-6],[73857,-7],[73878,-1],[73889,-2],[73891,-8],[73898,-4],[73899,12],[73901,-6],[73924,-1],[73925,-5],[73946,-12],[73958,-6],[73973,-1],[73974,-2],[74006,4],[74034,-11],[74036,-5],[74051,-15],[74080,-13],[74092,-4],[74112,-10],[74114,-2],[74134,-16],[74140,-9],[74161,-1],[74171,-21],[74177,-11],[74205,-9],[74217,4],[74220,-2],[74239,-1],[74253,9],[74265,-1],[74267,1],[74277,-12],[74279,-3],[74291,24],[74300,-16],[74304,-2],[74314,-5],[74348,-2],[74358,36],[74375,-11],[74391,11],[74392,-7],[74398,-10],[74408,-1],[74410,1],[74424,-6],[74432,-6],[74442,-10],[74448,-2],[74452,-9],[74464,-17],[74466,1],[74470,-1],[74479,-5],[74502,-2],[74522,-1],[74523,-6],[74524,-5],[74526,-3],[74532,-1],[74535,-1],[74558,-6],[74559,4],[74577,11],[74594,-9],[74600,-2],[74612,-10],[74614,30],[74635,7],[74643,-5],[74647,-11],[74692,-8],[74704,-3],[74711,-3],[74716,-3],[74730,-5],[74736,-8],[74754,24],[74788,-10],[74816,-2],[74825,-3],[74826,-4],[74835,-32],[74842,-2],[74844,-7],[74845,-3],[74856,24],[74862,33],[74866,-3],[74885,8],[74919,-1],[74923,-1],[74927,-21],[74928,-3],[74944,-5],[74962,-2],[74972,-1],[74984,-7],[75007,-3],[75036,89],[75051,-4],[75064,-10],[75083,-1],[75086,-6],[75107,-8],[75131,-1],[75134,-6],[75152,-4],[75154,-8],[75168,2],[75169,-3],[75172,-11],[75195,-11],[75212,-7],[75224,-3],[75231,-3],[75237,-5],[75238,12],[75243,-4],[75246,1],[75297,-13],[75314,41],[75318,-2],[75321,11],[75325,-9],[75349,-2],[75351,-2],[75352,5],[75360,27],[75361,-11],[75375,-6],[75376,-3],[75402,-3],[75416,1],[75419,-4],[75439,-4],[75440,-7],[75445,-20],[75482,-4],[75494,-5],[75509,-11],[75514,-8],[75559,-6],[75569,-2],[75583,-3],[75589,-1],[75608,-5],[75647,-6],[75663,-50],[75680,-3],[75701,1],[75705,-5],[75710,-8],[75717,-5],[75735,-1],[75764,-1],[75802,-9],[75813,-1],[75815,-4],[75829,-1],[75857,-1],[75863,-4],[75864,-6],[75885,-4],[75889,-9],[75937,-3],[75949,-6],[75966,-1],[75991,-3],[75999,-1],[76005,-5],[76021,-4],[76031,-3],[76044,4],[76057,-1],[76063,-1],[76064,-1],[76076,-3],[76079,-1],[76098,-4],[76102,-7],[76110,12],[76116,-8],[76118,23],[76143,2],[76173,-7],[76206,-1],[76210,8],[76215,-10],[76237,-4],[76256,-3],[76264,-1],[76278,-2],[76292,-5],[76296,-3],[76298,-1],[76318,2],[76324,-6],[76325,-3],[76332,-3],[76366,18],[76370,-1],[76376,-16],[76399,-6],[76404,-3],[76419,-1],[76427,23],[76431,-4],[76438,-3],[76451,-2],[76457,-9],[76458,8],[76470,-3],[76485,-3],[76509,-1],[76511,-5],[76540,12],[76541,-2],[76546,-13],[76547,-1],[76551,-3],[76568,-7],[76572,-5],[76577,-2],[76583,1],[76585,27],[76595,-3],[76615,-6],[76617,11],[76628,-8],[76662,1],[76693,-9],[76695,-24],[76720,-25],[76721,4],[76723,40],[76727,-5],[76739,-6],[76743,-4],[76745,-3],[76779,-3],[76789,-2],[76793,-2],[76801,-1],[76805,-1],[76833,-10],[76839,-4],[76850,-15],[76851,-5],[76875,-1],[76897,6],[76917,-21],[76935,-10],[76942,-2],[76962,-4],[76984,-1],[76985,15],[77002,-7],[77008,-9],[77025,-9],[77029,-6],[77048,-1],[77053,-2],[77055,-29],[77062,-5],[77073,-2],[77082,-9],[77091,-12],[77093,-6],[77097,-4],[77136,-4],[77168,1],[77176,-9],[77178,-9],[77184,-7],[77206,-2],[77208,-7],[77218,-6],[77236,11],[77238,-2],[77250,-7],[77253,-1],[77275,-2],[77284,-1],[77291,-1],[77293,-2],[77301,-5],[77319,-6],[77324,-7],[77335,-21],[77356,-8],[77367,-4],[77376,-10],[77378,-14],[77387,-10],[77397,-6],[77408,-1],[77425,-1],[77448,-1],[77463,-9],[77464,-1],[77497,-6],[77515,-15],[77529,-21],[77534,-2],[77552,-30],[77559,-2],[77562,-21],[77565,-5],[77569,-5],[77571,5],[77572,-2],[77579,-1],[77606,-7],[77612,-2],[77615,-1],[77630,1],[77633,-4],[77635,-5],[77642,-10],[77656,-4],[77662,-6],[77697,-2],[77704,-6],[77714,-1],[77722,-5],[77726,-5],[77730,2],[77755,2],[77762,-3],[77763,-11],[77771,12],[77779,-11],[77782,-6],[77788,-6],[77794,-7],[77806,-4],[77817,-2],[77839,42],[77848,-1],[77858,-15],[77882,-20],[77885,13],[77906,-5],[77909,-8],[77911,-1],[77913,23],[77919,-3],[77948,-2],[77955,24],[78007,-14],[78010,-4],[78022,-6],[78050,-4],[78071,-5],[78080,-1],[78087,-1],[78126,7],[78131,-1],[78143,-11],[78144,-1],[78147,-7],[78158,-10],[78164,2],[78173,48],[78220,-8],[78228,-6],[78240,-5],[78263,-5],[78274,72],[78293,-1],[78297,-9],[78301,-6],[78307,-1],[78338,-2],[78347,-3],[78384,-4],[78396,-2],[78431,21],[78432,-22],[78442,-1],[78452,-2],[78460,71],[78462,-10],[78463,-12],[78467,-39],[78480,-6],[78484,-23],[78494,-10],[78503,-7],[78585,-5],[78589,-3],[78603,2],[78622,3],[78670,-7],[78672,-1],[78677,-7],[78680,-1],[78685,-2],[78692,19],[78697,-8],[78722,-11],[78729,-4],[78750,-3],[78753,-3],[78778,22],[78794,-9],[78801,38],[78815,-2],[78821,-8],[78841,-1],[78843,-5],[78857,-4],[78923,-1],[78931,-3],[78951,-15],[78965,1],[78966,-11],[78968,-21],[78974,-1],[78988,4],[79002,-6],[79006,4],[79012,-10],[79018,-2],[79037,-1],[79041,-1],[79061,-5],[79070,-9],[79083,-2],[79099,-2],[79105,-6],[79109,-7],[79127,-4],[79173,-13],[79254,-4],[79256,-6],[79262,-10],[79267,16],[79276,6],[79286,-6],[79297,-5],[79313,-9],[79317,-5],[79336,16],[79348,1],[79356,-3],[79362,-3],[79367,-25],[79369,-12],[79372,-10],[79401,3],[79406,-4],[79431,-2],[79442,-9],[79449,-2],[79451,-8],[79460,-12],[79501,-8],[79513,1],[79526,-2],[79543,-7],[79564,52],[79565,-9],[79591,-9],[79606,-1],[79607,-12],[79614,1],[79620,-4],[79623,-2],[79662,-1],[79677,-6],[79686,-1],[79693,-1],[79711,-5],[79712,-9],[79716,-29],[79723,-1],[79739,-1],[79759,-3],[79771,-1],[79772,10],[79779,86],[79804,12],[79805,-12],[79806,-11],[79817,-12],[79825,-15],[79826,2],[79853,-7],[79907,-6],[79937,-2],[79950,-5],[79970,-1],[79974,-16],[79979,-7],[79988,-2],[79994,78],[79996,-5],[80019,-6],[80038,-3],[80074,8],[80075,2],[80083,-1],[80089,-2],[80109,-3],[80128,-2],[80132,-4],[80157,29],[80165,-10],[80172,-1],[80210,-3],[80213,-6],[80223,-5],[80224,3],[80238,1],[80242,-1],[80260,-7],[80266,-1],[80276,-1],[80294,12],[80316,-3],[80322,14],[80377,10],[80393,-6],[80403,-5],[80457,-11],[80458,-1],[80473,-1],[80480,5],[80550,-1],[80571,21],[80583,-9],[80587,-1],[80588,-1],[80621,-12],[80631,-6],[80636,-4],[80654,3],[80664,-2],[80683,-9],[80687,-4],[80715,-8],[80721,-12],[80724,-3],[80725,-7],[80735,-5],[80763,-1],[80767,-1],[80776,-10],[80788,-12],[80793,-1],[80809,-3],[80811,-5],[80839,2],[80847,1],[80876,-5],[80878,-7],[80880,-1],[80895,-2],[80903,-2],[80955,12],[80961,-7],[80974,-5],[80975,-13],[80976,-12],[80983,22],[80991,-4],[80993,-5],[81020,-7],[81032,-7],[81068,-5],[81072,-8],[81076,-9],[81096,-2],[81141,5],[81153,-17],[81165,1],[81173,-3],[81199,8],[81282,-5],[81283,-23],[81320,-11],[81332,-26],[81337,-1],[81343,-5],[81344,-5],[81348,-7],[81371,-10],[81381,-8],[81396,-2],[81400,52],[81415,49],[81417,-2],[81444,-3],[81495,12],[81498,-7],[81556,-21],[81560,-2],[81564,-8],[81575,-7],[81588,-5],[81599,-6],[81626,-2],[81627,-7],[81663,-16],[81701,-11],[81727,12],[81744,-5],[81745,-5],[81746,27],[81751,-1],[81757,48],[81780,-7],[81796,-25],[81833,-13],[81847,-12],[81876,-2],[81902,-9],[81915,11],[81922,-6],[82019,2],[82022,-14],[82044,-2],[82048,-10],[82087,-3],[82093,-3],[82108,-21],[82142,-6],[82143,-1],[82146,-2],[82151,-3],[82154,-5],[82169,-23],[82219,-7],[82239,-8],[82242,-1],[82245,2],[82250,-4],[82257,-1],[82279,-2],[82287,33],[82328,-4],[82354,-10],[82361,-2],[82364,-4],[82377,-28],[82391,-7],[82405,-2],[82410,-2],[82416,53],[82431,-10],[82434,-2],[82438,-5],[82456,28],[82491,-1],[82521,-4],[82527,-3],[82604,-3],[82612,-3],[82630,-6],[82699,-1],[82714,-6],[82747,-1],[82766,-6],[82776,16],[82788,-9],[82800,1],[82804,11],[82824,-1],[82858,-2],[82871,-10],[82899,-2],[82909,3],[82910,-2],[82915,-5],[82920,10],[82926,-1],[82927,-3],[82933,-10],[82941,-2],[82961,4],[82992,-2],[83007,-5],[83035,-8],[83095,-7],[83124,-1],[83130,42],[83178,-3],[83179,-5],[83183,-13],[83187,-1],[83194,-2],[83197,-2],[83204,-3],[83207,7],[83211,6],[83212,-9],[83224,-6],[83260,-2],[83265,-11],[83272,-14],[83274,-8],[83277,-10],[83278,-1],[83287,-17],[83295,-2],[83306,-4],[83311,-3],[83313,6],[83318,-1],[83341,-2],[83372,-4],[83384,-12],[83393,-8],[83405,18],[83461,15],[83464,-2],[83468,-3],[83471,1],[83496,-1],[83501,2],[83504,-3],[83509,-3],[83527,-8],[83530,5],[83531,-28],[83541,23],[83564,-2],[83575,2],[83576,12],[83581,23],[83625,-1],[83629,-4],[83664,-2],[83686,-2],[83688,-1],[83701,-3],[83704,-1],[83712,-6],[83715,-5],[83716,24],[83718,-6],[83723,-4],[83726,-10],[83734,-9],[83742,-10],[83748,-9],[83796,-11],[83818,-2],[83824,30],[83847,-5],[83850,-5],[83855,-1],[83867,-9],[83875,18],[83892,-3],[83915,-3],[83916,-1],[83939,-3],[83942,-6],[83946,-4],[83954,-4],[83961,-4],[83975,-9],[83977,-4],[83988,-20],[84005,-2],[84019,20],[84023,-2],[84026,-9],[84035,-21],[84048,-9],[84066,-7],[84068,-24],[84100,-5],[84111,-8],[84117,-18],[84138,-9],[84146,-1],[84164,-6],[84170,-9],[84175,22],[84180,-4],[84229,54],[84230,-1],[84231,-2],[84236,-7],[84251,-8],[84265,-10],[84270,-4],[84286,-8],[84295,-3],[84296,-20],[84305,-1],[84314,17],[84340,16],[84357,-5],[84406,-5],[84408,-3],[84411,-13],[84434,-11],[84445,-8],[84446,21],[84453,-5],[84455,-1],[84469,-1],[84493,-13],[84494,-2],[84496,-6],[84498,-18],[84514,13],[84522,-38],[84536,-21],[84554,-6],[84574,-2],[84598,-5],[84609,14],[84630,-2],[84646,-1],[84681,-3],[84700,-3],[84717,-1],[84730,-10],[84741,6],[84760,-1],[84761,33],[84788,86],[84791,-2],[84792,-5],[84795,-13],[84798,-4],[84806,47],[84849,-6],[84869,-23],[84870,-2],[84872,-1],[84914,-2],[84925,-7],[84949,-1],[84977,-7],[84978,-9],[84984,-2],[84992,-2],[85019,-10],[85024,-6],[85033,-5],[85049,-2],[85056,36],[85067,-11],[85115,-4],[85124,-6],[85129,-5],[85140,-7],[85153,-5],[85157,-10],[85163,-1],[85178,-1],[85206,-12],[85221,-4],[85230,-4],[85237,-1],[85252,10],[85254,-1],[85265,-9],[85268,-1],[85271,-8],[85334,-4],[85345,-12],[85348,-6],[85350,-2],[85375,-11],[85380,-14],[85383,-10],[85397,-2],[85400,-7],[85425,-9],[85427,-1],[85432,-3],[85457,-1],[85479,18],[85493,-9],[85517,-11],[85544,-24],[85554,-4],[85558,27],[85563,-12],[85585,-1],[85597,-14],[85604,-14],[85610,-7],[85614,-11],[85630,-2],[85644,-2],[85655,-6],[85662,-9],[85690,-9],[85693,-9],[85716,-6],[85719,-12],[85731,-4],[85793,-1],[85798,-3],[85811,-6],[85819,-5],[85839,1],[85866,-4],[85867,12],[85876,-3],[85892,-4],[85922,-4],[85927,-2],[85940,-5],[85956,-4],[85970,-5],[85978,-6],[85982,-7],[85989,16],[86027,1],[86033,-3],[86078,-2],[86086,-4],[86089,1],[86119,-13],[86124,-1],[86137,-9],[86139,-7],[86184,-8],[86186,-21],[86195,-9],[86196,-2],[86201,-3],[86206,-2],[86221,-9],[86229,2],[86245,-9],[86260,-3],[86278,-2],[86282,-7],[86313,-5],[86362,-1],[86372,-1],[86378,-4],[86387,-5],[86407,-29],[86423,-2],[86513,-11],[86518,-6],[86522,-8],[86531,-21],[86538,-1],[86555,12],[86559,-7],[86562,22],[86577,-9],[86604,-25],[86613,-5],[86643,-1],[86663,-1],[86665,-4],[86674,-5],[86687,-6],[86707,-3],[86724,-6],[86728,-7],[86757,-3],[86759,-10],[86765,-11],[86781,19],[86785,-9],[86818,-3],[86823,-6],[86874,-2],[86911,-7],[86915,-3],[86941,-2],[86952,-2],[86961,-2],[86962,-9],[86966,-13],[86992,-1],[87002,-2],[87014,-12],[87029,-6],[87035,3],[87042,-1],[87048,-7],[87079,5],[87080,12],[87085,-2],[87118,1],[87124,-4],[87139,68],[87187,-1],[87188,22],[87192,-13],[87195,-16],[87199,51],[87211,-14],[87253,2],[87270,-13],[87289,-1],[87291,-5],[87310,-5],[87320,-6],[87324,-1],[87359,41],[87363,24],[87385,-11],[87387,-6],[87405,-2],[87416,-5],[87417,-8],[87435,-7],[87451,41],[87464,-9],[87484,-10],[87489,-7],[87500,1],[87506,-2],[87523,-5],[87530,-3],[87542,-1],[87545,-1],[87546,-5],[87569,-1],[87572,-2],[87581,-7],[87590,-2],[87595,-11],[87616,-5],[87647,20],[87652,-1],[87663,-17],[87665,-11],[87670,-5],[87698,-6],[87707,-4],[87716,-5],[87726,-14],[87736,-1],[87766,-12],[87768,32],[87774,-40],[87776,-8],[87800,-4],[87807,-5],[87820,-31],[87845,-35],[87852,-4],[87854,-4],[87866,4],[87874,-7],[87875,-13],[87884,27],[87939,-9],[87941,17],[87942,54],[87986,-3],[87994,-2],[87996,-5],[88008,-2],[88013,-9],[88022,-3],[88024,-5],[88057,-5],[88060,-1],[88067,-6],[88100,-3],[88110,-5],[88130,-1],[88161,-2],[88166,-10],[88170,-5],[88190,-4],[88215,-8],[88243,6],[88247,-1],[88251,16],[88264,-1],[88271,-6],[88277,-6],[88295,-9],[88299,-1],[88340,-9],[88363,42],[88369,27],[88376,-9],[88410,-11],[88413,-2],[88422,-3],[88467,-1],[88468,-6],[88470,-1],[88493,-1],[88542,-1],[88552,-10],[88557,-7],[88576,-11],[88582,-2],[88585,-11],[88588,-10],[88594,-1],[88619,-12],[88627,-1],[88636,5],[88641,1],[88645,-4],[88649,-44],[88651,-13],[88662,30],[88664,-21],[88667,-1],[88668,-1],[88692,12],[88702,-5],[88707,-8],[88709,-2],[88723,-21],[88737,-1],[88738,-4],[88739,-8],[88741,7],[88779,-8],[88813,-1],[88827,-1],[88828,-5],[88839,28],[88844,-4],[88865,-20],[88869,-8],[88880,23],[88892,-21],[88900,-5],[88914,-6],[88940,-8],[88942,-7],[88948,-10],[88966,-8],[89006,-1],[89029,-2],[89052,-2],[89068,17],[89076,-1],[89134,-1],[89141,-1],[89143,-5],[89145,-7],[89153,-1],[89167,-1],[89171,-2],[89186,-1],[89206,-3],[89233,1],[89237,-17],[89245,-9],[89258,-3],[89302,-7],[89303,-12],[89315,5],[89338,-1],[89347,-2],[89351,-4],[89357,-3],[89380,-23],[89389,-25],[89407,-11],[89410,-7],[89435,-12],[89498,-4],[89508,-13],[89530,-8],[89571,-1],[89586,-12],[89593,-7],[89627,-20],[89638,-6],[89676,-4],[89677,-6],[89709,-5],[89751,-1],[89771,18],[89774,-7],[89776,-4],[89781,-3],[89813,-21],[89818,-8],[89819,-5],[89826,-10],[89839,-9],[89863,-7],[89864,-2],[89870,-4],[89885,-2],[89907,-4],[89912,-1],[89914,-5],[89923,-21],[89949,-20],[89981,-2],[89982,-30],[89988,-6],[89991,-17],[90007,-11],[90020,12],[90037,-10],[90045,-3],[90062,31],[90083,-1],[90090,-9],[90103,-9],[90130,-2],[90139,-2],[90142,-6],[90143,-3],[90154,-7],[90186,-2],[90193,-1],[90201,-6],[90204,-5],[90206,-3],[90232,2],[90238,-2],[90252,11],[90259,-1],[90263,-11],[90280,-10],[90288,-2],[90340,-6],[90348,-10],[90353,-3],[90355,11],[90361,-1],[90373,-10],[90424,-1],[90430,-2],[90446,-7],[90451,-1],[90484,-4],[90497,2],[90499,-12],[90501,-6],[90515,-2],[90518,-4],[90549,-1],[90556,-9],[90557,-3],[90558,-1],[90573,-6],[90581,-1],[90622,-4],[90632,-4],[90644,-18],[90649,-4],[90669,-2],[90688,-4],[90721,-6],[90732,-6],[90766,-4],[90779,-5],[90787,-3],[90792,-6],[90808,-12],[90823,-6],[90826,49],[90829,19],[90856,-6],[90878,-1],[90879,-10],[90886,-7],[90894,64],[90895,-10],[90897,-1],[90906,-1],[90914,-3],[90927,-2],[90928,18],[90950,-2],[90960,-1],[90966,19],[90983,-1],[90995,-1],[90996,-21],[91000,-3],[91001,-11],[91007,-5],[91010,-4],[91012,-3],[91023,-2],[91027,16],[91044,-30],[91056,12],[91069,42],[91083,-3],[91089,-3],[91103,37],[91120,-1],[91144,-2],[91153,-3],[91163,-6],[91194,-18],[91223,10],[91239,-3],[91240,-13],[91282,-4],[91340,-1],[91352,-1],[91358,5],[91359,-9],[91373,1],[91384,-11],[91396,-3],[91410,-5],[91414,-6],[91446,-7],[91468,2],[91477,-10],[91483,-8],[91496,-5],[91504,-1],[91530,-7],[91564,3],[91565,-1],[91569,5],[91572,-1],[91605,-1],[91610,-11],[91611,-3],[91613,-2],[91641,-6],[91644,-24],[91665,-5],[91703,-5],[91709,-2],[91717,-6],[91734,-6],[91794,-8],[91800,-24],[91804,-9],[91817,-8],[91836,-1],[91850,-28],[91865,-2],[91874,-6],[91881,-4],[91894,-3],[91898,-3],[91921,-7],[91946,-20],[91967,-7],[91989,-3],[92005,22],[92030,-6],[92064,4],[92074,-10],[92096,-3],[92100,-8],[92121,-12],[92148,-9],[92157,2],[92172,-7],[92223,-2],[92238,-1],[92246,-5],[92253,-4],[92295,-17],[92304,-3],[92318,-2],[92337,-6],[92347,-3],[92370,-1],[92373,-1],[92378,-21],[92383,-3],[92401,-23],[92403,12],[92414,-3],[92424,-6],[92452,-8],[92457,18],[92470,1],[92498,-8],[92514,-21],[92518,-8],[92519,-5],[92546,-2],[92549,-9],[92560,-1],[92568,-2],[92592,14],[92593,44],[92601,-13],[92605,-2],[92607,-15],[92609,-5],[92627,-1],[92639,-10],[92651,-11],[92670,-11],[92704,-12],[92739,-7],[92761,-5],[92782,-3],[92789,-8],[92806,-6],[92820,-1],[92825,-1],[92840,2],[92844,-21],[92854,-1],[92859,33],[92865,41],[92880,-21],[92890,36],[92901,16],[92945,-5],[92963,-8],[92977,1],[92992,2],[93028,-1],[93052,-14],[93053,-5],[93055,1],[93071,-4],[93110,-14],[93139,-12],[93140,-7],[93142,-1],[93146,-18],[93162,-2],[93166,-1],[93188,-8],[93223,-6],[93236,-2],[93238,-10],[93239,-1],[93241,-5],[93244,-5],[93267,13],[93272,-10],[93274,-1],[93301,49],[93309,24],[93315,-10],[93324,-5],[93331,-1],[93350,-12],[93387,-9],[93407,28],[93419,-4],[93420,-2],[93450,-4],[93462,-15],[93516,-2],[93518,-2],[93525,-11],[93572,25],[93574,-21],[93586,-1],[93646,-1],[93694,-11],[93704,-12],[93711,-5],[93726,-12],[93727,-12],[93736,-6],[93762,-8],[93770,-4],[93774,18],[93819,19],[93841,-2],[93858,-6],[93867,-21],[93874,14],[93891,-5],[93906,-6],[93917,-6],[93918,-10],[93943,-7],[93946,-54],[93956,-11],[93972,-9],[93974,1],[93983,86],[94007,-1],[94058,25],[94062,-2],[94066,-1],[94068,-4],[94074,1],[94111,-9],[94115,2],[94135,-8],[94136,-1],[94165,-3],[94173,-6],[94189,-2],[94195,-9],[94206,-5],[94218,-15],[94226,-2],[94227,-9],[94238,-2],[94251,-1],[94259,-2],[94271,-7],[94278,19],[94296,-10],[94303,-7],[94310,-3],[94333,-2],[94342,5],[94351,-1],[94372,-1],[94403,-16],[94431,-6],[94476,2],[94493,-3],[94517,-2],[94524,-20],[94525,-5],[94548,-20],[94553,-4],[94554,30],[94578,-4],[94587,-2],[94600,-5],[94641,-6],[94654,-1],[94663,-12],[94671,52],[94681,1],[94702,-8],[94724,-2],[94735,13],[94750,-4],[94777,-1],[94817,-1],[94869,-1],[94883,-3],[94894,-2],[94912,-4],[94944,-10],[94968,-1],[94978,-1],[94990,-8],[95022,-3],[95041,-5],[95075,37],[95076,-9],[95151,-1],[95167,-21],[95181,-8],[95184,11],[95185,-7],[95187,-9],[95188,-7],[95191,-6],[95232,-1],[95249,-10],[95258,4],[95272,-9],[95287,-10],[95291,-1],[95330,-7],[95359,-1],[95378,-2],[95421,38],[95424,-1],[95425,-5],[95435,-3],[95456,-1],[95464,-1],[95465,-4],[95477,-2],[95598,-8],[95652,-1],[95661,-4],[95682,-53],[95695,-7],[95711,-9],[95724,-5],[95729,15],[95736,-25],[95746,-1],[95750,-5],[95752,-5],[95763,-4],[95788,-2],[95818,-9],[95831,-5],[95851,-2],[95876,-20],[95881,-7],[95905,-1],[95910,-5],[95919,-6],[95923,-1],[95932,-6],[95936,-4],[95948,-3],[95955,-5],[95974,-7],[96000,-10],[96015,-12],[96032,23],[96045,-10],[96048,-4],[96051,-1],[96080,-2],[96088,16],[96089,-1],[96106,-5],[96107,-3],[96151,-9],[96154,11],[96172,-1],[96199,-2],[96201,-5],[96250,-20],[96263,-33],[96274,-16],[96276,-2],[96290,-9],[96308,-5],[96333,29],[96348,-3],[96351,-12],[96366,-10],[96374,2],[96378,-4],[96381,-43],[96388,-6],[96391,-8],[96410,-2],[96412,-6],[96433,-8],[96490,-2],[96529,-2],[96539,-11],[96540,-1],[96554,-1],[96555,-4],[96569,-3],[96573,-3],[96585,-1],[96613,-1],[96679,-10],[96709,-14],[96710,-1],[96711,5],[96712,-3],[96716,-1],[96762,-11],[96768,-11],[96778,-3],[96800,11],[96829,-9],[96841,-8],[96848,12],[96865,-3],[96870,-6],[96890,-10],[96891,8],[96893,-5],[96931,-23],[96993,-1],[97010,-1],[97022,5],[97025,-6],[97056,-21],[97096,-3],[97119,-5],[97120,5],[97126,-5],[97135,-3],[97143,-6],[97147,-1],[97178,8],[97181,-2],[97208,-15],[97212,40],[97215,-2],[97238,-7],[97247,-7],[97273,24],[97277,9],[97280,-10],[97281,-6],[97297,-7],[97336,-11],[97397,-6],[97415,21],[97472,-1],[97489,-9],[97491,-4],[97516,-6],[97530,-3],[97556,3],[97559,-5],[97574,-9],[97578,-2],[97626,-1],[97637,-5],[97657,-4],[97676,8],[97682,-1],[97697,-21],[97701,-1],[97717,14],[97729,-10],[97737,-7],[97742,-3],[97743,1],[97761,-4],[97765,-1],[97779,-5],[97822,-2],[97827,-2],[97831,-1],[97835,-5],[97836,-9],[97837,-5],[97838,-2],[97842,-21],[97849,-6],[97868,-4],[97899,-1],[97902,5],[97903,1],[97907,7],[97925,-9],[97957,-7],[97971,-3],[97982,-4],[98004,-7],[98025,-7],[98045,-10],[98046,-2],[98051,-5],[98059,-52],[98094,-3],[98102,-3],[98121,-1],[98125,-3],[98158,-6],[98164,-5],[98195,6],[98211,-2],[98219,-1],[98234,-3],[98239,-1],[98244,-6],[98258,-1],[98275,20],[98296,-7],[98297,-1],[98319,-3],[98326,-3],[98327,-14],[98333,-1],[98340,-8],[98374,-6],[98390,8],[98402,-7],[98422,-7],[98435,-10],[98437,-1],[98450,-8],[98464,-8],[98489,-1],[98498,-6],[98505,-9],[98507,-11],[98508,-1],[98512,-3],[98519,5],[98525,-1],[98528,-2],[98582,-3],[98598,-5],[98600,-6],[98609,-2],[98639,3],[98640,-2],[98653,54],[98675,-1],[98680,-1],[98698,-10],[98703,18],[98749,25],[98776,8],[98790,-5],[98817,4],[98841,-2],[98862,-1],[98875,-2],[98880,-4],[98904,-9],[98908,-3],[98909,-5],[98911,-6],[98931,-23],[98946,-1],[98958,-9],[98969,-1],[98983,-9],[98991,-8],[98996,-3],[99000,-2],[99012,-9],[99018,-2],[99024,11],[99031,7],[99054,-11],[99088,-1],[99095,-5],[99098,-9],[99105,-6],[99154,-2],[99155,86],[99184,1],[99205,-9],[99208,-5],[99231,-2],[99241,-4],[99243,-13],[99245,-10],[99247,1],[99263,-1],[99266,-4],[99277,-3],[99292,-1],[99297,-2],[99303,-17],[99338,8],[99347,48],[99362,-12],[99375,-4],[99387,-4],[99419,-2],[99440,-27],[99457,1],[99468,-21],[99490,-2],[99509,-4],[99516,-1],[99517,16],[99530,-16],[99532,-8],[99536,-4],[99537,6],[99549,-8],[99552,-3],[99554,-20],[99555,-13],[99601,-12],[99634,-13],[99728,-11],[99737,1],[99758,12],[99774,-2],[99794,-13],[99812,-1],[99824,22],[99825,-4],[99840,31],[99844,11],[99847,1],[99850,-4],[99860,-6],[99879,-6],[99888,-2],[99925,-7],[99928,-5],[99929,9],[99961,-6],[99995,-3],[100011,12],[100045,-1],[100050,1],[100056,-5],[100070,-12],[100072,-6],[100081,46],[100094,-4],[100098,24],[100109,-4],[100113,-9],[100116,-6],[100125,-4],[100143,-11],[100150,25],[100166,-5],[100167,-5],[100203,-5],[100224,-6],[100239,-7],[100257,-7],[100313,-10],[100335,-12],[100349,-7],[100353,-2],[100360,-1],[100368,-6],[100376,-12],[100384,-1],[100390,5],[100414,-10],[100428,-1],[100441,-7],[100443,-24],[100448,-1],[100452,-1],[100480,15],[100497,-21],[100502,-10],[100503,-4],[100545,-11],[100573,-3],[100581,-2],[100587,5],[100589,-1],[100617,-2],[100667,27],[100669,1],[100678,-5],[100690,-10],[100723,-3],[100731,-7],[100733,-10],[100742,18],[100763,-1],[100790,-9],[100791,-8],[100798,-4],[100799,-10],[100808,-8],[100815,37],[100818,1],[100820,-8],[100835,-1],[100873,-17],[100880,-6],[100904,12],[100905,-1],[100906,-5],[100990,-4],[101038,-5],[101054,-1],[101067,12],[101112,23],[101122,-6],[101124,-7],[101126,-10],[101132,33],[101139,-20],[101141,-3],[101150,-6],[101156,-20],[101163,-11],[101174,-8],[101190,-10],[101222,-1],[101237,-3],[101239,-6],[101245,-5],[101254,-2],[101266,-1],[101269,-2],[101273,-3],[101299,-11],[101304,2],[101312,2],[101327,13],[101332,-13],[101392,-8],[101397,-1],[101408,-25],[101410,7],[101436,-9],[101442,33],[101450,-5],[101487,-5],[101492,-1],[101506,1],[101518,1],[101523,-1],[101527,-4],[101556,-5],[101593,-1],[101596,-2],[101604,-6],[101637,-11],[101653,-1],[101663,-5],[101673,-1],[101709,-2],[101745,-1],[101753,-1],[101778,-8],[101815,-5],[101826,37],[101867,-1],[101907,-14],[101912,-3],[101918,-12],[101938,-2],[101939,-9],[101957,13],[101972,-9],[101976,-1],[102000,8],[102005,-5],[102016,-7],[102092,26],[102109,6],[102126,-1],[102144,-7],[102150,6],[102151,-1],[102167,16],[102179,-4],[102193,-12],[102206,-12],[102214,-10],[102256,-6],[102289,-10],[102294,-1],[102305,18],[102311,19],[102314,-1],[102331,-10],[102342,-13],[102352,-6],[102362,-9],[102363,-6],[102380,-9],[102382,-9],[102410,-15],[102425,-2],[102434,-4],[102438,-4],[102442,-3],[102446,-1],[102458,-4],[102466,-10],[102474,-1],[102537,-2],[102542,-4],[102555,-1],[102565,-5],[102571,-1],[102578,-8],[102580,-3],[102583,-1],[102589,-10],[102617,-2],[102644,-12],[102693,-3],[102704,-21],[102710,-2],[102711,-6],[102713,-22],[102715,-1],[102716,2],[102744,-6],[102769,-5],[102782,-4],[102793,-7],[102796,-2],[102797,-2],[102802,-17],[102806,2],[102812,-21],[102814,-1],[102837,48],[102845,-3],[102849,-5],[102853,-4],[102857,-9],[102858,-7],[102884,-3],[102886,-12],[102890,-5],[102916,24],[102920,23],[102954,-11],[102963,-15],[102968,5],[102971,5],[102974,-5],[103017,1],[103020,89],[103041,-5],[103048,2],[103058,-9],[103063,-7],[103085,-16],[103118,-9],[103119,4],[103150,-9],[103171,-3],[103172,41],[103205,-2],[103216,-13],[103226,-2],[103228,12],[103234,-6],[103238,-5],[103252,-15],[103262,-9],[103286,-7],[103301,3],[103313,-9],[103318,-16],[103351,1],[103353,52],[103358,-11],[103374,-5],[103389,-5],[103390,-3],[103421,-3],[103435,-1],[103460,-5],[103477,-1],[103491,-3],[103503,-5],[103517,-1],[103519,-7],[103539,-3],[103543,41],[103563,-3],[103612,-7],[103620,1],[103651,27],[103657,-19],[103661,-14],[103703,-7],[103709,-1],[103725,1],[103730,-1],[103768,-2],[103828,42],[103839,-11],[103853,-2],[103879,-6],[103931,-2],[103943,-1],[103964,-4],[103987,42],[104011,-1],[104015,12],[104023,-10],[104047,-4],[104050,-4],[104056,-8],[104060,-1],[104106,-5],[104107,-3],[104116,-14],[104123,-9],[104126,-3],[104128,-5],[104136,-1],[104138,-9],[104143,-3],[104144,-10],[104155,-9],[104159,-14],[104164,-5],[104187,-3],[104195,-20],[104211,-2],[104221,-5],[104237,-2],[104253,-11],[104262,-11],[104276,-3],[104289,-3],[104294,-2],[104325,-1],[104326,-5],[104340,-5],[104341,-1],[104367,-3],[104371,1],[104377,1],[104389,-10],[104395,-6],[104410,-3],[104414,-18],[104435,-3],[104437,-6],[104461,-3],[104463,21],[104464,-8],[104465,-21],[104467,-2],[104496,-5],[104524,-6],[104538,-3],[104549,-4],[104550,-8],[104562,-1],[104595,1],[104597,2],[104614,-4],[104618,-8],[104634,-2],[104652,-2],[104664,-9],[104667,-2],[104677,-9],[104695,-3],[104704,26],[104712,-2],[104740,18],[104749,-6],[104777,3],[104781,-9],[104795,-6],[104813,-2],[104816,-2],[104817,-11],[104837,-2],[104873,-40],[104879,-1],[104896,-6],[104905,-4],[104914,-1],[104921,-3],[104930,-1],[104932,-2],[104954,11],[104960,-8],[104965,-3],[104973,-5],[104984,-5],[104989,-6],[105075,-3],[105082,-7],[105085,-1],[105087,-3],[105131,6],[105136,-6],[105150,-1],[105153,-11],[105164,-8],[105169,-5],[105183,-2],[105189,-2],[105216,-1],[105220,-1],[105223,-8],[105224,-7],[105231,-5],[105245,-10],[105250,-2],[105264,-5],[105284,-17],[105286,-5],[105301,6],[105333,-19],[105348,-9],[105351,-8],[105355,-13],[105375,-4],[105381,-9],[105383,18],[105411,-7],[105433,1],[105444,-2],[105451,5],[105478,-5],[105488,16],[105490,-4],[105510,-21],[105534,-7],[105537,-2],[105539,-3],[105562,1],[105567,11],[105581,-8],[105586,-1],[105595,-5],[105597,-4],[105623,49],[105657,1],[105659,-2],[105675,-10],[105684,-9],[105690,-5],[105726,-4],[105728,-6],[105736,-6],[105738,-8],[105740,-10],[105766,-1],[105773,-1],[105780,-8],[105797,-1],[105803,-10],[105847,-10],[105863,-2],[105891,-1],[105933,-2],[105937,-1],[105951,-11],[105965,18],[105989,-8],[105990,2],[106000,-1],[106002,5],[106009,-2],[106020,-3],[106048,-6],[106066,-3],[106072,-5],[106074,-1],[106089,4],[106112,-5],[106118,4],[106131,-2],[106141,-1],[106147,-2],[106189,4],[106198,11],[106227,-7],[106237,-7],[106248,-1],[106252,-7],[106283,-2],[106285,-3],[106295,-6],[106319,-1],[106322,-10],[106332,-1],[106339,-1],[106340,-4],[106354,30],[106370,-6],[106377,-4],[106382,-1],[106424,-6],[106427,-3],[106429,-20],[106444,-2],[106485,-1],[106486,-6],[106500,24],[106501,-2],[106504,-1],[106530,-1],[106534,-2],[106549,-13],[106551,-1],[106553,-4],[106614,-1],[106640,-16],[106651,-5],[106663,-21],[106669,2],[106681,-40],[106683,-12],[106719,-1],[106723,-10],[106731,-1],[106740,3],[106745,3],[106752,-3],[106757,-10],[106773,-4],[106795,-1],[106797,-2],[106901,48],[106907,-8],[106911,-10],[106925,-7],[106932,-1],[106948,-11],[106961,-6],[106962,-6],[106970,-2],[106980,-13],[106990,-7],[106993,-10],[107006,-16],[107008,-4],[107017,4],[107085,-3],[107103,-21],[107117,-2],[107121,-14],[107140,2],[107153,7],[107167,-1],[107186,-3],[107192,-1],[107241,2],[107255,-8],[107282,-3],[107284,-10],[107291,13],[107306,-6],[107309,-2],[107320,-3],[107332,-4],[107335,-1],[107342,-13],[107343,-1],[107368,-3],[107374,-3],[107383,-6],[107389,-3],[107439,-1],[107452,-21],[107471,-1],[107478,-1],[107496,6],[107503,-7],[107506,-1],[107512,-5],[107516,-4],[107520,1],[107527,-21],[107529,-1],[107549,-10],[107550,-2],[107567,-21],[107594,-11],[107601,2],[107617,-2],[107626,-2],[107640,-5],[107682,-3],[107694,-10],[107702,2],[107708,-5],[107716,-10],[107723,-2],[107734,-1],[107750,-4],[107753,-5],[107760,-10],[107772,78],[107790,-21],[107861,-6],[107868,-7],[107901,-2],[107952,-20],[107958,-1],[107971,-1],[107995,1],[107996,-8],[108004,-3],[108032,-9],[108037,-9],[108041,-11],[108074,-2],[108086,14],[108112,-1],[108128,19],[108154,-8],[108158,-6],[108177,-7],[108240,-2],[108263,-4],[108264,-9],[108276,12],[108300,-3],[108306,-1],[108321,-7],[108355,14],[108388,-5],[108422,-10],[108432,22],[108437,-1],[108440,-16],[108449,-11],[108485,-7],[108557,-4],[108563,-4],[108579,2],[108627,-10],[108652,-2],[108666,5],[108668,-2],[108743,-1],[108747,-4],[108775,-1],[108779,-6],[108794,-5],[108804,-9],[108810,-3],[108826,-7],[108859,-7],[108869,-3],[108873,-10],[108874,-5],[108906,-1],[108929,18],[108951,-5],[108959,-8],[108969,-1],[108974,-8],[108978,-2],[108990,-3],[108995,10],[109000,-1],[109025,-1],[109050,-1],[109052,-5],[109055,-3],[109069,-3],[109078,-3],[109089,5],[109099,-31],[109142,-3],[109172,5],[109176,-3],[109191,-2],[109201,-5],[109208,-7],[109213,-7],[109270,-8],[109301,-6],[109312,-4],[109314,-8],[109322,-1],[109331,-2],[109338,-5],[109345,-2],[109386,-1],[109410,-12],[109429,-10],[109440,18],[109456,-18],[109467,-4],[109493,-1],[109511,-1],[109551,-1],[109564,-4],[109571,-1],[109610,-1],[109616,-2],[109622,-1],[109630,-1],[109632,-5],[109642,-6],[109662,-4],[109668,-4],[109675,-6],[109678,-3],[109709,-3],[109735,-1],[109766,-21],[109780,-3],[109818,24],[109825,-4],[109861,7],[109862,-10],[109887,-21],[109894,-6],[109899,-9],[109902,-8],[109905,-7],[109913,-1],[109922,-10],[109929,-2],[109942,-2],[109943,1],[109947,-8],[109975,27],[109985,-5],[110002,-5],[110021,-2],[110039,-3],[110058,-10],[110061,-1],[110070,-4],[110080,-8],[110086,-6],[110089,23],[110107,-9],[110111,-2],[110126,-5],[110144,-2],[110149,31],[110169,-3],[110171,-14],[110176,-6],[110228,-5],[110237,-1],[110257,-2],[110306,-11],[110309,-1],[110325,-4],[110336,37],[110346,-6],[110347,-1],[110349,8],[110367,-2],[110370,-37],[110384,-7],[110406,-4],[110434,-11],[110449,-1],[110472,-3],[110478,-6],[110485,-2],[110515,-1],[110526,2],[110540,-35],[110579,24],[110583,-2],[110627,14],[110634,-4],[110652,-6],[110671,-2],[110681,-3],[110715,4],[110716,-1],[110721,-9],[110735,-1],[110739,-10],[110751,22],[110773,-2],[110790,-2],[110794,-6],[110817,-5],[110832,-6],[110850,-10],[110862,-3],[110865,1],[110869,-5],[110877,-1],[110890,-10],[110891,-5],[110904,-2],[110924,-7],[110926,-5],[110928,4],[110949,-5],[110990,-2],[110994,50],[111007,-1],[111010,-58],[111011,-6],[111014,-7],[111043,-10],[111045,-11],[111082,-7],[111107,-1],[111114,-65],[111115,-1],[111116,-2],[111134,-15],[111150,-4],[111156,-3],[111157,-6],[111191,-1],[111194,-6],[111197,-2],[111211,-6],[111217,-2],[111222,-1],[111227,-5],[111228,-1],[111277,-2],[111280,-11],[111291,-1],[111320,-1],[111324,-5],[111336,-4],[111337,-4],[111344,-1],[111394,-5],[111408,-4],[111413,-14],[111429,-10],[111437,-4],[111476,-7],[111494,-2],[111507,-8],[111517,34],[111545,-4],[111585,-2],[111598,-7],[111604,2],[111607,-5],[111647,-10],[111651,-7],[111665,-4],[111668,-2],[111693,-1],[111701,31],[111715,-1],[111716,-10],[111746,-21],[111749,-5],[111763,11],[111774,-1],[111775,33],[111788,4],[111794,-5],[111802,-7],[111804,-6],[111813,1],[111816,-9],[111828,-18],[111839,-1],[111847,-11],[111852,-5],[111858,1],[111868,-8],[111893,24],[111936,-2],[111939,-3],[111943,-2],[111982,82],[112034,-1],[112053,-11],[112054,-6],[112071,37],[112123,-10],[112125,21],[112144,-14],[112152,-7],[112166,-7],[112178,-5],[112179,-1],[112184,-24],[112219,-26],[112223,-2],[112241,44],[112261,-5],[112277,-8],[112301,-2],[112307,-5],[112321,-2],[112323,-2],[112342,-2],[112343,-12],[112355,-5],[112393,-21],[112402,-21],[112409,-2],[112417,-8],[112419,-3],[112426,-13],[112439,7],[112447,-2],[112461,-5],[112474,-12],[112500,-3],[112537,-6],[112538,-9],[112566,-4],[112579,-1],[112617,-13],[112622,29],[112639,-5],[112641,-3],[112652,-1],[112684,-3],[112686,-3],[112689,-13],[112710,-3],[112745,-3],[112750,-8],[112765,-10],[112809,-1],[112817,-10],[112821,-1],[112822,-1],[112831,-1],[112842,5],[112868,-9],[112892,-2],[112896,-7],[112901,-7],[112910,-9],[112912,-21],[112914,-8],[112932,-7],[112933,7],[112938,-6],[112949,-1],[112958,-5],[112984,-1],[112986,-18],[112994,12],[113015,37],[113020,-9],[113025,-2],[113035,-9],[113087,-12],[113095,-8],[113108,-2],[113115,-4],[113129,17],[113136,-4],[113142,-2],[113172,-3],[113173,-21],[113193,12],[113194,-7],[113218,-2],[113224,-5],[113230,-10],[113243,-3],[113258,-6],[113262,-12],[113288,-10],[113306,-5],[113313,-45],[113337,24],[113351,-3],[113361,-9],[113377,10],[113418,-5],[113426,-12],[113428,-14],[113429,86],[113439,-9],[113446,-4],[113449,-2],[113458,-7],[113498,-1],[113532,-36],[113551,-10],[113553,-9],[113556,-5],[113560,-14],[113566,-4],[113573,-7],[113577,-12],[113586,-10],[113587,-3],[113603,-3],[113605,-21],[113615,-2],[113628,-1],[113639,-5],[113640,-14],[113643,-9],[113646,14],[113653,9],[113702,-6],[113762,-7],[113769,-11],[113775,-1],[113785,-9],[113804,-4],[113805,-1],[113811,-9],[113813,-5],[113833,-10],[113849,1],[113857,-3],[113859,-2],[113881,-2],[113893,-4],[113906,-5],[113917,19],[113928,-1],[113930,-5],[113932,-11],[113943,-10],[113968,6],[113972,-21],[113981,-9],[113994,-1],[114001,-20],[114008,10],[114013,-2],[114015,13],[114034,46],[114035,-3],[114048,-9],[114050,-3],[114055,-7],[114056,4],[114081,14],[114089,36],[114094,-2],[114109,-1],[114112,-7],[114126,-2],[114132,3],[114141,-1],[114163,-12],[114164,-24],[114167,-3],[114171,-1],[114182,12],[114195,99],[114266,-5],[114276,-3],[114288,8],[114292,-9],[114404,-1],[114411,-2],[114417,86],[114423,-3],[114452,-3],[114456,-2],[114471,49],[114478,6],[114501,-3],[114515,-1],[114518,-1],[114520,1],[114534,-1],[114541,-10],[114570,-8],[114582,-2],[114589,-10],[114595,-6],[114596,20],[114598,-10],[114606,27],[114609,-5],[114627,-8],[114637,-20],[114642,-2],[114648,-5],[114651,-1],[114674,-4],[114678,-4],[114679,-1],[114681,-1],[114687,-9],[114709,-5],[114728,-14],[114760,-5],[114767,-2],[114797,-7],[114798,-7],[114799,-4],[114812,-2],[114835,-1],[114837,-25],[114852,-6],[114879,14],[114883,14],[114898,-1],[114906,-5],[114921,-16],[114928,-8],[114956,-2],[114962,30],[114973,-34],[114991,-6],[115001,-3],[115006,-9],[115049,32],[115058,-1],[115067,-3],[115100,-7],[115106,-8],[115117,52],[115118,26],[115131,-1],[115132,-3],[115141,-6],[115142,-3],[115153,38],[115165,-12],[115191,-4],[115200,-1],[115227,-17],[115238,-21],[115240,31],[115242,-2],[115246,-1],[115252,-27],[115271,-10],[115299,-1],[115301,-2],[115302,-6],[115349,-4],[115351,-4],[115371,1],[115373,-2],[115382,22],[115400,-7],[115404,-16],[115410,-8],[115424,-5],[115435,1],[115441,-1],[115480,-1],[115489,-2],[115494,-3],[115497,-31],[115510,-2],[115526,-3],[115544,-13],[115546,-6],[115563,-1],[115590,18],[115625,-3],[115626,-65],[115631,-1],[115658,10],[115663,-6],[115671,-7],[115674,-7],[115690,-5],[115698,-9],[115702,-6],[115706,-3],[115737,-2],[115743,-2],[115750,-1],[115797,-15],[115851,17],[115853,-10],[115866,-1],[115876,-3],[115897,-1],[115900,-9],[115907,3],[115922,-1],[115934,18],[115945,-2],[115969,-2],[115975,-1],[115989,-1],[116000,-10],[116072,-1],[116148,-1],[116157,4],[116163,10],[116165,-2],[116174,-8],[116201,2],[116210,-6],[116216,-6],[116219,-7],[116228,-1],[116254,14],[116290,-5],[116299,-6],[116314,-6],[116317,4],[116319,-7],[116329,-4],[116340,-6],[116352,6],[116372,-9],[116373,-2],[116378,-6],[116400,-7],[116413,10],[116416,1],[116431,-2],[116440,-9],[116449,-5],[116455,-8],[116466,-10],[116478,9],[116519,-1],[116526,-1],[116539,-18],[116542,-1],[116556,-3],[116575,-5],[116603,-9],[116619,-9],[116634,-1],[116644,-3],[116646,-1],[116647,-2],[116665,-2],[116669,-7],[116673,-1],[116749,-5],[116756,-8],[116795,-9],[116809,-1],[116821,-1],[116827,-1],[116839,-27],[116862,-12],[116882,-1],[116885,-5],[116909,-3],[116912,-3],[116913,-6],[116971,-7],[116974,-3],[116984,-8],[116990,-4],[116997,-4],[117002,-4],[117015,-7],[117016,-3],[117031,-1],[117038,-8],[117042,-8],[117069,-1],[117071,3],[117074,12],[117092,6],[117094,-9],[117124,-1],[117156,-5],[117178,-12],[117184,-1],[117194,-8],[117201,-1],[117230,-5],[117246,-1],[117319,-1],[117342,-12],[117400,-7],[117403,-9],[117414,11],[117427,11],[117428,-1],[117432,2],[117436,-5],[117450,46],[117491,-5],[117495,-2],[117516,-14],[117521,-1],[117523,-5],[117529,-10],[117531,-5],[117581,-7],[117627,-12],[117632,-10],[117645,-2],[117686,-1],[117703,6],[117708,-12],[117725,-5],[117757,-8],[117758,12],[117771,-6],[117779,-1],[117787,-12],[117793,-1],[117803,-9],[117817,-1],[117822,-20],[117833,-30],[117866,-1],[117871,-16],[117887,-13],[117944,-4],[117950,1],[117965,-10],[117968,-2],[117992,-6],[117997,-32],[118028,-3],[118081,-4],[118107,-19],[118152,38],[118154,-7],[118155,-9],[118158,2],[118175,-2],[118184,-4],[118188,-4],[118196,-9],[118203,-4],[118204,1],[118225,-27],[118331,-9],[118342,-4],[118346,-13],[118410,-3],[118420,8],[118438,-18],[118447,-6],[118480,20],[118513,-3],[118519,-8],[118545,-5],[118548,-1],[118554,-15],[118574,-2],[118600,-7],[118606,-6],[118611,-2],[118612,-5],[118645,-11],[118657,-5],[118663,-2],[118680,-4],[118702,-12],[118717,-1],[118718,-1],[118750,-2],[118775,-4],[118794,-1],[118796,-20],[118805,14],[118810,-10],[118848,-6],[118853,-3],[118876,-2],[118941,47],[118951,-3],[118957,-4],[118967,-3],[118975,-13],[118979,8],[118984,13],[119008,-5],[119018,-5],[119031,-2],[119036,-10],[119054,-5],[119092,-3],[119116,-1],[119119,-20],[119141,-21],[119142,-9],[119143,-10],[119153,-11],[119163,-8],[119168,1],[119177,-20],[119192,-4],[119195,-3],[119218,-5],[119244,-6],[119278,-7],[119281,-1],[119287,-1],[119298,-2],[119305,-3],[119308,-19],[119319,49],[119321,-10],[119323,-1],[119328,54],[119371,-9],[119380,-1],[119400,4],[119411,-18],[119417,-9],[119422,11],[119443,-5],[119445,-4],[119476,54],[119493,-1],[119496,-4],[119497,6],[119522,-1],[119545,-2],[119564,48],[119565,-5],[119567,41],[119593,-3],[119594,-2],[119601,-7],[119644,-2],[119647,-40],[119659,-2],[119664,-9],[119685,-2],[119690,-2],[119709,-1],[119728,-21],[119742,-2],[119760,-21],[119771,2],[119773,-19],[119786,-7],[119815,-1],[119863,-1],[119878,-4],[119881,-10],[119891,-30],[119895,-4],[119925,-5],[119926,-10],[119927,-16],[119941,-3],[119948,-1],[119955,-1],[119967,-5],[119970,3],[119976,-6],[119988,86],[120008,-5],[120010,-6],[120037,-1],[120050,-7],[120085,-2],[120119,-2],[120123,-2],[120126,-5],[120147,4],[120156,-2],[120176,-7],[120197,-8],[120217,23],[120220,-2],[120221,-7],[120224,26],[120232,1],[120238,-1],[120256,-4],[120272,-1],[120286,-5],[120291,-4],[120312,-2],[120320,-9],[120323,-8],[120345,1],[120354,-4],[120362,-8],[120367,-10],[120396,-8],[120413,-34],[120417,-5],[120433,1],[120435,3],[120447,-3],[120490,-12],[120504,-1],[120511,-7],[120528,-7],[120537,-6],[120538,-1],[120539,3],[120561,-1],[120562,-12],[120563,1],[120568,-4],[120588,1],[120614,-4],[120629,-1],[120630,-9],[120635,1],[120639,-1],[120652,-1],[120655,-5],[120671,9],[120747,-14],[120790,-2],[120793,-3],[120821,-1],[120856,-6],[120878,-1],[120902,-6],[120931,-6],[120955,-6],[120972,-3],[120974,-3],[120978,-6],[120981,-1],[120982,-7],[120983,-10],[120992,-4],[121012,14],[121038,7],[121039,-2],[121063,-7],[121082,-10],[121084,-2],[121097,-3],[121113,-1],[121117,-2],[121118,-5],[121130,-1],[121141,-10],[121191,-5],[121214,-53],[121216,-6],[121238,44],[121257,-21],[121259,-1],[121260,-2],[121270,6],[121272,-6],[121287,-1],[121303,-1],[121335,1],[121346,-1],[121357,-5],[121368,-10],[121374,-2],[121386,88],[121392,-11],[121395,68],[121400,-5],[121404,-5],[121422,12],[121426,-6],[121436,23],[121447,-6],[121450,-10],[121451,-4],[121452,1],[121464,-2],[121470,20],[121483,-1],[121501,-9],[121509,-2],[121513,-6],[121571,-11],[121581,-5],[121595,-3],[121596,-7],[121611,11],[121641,-21],[121662,-2],[121663,-1],[121697,-16],[121698,-4],[121716,1],[121721,-12],[121726,-21],[121733,12],[121737,-5],[121738,-7],[121748,1],[121766,-13],[121780,-3],[121782,-3],[121838,16],[121858,18],[121861,-3],[121881,-1],[121904,-2],[121917,6],[121920,6],[121922,12],[121923,-5],[121932,-3],[121955,-1],[121965,-10],[121983,-3],[121988,-10],[122012,-3],[122045,-5],[122047,8],[122077,3],[122088,-6],[122123,-3],[122135,-2],[122136,-5],[122148,-10],[122169,-10],[122180,-6],[122181,-4],[122191,27],